SVM-light Version V6.02
1 # kernel type
5 # kernel parameter -d 
1 # kernel parameter -g 
1 # kernel parameter -s 
1 # kernel parameter -r 
empty# kernel parameter -u 
20 # highest feature index 
768 # number of training documents 
628 # number of support vectors plus 1 
0.29690609 # threshold b, each following line is a SV (starting with alpha*y)
-4.6494005786392552400627879724801e-15 1:9 2:1.0599999 3:5.3000002 4:6.3600001 5:2.8599999 6:7.3099999 7:2.54 8:3.3900001 9:1.91 10:6.6700001 11:2.6500001 12:1.48 13:13.14 14:7.52 15:6.7800002 16:6.1399999 17:5.3000002 18:6.8899999 19:1.6900001 20:2.01 #
-4.6494005786392552400627879724801e-15 1:8.5699997 2:1.21 3:5.1399999 4:5.3400002 5:1.92 6:6.4499998 7:3.1199999 8:2.9200001 9:2.3199999 10:5.3400002 11:2.22 12:2.4200001 13:14.62 14:6.96 15:7.7600002 16:8.8699999 17:5.3400002 18:5.04 19:2.02 20:2.4200001 #
-4.6494005786392552400627879724801e-15 1:4.3800001 2:10.95 3:4.3800001 4:7.3000002 5:4.3800001 6:7.3000002 7:3.6500001 8:3.6500001 9:5.8400002 10:9.4899998 11:1.46 12:3.6500001 13:4.3800001 14:0.73000002 15:10.95 16:2.1900001 17:5.8400002 18:5.1100001 19:1.46 20:2.9200001 #
-4.6494005786392552400627879724801e-15 1:1.9 2:8.8599997 3:5.0599999 4:5.6999998 5:3.1600001 6:2.53 7:3.1600001 8:5.0599999 9:6.96 10:10.13 11:1.9 12:2.53 13:4.4299998 14:8.2299995 15:11.39 16:3.8 17:5.6999998 18:2.53 19:0.63 20:6.3299999 #
2.7896403471835533018098538276904e-14 1:5.4400001 2:2.95 3:8.3900003 4:4.7600002 5:3.1700001 6:5.6700001 7:3.4000001 8:6.1199999 9:7.2600002 10:7.48 11:2.49 12:5.9000001 13:4.3099999 14:2.72 15:5.2199998 16:8.8400002 17:4.9899998 18:4.9899998 19:2.95 20:2.95 #
2.7896403471835533018098538276904e-14 1:5.96 2:1.38 3:6.4200001 4:10.09 5:4.5900002 6:5.96 7:2.75 8:5.5 9:4.1300001 10:5.96 11:3.21 12:7.8000002 13:7.3400002 14:2.29 15:3.21 16:5.96 17:4.5900002 18:8.7200003 19:0.92000002 20:3.21 #
2.7896403471835533018098538276904e-14 1:7.5900002 2:2.1600001 3:4.4499998 4:6.7800002 5:2.02 6:5.2600002 7:1.8 8:3.8199999 9:9.5699997 10:7.46 11:1.75 12:3.8199999 13:6.96 14:5.0300002 15:6.9200001 16:10.74 17:5.6199999 18:5.6599998 19:0.44999999 20:2.1600001 #
2.919746863560457369568334098718e-15 1:11.38 2:1.38 3:4.1300001 4:4.6700001 5:1.62 6:3.71 7:3.1800001 8:4.3699999 9:3.95 10:7.1300001 11:2.22 12:5.9299998 13:7.6100001 14:12.82 15:2.8800001 16:9.5299997 17:7.1900001 18:5.27 19:0.23999999 20:0.77999997 #
-4.6494005786392552400627879724801e-15 1:7.6199999 2:1.75 3:5.5599999 4:6.98 5:5.71 6:5.4000001 7:3.3299999 8:3.1700001 9:4.1300001 10:9.8400002 11:2.22 12:4.5999999 13:4.5999999 14:5.71 15:6.3499999 16:6.8299999 17:3.49 18:5.2399998 19:2.22 20:5.2399998 #
2.7896403471835533018098538276904e-14 1:5.3099999 2:3.72 3:6.9099998 4:10.41 5:2.76 6:5.3099999 7:3.6099999 8:4.6799998 9:11.05 10:6.3800001 11:1.38 12:3.9300001 13:3.8299999 14:2.55 15:4.8899999 16:7.6500001 17:7.0100002 18:6.3800001 19:0.11 20:2.1300001 #
-6.1544654937762266856682273627726e-16 1:9.1400003 2:1.38 3:3.28 4:6.7199998 5:1.9 6:5.3400002 7:1.38 8:2.24 9:8.2799997 10:8.79 11:0.86000001 12:3.45 13:3.45 14:4.6599998 15:3.79 16:21.209999 17:5.6900001 18:6.7199998 19:0.69 20:1.03 #
4.7747472567408705058759926788517e-18 1:0 2:22.620001 3:0 4:0 5:1.1900001 6:1.1900001 7:0 8:1.1900001 9:19.049999 10:1.1900001 11:0 12:0 13:9.5200005 14:0 15:36.900002 16:5.9499998 17:0 18:1.1900001 19:0 20:0 #
4.0436446120757359404244246635969e-16 1:0 2:6.54 3:1.87 4:5.6100001 5:0 6:8.4099998 7:14.95 8:0.93000001 9:2.8 10:1.87 11:1.87 12:0 13:3.74 14:4.6700001 15:35.509998 16:6.54 17:0.93000001 18:1.87 19:0 20:1.87 #
4.7409240030957765509140268015282e-17 1:1.96 2:7.8400002 3:1.96 4:0 5:1.96 6:1.96 7:3.9200001 8:0 9:15.69 10:7.8400002 11:1.96 12:1.96 13:5.8800001 14:1.96 15:31.370001 16:3.9200001 17:3.9200001 18:3.9200001 19:0 20:1.96 #
2.7652813590814853007972722016512e-14 1:8.21 2:2.6900001 3:3.21 4:7.0500002 5:1.41 6:8.5900002 7:2.8199999 8:0.76999998 9:4.4899998 10:9.6199999 11:1.67 12:2.1800001 13:14.36 14:3.46 15:8.7200003 16:8.8500004 17:4.0999999 18:4.3600001 19:1.15 20:2.3099999 #
2.7896403471835533018098538276904e-14 1:9.9499998 2:1.08 3:4.0300002 4:6.9899998 5:2.96 6:8.3299999 7:1.88 8:5.6500001 9:12.37 10:9.1400003 11:1.61 12:2.1500001 13:4.8400002 14:2.6900001 15:4.5700002 16:10.48 17:4.3000002 18:5.1100001 19:0.27000001 20:1.61 #
-4.6494005786392552400627879724801e-15 1:5.23 2:0.57999998 3:5.8099999 4:6.4000001 5:4.6500001 6:1.74 7:1.74 8:8.1400003 9:11.63 10:8.7200003 11:1.74 12:9.3000002 13:5.23 14:2.9100001 15:2.9100001 16:7.5599999 17:9.3000002 18:3.49 19:0 20:2.9100001 #
-4.6494005786392552400627879724801e-15 1:5.71 2:0 3:7.6199999 4:6.1900001 5:3.8099999 6:4.29 7:0.47999999 8:6.1900001 9:12.38 10:9.0500002 11:2.3800001 12:10 13:3.3299999 14:5.71 15:8.1000004 16:7.1399999 17:3.8099999 18:3.3299999 19:0 20:0.47999999 #
-4.6494005786392552400627879724801e-15 1:9.4300003 2:0.55000001 3:4.0700002 4:9.9799995 5:2.5899999 6:6.8400002 7:2.03 8:3.3299999 9:7.9499998 10:8.1300001 11:3.1400001 12:3.3299999 13:6.2800002 14:3.3299999 15:8.6899996 16:9.8000002 17:4.0700002 18:3.8800001 19:1.29 20:1.29 #
2.0439035426377425039256058627111e-16 1:2.8 2:1.87 3:1.87 4:4.6700001 5:1.87 6:19.629999 7:0.93000001 8:0 9:26.17 10:1.87 11:0 12:1.87 13:2.8 14:0.93000001 15:27.1 16:0.93000001 17:0.93000001 18:2.8 19:0 20:0.93000001 #
-4.6494005786392552400627879724801e-15 1:5.1100001 2:0.25 3:8.2299995 4:10.22 5:2.6199999 6:5.4899998 7:2.24 8:4.3600001 9:4.6100001 10:4.9899998 11:2.99 12:7.8600001 13:8.2299995 14:10.35 15:3.6199999 16:8.3500004 17:3.6199999 18:3.6199999 19:0.12 20:3.1199999 #
8.1955248197998283402585134975417e-15 1:7.0700002 2:0 3:4.04 4:10.1 5:3.03 6:4.04 7:2.02 8:3.03 9:28.280001 10:4.04 11:2.02 12:3.03 13:6.0599999 14:5.0500002 15:1.01 16:4.04 17:3.03 18:4.04 19:1.01 20:5.0500002 #
-4.6494005786392552400627879724801e-15 1:12.41 2:0.73000002 3:5.8400002 4:2.9200001 5:2.1900001 6:10.95 7:1.46 8:4.3800001 9:6.5700002 10:4.3800001 11:2.1900001 12:2.1900001 13:3.6500001 14:2.9200001 15:10.95 16:6.5700002 17:8.0299997 18:10.22 19:0 20:1.46 #
-4.6494005786392552400627879724801e-15 1:13.99 2:1.4 3:2.0999999 4:5.5900002 5:3.5 6:4.9000001 7:0.69999999 8:0.69999999 9:13.99 10:7.6900001 11:2.0999999 12:2.8 13:3.5 14:8.3900003 15:9.79 16:6.9899998 17:5.5900002 18:4.9000001 19:0 20:1.4 #
-4.6494005786392552400627879724801e-15 1:9.2399998 2:0.94999999 3:4.98 4:7.8200002 5:1.42 6:6.6399999 7:1.66 8:3.55 9:13.74 10:6.4000001 11:2.3699999 12:1.9 13:7.8200002 14:5.21 15:5.9200001 16:7.1100001 17:3.3199999 18:7.3499999 19:1.1799999 20:1.42 #
2.7599171458108505306044900946705e-14 1:3.4300001 2:0.80000001 3:5.4899998 4:11.2 5:2.1700001 6:2.74 7:2.0599999 8:5.3699999 9:12.57 10:9.6000004 11:1.83 12:8.3400002 13:1.9400001 14:6.5100002 15:3.4300001 16:10.51 17:6.1700001 18:4.3400002 19:0 20:1.49 #
-4.6494005786392552400627879724801e-15 1:3.3099999 2:0 3:3.8699999 4:11.6 5:1.1 6:1.66 7:3.8699999 8:8.29 9:6.6300001 10:16.57 11:1.66 12:4.9699998 13:2.76 14:7.73 15:4.9699998 16:8.29 17:6.0799999 18:3.3099999 19:0.55000001 20:2.76 #
-4.6494005786392552400627879724801e-15 1:6.79 2:1.45 3:4.1999998 4:5.6500001 5:1.78 6:5.6500001 7:4.52 8:3.0699999 9:6.46 10:9.6899996 11:1.78 12:3.23 13:12.76 14:5.4899998 15:4.52 16:11.15 17:4.6799998 18:3.55 19:0.81 20:2.75 #
2.7528405459738751748916655615605e-14 1:9.0900002 2:1.3200001 3:6.2800002 4:11.24 5:3.47 6:4.6300001 7:1.65 8:1.98 9:4.1300001 10:9.9200001 11:3.1400001 12:2.1500001 13:8.4300003 14:6.2800002 15:6.2800002 16:6.7800002 17:3.47 18:5.9499998 19:1.16 20:2.6400001 #
-4.6494005786392552400627879724801e-15 1:5.6300001 2:0.17 3:7.6500001 4:6.2199998 5:2.02 6:4.29 7:0.83999997 8:5.0500002 9:10.26 10:5.7199998 11:1.4299999 12:6.73 13:7.23 14:4.04 15:3.7 16:16.57 17:6.1399999 18:5.21 19:0.17 20:0.93000001 #
-4.6494005786392552400627879724801e-15 1:4.5799999 2:3.9200001 3:3.9200001 4:7.1900001 5:1.96 6:3.9200001 7:3.27 8:3.9200001 9:20.26 10:3.9200001 11:1.3099999 12:4.5799999 13:3.27 14:8.5 15:1.3099999 16:5.23 17:6.54 18:6.54 19:0 20:5.8800001 #
-4.6494005786392552400627879724801e-15 1:5.2199998 2:0.37 3:3.3599999 4:10.07 5:0.75 6:2.24 7:2.6099999 8:4.8499999 9:13.81 10:12.69 11:4.0999999 12:7.46 13:2.6099999 14:6.3400002 15:3.3599999 16:8.96 17:5.9699998 18:4.0999999 19:0.37 20:0.75 #
2.1328507125247190025379756841971e-14 1:7.4099998 2:0 3:1.85 4:3.7 5:2.78 6:12.04 7:2.78 8:5.5599999 9:9.2600002 10:4.6300001 11:1.85 12:3.7 13:1.85 14:2.78 15:12.96 16:5.5599999 17:9.2600002 18:8.3299999 19:0 20:3.7 #
1.2146741300535449202519612352484e-14 1:12.12 2:0 3:4.04 4:11.11 5:3.03 6:3.03 7:0 8:2.02 9:14.14 10:4.04 11:2.02 12:5.0500002 13:6.0599999 14:4.04 15:11.11 16:4.04 17:6.0599999 18:3.03 19:1.01 20:4.04 #
2.7896403471835533018098538276904e-14 1:8.8299999 2:0.63 3:2.8399999 4:11.04 5:3.1500001 6:7.8899999 7:2.8399999 8:3.1500001 9:8.8299999 10:8.8299999 11:2.52 12:2.21 13:5.9899998 14:7.2600002 15:7.8899999 16:4.4200001 17:5.0500002 18:4.0999999 19:0.63 20:1.89 #
-4.6494005786392552400627879724801e-15 1:1.49 2:1.12 3:6.3200002 4:13.75 5:2.97 6:1.86 7:2.23 8:5.5799999 9:8.9200001 10:14.5 11:2.97 12:4.8299999 13:4.0900002 14:5.1999998 15:4.0900002 16:6.3200002 17:6.6900001 18:4.46 19:1.49 20:1.12 #
-4.6494005786392552400627879724801e-15 1:8.8900003 2:0.75 3:5.4200001 4:10.69 5:1.2 6:6.3299999 7:1.96 8:2.4100001 9:6.02 10:10.99 11:1.51 12:3.1600001 13:2.26 14:6.02 15:9.6400003 16:10.39 17:5.4200001 18:4.6700001 19:0.60000002 20:1.66 #
-5.8952751546633787573585281651562e-17 1:12.74 2:0 3:2.23 4:17.83 5:2.23 6:6.3699999 7:0.95999998 8:4.46 9:5.4099998 10:9.2399998 11:0.63999999 12:1.91 13:3.5 14:6.6900001 15:10.51 16:4.1399999 17:3.1800001 18:5.4099998 19:1.27 20:1.27 #
-9.3322060648291541811127911021207e-16 1:8.0799999 2:0.68000001 3:3.4200001 4:8.6300001 5:3.29 6:17.809999 7:1.37 8:5.3400002 9:5.48 10:5.75 11:8.6300001 12:4.25 13:5.21 14:1.92 15:7.4000001 16:4.3800001 17:1.92 18:5.3400002 19:0.41 20:0.68000001 #
2.0432993957127241543039617058451e-14 1:2.49 2:2.0699999 3:2.28 4:3.3199999 5:3.1099999 6:3.1099999 7:2.9000001 8:5.5999999 9:7.4699998 10:11.41 11:1.45 12:10.17 13:6.8499999 14:5.1900001 15:5.8099999 16:15.35 17:5.5999999 18:4.1500001 19:0 20:1.66 #
1.8783800392768408328387118320504e-14 1:4.1700001 2:2.5 3:3.5699999 4:9.0500002 5:2.3800001 6:3.21 7:2.02 8:5.48 9:11.9 10:6.5500002 11:1.9 12:6.1900001 13:4.8800001 14:6.4299998 15:4.52 16:11.31 17:6.3099999 18:5.71 19:0.60000002 20:1.3099999 #
2.7896403471835533018098538276904e-14 1:3.7 2:1.23 3:3.7 4:5.5599999 5:1.23 6:6.1700001 7:0.62 8:3.0899999 9:12.96 10:9.2600002 11:1.23 12:8.0200005 13:6.79 14:6.1700001 15:6.79 16:9.2600002 17:4.3200002 18:6.1700001 19:0 20:3.7 #
-4.6494005786392552400627879724801e-15 1:6.9400001 2:0.81999999 3:3.0599999 4:8.1599998 5:2.6500001 6:3.8800001 7:1.84 8:4.4899998 9:15.92 10:8.1599998 11:0.61000001 12:3.47 13:6.73 14:3.27 15:6.1199999 16:10.41 17:6.5300002 18:5.0999999 19:0.81999999 20:1.02 #
-4.6494005786392552400627879724801e-15 1:4.9099998 2:0 3:9.1999998 4:6.75 5:0.61000001 6:4.9099998 7:0.61000001 8:4.29 9:15.95 10:9.1999998 11:0.61000001 12:7.98 13:3.6800001 14:5.52 15:5.52 16:11.04 17:3.6800001 18:3.0699999 19:1.23 20:1.23 #
-4.6494005786392552400627879724801e-15 1:5.73 2:0.41 3:7.0900002 4:7.6399999 5:3 6:2.73 7:2.3199999 8:6.8200002 9:8.46 10:10.64 11:1.5 12:6.5500002 13:6 14:2.73 15:5.8699999 16:8.8699999 17:3.4100001 18:5.73 19:0.94999999 20:3.55 #
2.7367495985848728956296251612556e-14 1:6.0799999 2:1.52 3:4.2600002 4:14.59 5:1.8200001 6:3.95 7:3.95 8:3.04 9:10.03 10:12.46 11:3.6500001 12:2.1300001 13:3.04 14:9.1199999 15:6.3800001 16:6.3800001 17:3.04 18:3.6500001 19:0.61000001 20:0.30000001 #
2.7896403471835533018098538276904e-14 1:6.4000001 2:1.6799999 3:6.23 4:6.9000001 5:3.54 6:3.54 7:3.7 8:6.0599999 9:5.3899999 10:14.31 11:3.54 12:3.8699999 13:5.3899999 14:3.7 15:6.23 16:5.0500002 17:5.5599999 18:5.8899999 19:0.67000002 20:2.3599999 #
-4.6494005786392552400627879724801e-15 1:9.3299999 2:2.1300001 3:2.6700001 4:8.8000002 5:0.52999997 6:9.6000004 7:2.6700001 8:1.33 9:6.6700001 10:10.93 11:1.87 12:1.6 13:11.47 14:4.8000002 15:8.5299997 16:6.4000001 17:5.0700002 18:3.73 19:0.80000001 20:1.0700001 #
-4.1740401703357694226635243527021e-15 1:9.6599998 2:1.38 3:1.38 4:4.1399999 5:4.1399999 6:4.8299999 7:4.8299999 8:2.76 9:6.21 10:8.2799997 11:5.52 12:0.69 13:8.9700003 14:3.45 15:15.17 16:8.9700003 17:4.1399999 18:3.45 19:0.69 20:1.38 #
4.3997343583037859648864169627099e-15 1:8.1700001 2:0 3:10.42 4:7.8899999 5:0 6:13.8 7:1.13 8:1.6900001 9:10.14 10:1.41 11:0.28 12:5.9200001 13:8.1700001 14:2.54 15:7.6100001 16:11.83 17:3.0999999 18:4.79 19:0.28 20:0.85000002 #
7.1911405140632918127413344732731e-16 1:15.38 2:0 3:3.21 4:8.9700003 5:1.92 6:4.4899998 7:1.28 8:3.8499999 9:20.51 10:3.8499999 11:1.92 12:1.92 13:5.1300001 14:1.92 15:2.5599999 16:6.4099998 17:7.6900001 18:6.4099998 19:0 20:2.5599999 #
-4.6494005786392552400627879724801e-15 1:9.3900003 2:1.63 3:5.3099999 4:13.06 5:2.8599999 6:7.3499999 7:2.04 8:2.04 9:13.47 10:4.0799999 11:0.81999999 12:4.4899998 13:6.9400001 14:2.8599999 15:0.41 16:8.5699997 17:4.9000001 18:7.7600002 19:0.81999999 20:1.22 #
-8.0049151130168305168034902305361e-16 1:10.09 2:0.14 3:6.3400002 4:16.139999 5:3.8900001 6:9.6499996 7:0.14 8:1.87 9:13.26 10:4.1799998 11:2.02 12:3.3099999 13:5.3299999 14:2.74 15:4.0300002 16:6.1999998 17:4.6100001 18:4.9000001 19:0.14 20:1.01 #
-4.6494005786392552400627879724801e-15 1:12.47 2:0.25999999 3:5.71 4:3.6400001 5:4.9400001 6:7.5300002 7:1.8200001 8:2.8599999 9:16.620001 10:5.4499998 11:0.77999997 12:4.4200001 13:3.6400001 14:2.8599999 15:2.5999999 16:9.3500004 17:5.1900001 18:7.0100002 19:0.51999998 20:2.3399999 #
2.7896403471835533018098538276904e-14 1:8.5500002 2:4.0599999 3:4.0599999 4:6.1999998 5:3.8499999 6:5.5599999 7:2.99 8:2.5599999 9:3.8499999 10:11.32 11:1.71 12:2.3499999 13:10.26 14:4.27 15:10.26 16:5.1300001 17:4.4899998 18:4.27 19:1.92 20:2.3499999 #
2.7880855075721585374433414729964e-14 1:3.4300001 2:1.47 3:3.9200001 4:6.6199999 5:6.1300001 6:2.7 7:2.9400001 8:10.05 9:11.27 10:13.73 11:0.49000001 12:5.6399999 13:2.45 14:3.9200001 15:4.9000001 16:7.3499999 17:3.1900001 18:4.6599998 19:1.72 20:3.4300001 #
2.691567170610567482525054883472e-15 1:13.92 2:0 3:4.0300002 4:9.1599998 5:0.73000002 6:5.8600001 7:0.73000002 8:1.83 9:24.540001 10:4.7600002 11:0.73000002 12:4.0300002 13:6.23 14:1.83 15:2.9300001 16:4.7600002 17:6.23 18:7.6900001 19:0 20:0 #
2.7896403471835533018098538276904e-14 1:5.0500002 2:2.53 3:3.97 4:7.5799999 5:5.4200001 6:5.7800002 7:1.8099999 8:4.6900001 9:6.8600001 10:9.0299997 11:2.8900001 12:3.97 13:4.6900001 14:5.7800002 15:6.1399999 16:10.83 17:3.97 18:4.6900001 19:0.72000003 20:3.6099999 #
-7.9464378209977885484240754986097e-17 1:6.9200001 2:3.46 3:2.77 4:4.6700001 5:4.3299999 6:4.5 7:2.5999999 8:5.02 9:3.46 10:16.26 11:2.0799999 12:2.9400001 13:4.3299999 14:4.6700001 15:5.71 16:8.3000002 17:4.3299999 18:7.79 19:1.21 20:4.6700001 #
-1.6780574530300841192501007381362e-16 1:1.4 2:0.93000001 3:5.1399999 4:6.54 5:7.48 6:3.74 7:3.74 8:11.68 9:4.21 10:13.55 11:3.74 12:5.6100001 13:2.3399999 14:2.3399999 15:2.8 16:7.0100002 17:6.0700002 18:4.21 19:3.74 20:3.74 #
-4.6494005786392552400627879724801e-15 1:5.9000001 2:1.0599999 3:7.6700001 4:8.1499996 5:2.5999999 6:7.6700001 7:2.8299999 8:3.4200001 9:7.79 10:9.21 11:2.1300001 12:4.5999999 13:6.02 14:4.5999999 15:6.02 16:9.6800003 17:3.6600001 18:3.3099999 19:0.47 20:3.1900001 #
5.1537961110125256108801389973999e-16 1:0 2:1.15 3:2.3 4:2.3 5:0 6:2.3 7:3.45 8:3.45 9:9.1999998 10:5.75 11:2.3 12:5.75 13:5.75 14:1.15 15:35.630001 16:5.75 17:4.5999999 18:5.75 19:0 20:3.45 #
-4.3201633104316684055465790844356e-15 1:5.5599999 2:4.04 3:4.5500002 4:6.0599999 5:3.03 6:3.54 7:1.01 8:5.0500002 9:11.11 10:8.5900002 11:2.02 12:6.0599999 13:6.0599999 14:4.5500002 15:3.54 16:8.0799999 17:8.0799999 18:6.5700002 19:1.01 20:1.52 #
2.7896403471835533018098538276904e-14 1:10.36 2:3.5599999 3:3.8800001 4:6.8000002 5:3.24 6:6.1500001 7:2.27 8:1.62 9:4.5300002 10:9.3900003 11:1.29 12:1.29 13:10.36 14:5.5 15:11 16:8.7399998 17:4.21 18:2.5899999 19:0.97000003 20:2.27 #
-4.6494005786392552400627879724801e-15 1:6.29 2:3.48 3:4.8000002 4:4.1399999 5:4.8000002 6:7.6199999 7:4.6399999 8:4.3000002 9:3.3099999 10:7.2800002 11:1.66 12:6.29 13:6.79 14:2.98 15:5.3000002 16:11.26 17:5.6300001 18:5.3000002 19:1.3200001 20:2.8099999 #
-4.6494005786392552400627879724801e-15 1:3.9400001 2:1.97 3:4.7199998 4:10.43 5:4.1300001 6:4.1300001 7:2.3599999 8:7.8699999 9:5.9099998 10:9.25 11:0.98000002 12:6.6900001 13:5.3099999 14:5.71 15:4.3299999 16:10.83 17:5.9099998 18:2.5599999 19:0.98000002 20:1.97 #
8.6772966238326758058831866048421e-16 1:7.5 2:0 3:2.5 4:2.5 5:0 6:0 7:2.5 8:1.25 9:22.5 10:10 11:1.25 12:6.25 13:7.5 14:3.75 15:16.25 16:5 17:2.5 18:3.75 19:0 20:5 #
2.7896403471835533018098538276904e-14 1:4.73 2:1.39 3:7.3299999 4:7.5100002 5:2.3199999 6:9.2799997 7:2.3199999 8:5.29 9:5.9400001 10:6.4000001 11:2.5 12:3.6199999 13:5.75 14:3.25 15:7.2399998 16:8.3500004 17:6.4000001 18:6.5900002 19:0.82999998 20:2.97 #
-8.5345674559294903717948553823523e-16 1:2.54 2:0 3:3.55 4:4.5700002 5:3.05 6:4.5700002 7:3.55 8:2.54 9:3.05 10:1.52 11:2.03 12:2.03 13:9.6400003 14:7.1100001 15:26.4 16:14.72 17:1.52 18:2.03 19:0 20:5.5799999 #
-4.6494005786392552400627879724801e-15 1:5.3800001 2:1.15 3:1.92 4:7.3099999 5:1.92 6:6.9200001 7:3.0799999 8:4.6199999 9:16.92 10:7.3099999 11:2.6900001 12:3.8499999 13:5 14:3.8499999 15:7.3099999 16:2.6900001 17:5.77 18:7.6900001 19:1.15 20:3.46 #
-8.0576594899893355449328885701517e-16 1:8.3299999 2:0.63999999 3:4.4899998 4:8.3299999 5:2.5599999 6:5.77 7:1.92 8:4.4899998 9:18.59 10:5.77 11:1.28 12:4.4899998 13:5.77 14:1.28 15:2.5599999 16:7.0500002 17:2.5599999 18:12.18 19:0 20:1.92 #
-4.6494005786392552400627879724801e-15 1:8.25 2:2.0599999 3:3.8699999 4:10.57 5:2.3199999 6:6.6999998 7:3.3499999 8:3.6099999 9:17.01 10:4.3800001 11:1.29 12:5.1500001 13:4.6399999 14:6.1900001 15:3.8699999 16:6.1900001 17:3.3499999 18:4.6399999 19:1.29 20:1.29 #
2.7896403471835533018098538276904e-14 1:5.5300002 2:0.55000001 3:8.71 4:10.93 5:4.8400002 6:7.1900001 7:2.21 8:4.6999998 9:12.72 10:5.1199999 11:2.21 12:3.46 13:3.8699999 14:1.9400001 15:3.8699999 16:9.54 17:4.4299998 18:4.6999998 19:0.82999998 20:2.6300001 #
2.7896403471835533018098538276904e-14 1:9.75 2:2 3:6.75 4:7.5 5:3.5 6:10.25 7:1.75 8:4 9:4.25 10:9.5 11:3.25 12:3.25 13:3.25 14:5.25 15:5 16:6.75 17:4.75 18:7.25 19:0 20:2 #
1.5617467534370708878090208782002e-15 1:11.03 2:1.4 3:4.6100001 4:12.43 5:2.3699999 6:10.47 7:1.96 8:2.51 9:8.1000004 10:5.0300002 11:2.6500001 12:7.54 13:6.2800002 14:4.3299999 15:6.1500001 16:4.1900001 17:4.0500002 18:2.9300001 19:0.41999999 20:1.54 #
-4.6494005786392552400627879724801e-15 1:4.5300002 2:0.43000001 3:12.72 4:15.95 5:3.23 6:3.23 7:1.72 8:4.0900002 9:6.25 10:4.3099999 11:1.08 12:6.4699998 13:2.8 14:4.96 15:7.1100001 16:8.1899996 17:5.8200002 18:4.5300002 19:0.43000001 20:2.1600001 #
-3.9372471915254096278056273424065e-15 1:3.1099999 2:1.11 3:4.4400001 4:11.11 5:2.4400001 6:5.5599999 7:4 8:1.78 9:15.56 10:4.6700001 11:2.22 12:4.8899999 13:3.5599999 14:3.78 15:8.8900003 16:14.22 17:3.3299999 18:2.22 19:0.88999999 20:2.22 #
-4.6494005786392552400627879724801e-15 1:6.1300001 2:1.11 3:10.86 4:9.75 5:4.1799998 6:5.5700002 7:1.11 8:5.5700002 9:8.9099998 10:6.6900001 11:1.95 12:2.23 13:6.1300001 14:4.1799998 15:3.6199999 16:7.8000002 17:2.79 18:4.1799998 19:1.67 20:5.5700002 #
-4.6494005786392552400627879724801e-15 1:10.75 2:0.54000002 3:3.23 4:14.52 5:1.61 6:2.6900001 7:1.61 8:2.1500001 9:13.98 10:5.9099998 11:4.3000002 12:2.1500001 13:7.5300002 14:6.9899998 15:8.0600004 16:5.9099998 17:1.61 18:4.3000002 19:0.54000002 20:1.61 #
2.3151387097022457749026480486342e-14 1:7.6399999 2:2.55 3:11.46 4:9.5500002 5:2.55 6:3.8199999 7:3.1800001 8:5.0999999 9:6.3699999 10:8.2799997 11:1.91 12:8.2799997 13:2.55 14:1.27 15:1.27 16:4.46 17:2.55 18:13.38 19:0.63999999 20:3.1800001 #
-4.6494005786392552400627879724801e-15 1:11.97 2:2.8499999 3:6.3600001 4:4.6500001 5:2.1800001 6:7.0300002 7:4.5599999 8:3.8900001 9:4.46 10:12.44 11:1.9 12:6.5500002 13:3.3199999 14:2.75 15:3.51 16:6.8400002 17:5.79 18:6.0799999 19:0.47 20:2.3699999 #
-4.6494005786392552400627879724801e-15 1:6.3800001 2:1.45 3:4.3499999 4:11.3 5:2.3199999 6:2.6099999 7:2.03 8:2.6099999 9:10.14 10:8.6999998 11:1.16 12:4.3499999 13:4.6399999 14:5.5100002 15:8.6999998 16:10.43 17:3.48 18:7.25 19:0.28999999 20:2.3199999 #
-1.9576303102142607008177125846585e-16 1:5.9499998 2:1.7 3:1.13 4:4.25 5:6.8000002 6:5.9499998 7:1.42 8:7.0799999 9:3.6800001 10:16.15 11:3.1199999 12:7.3699999 13:4.5300002 14:2.27 15:1.7 16:7.0799999 17:6.8000002 18:5.3800001 19:3.4000001 20:4.25 #
3.4621109950209903893795370367913e-15 1:3.74 2:0 3:0.93000001 4:13.08 5:0 6:10.28 7:0 8:0.93000001 9:14.95 10:2.8 11:0.93000001 12:0.93000001 13:12.15 14:5.6100001 15:10.28 16:13.08 17:7.48 18:2.8 19:0 20:0 #
1.0161577472995064456306773065597e-14 1:11.68 2:0.89999998 3:2.98 4:13.76 5:1.37 6:3.6900001 7:1.8 8:1.89 9:7.1399999 10:12.39 11:1.37 12:2.0799999 13:2.8800001 14:11.73 15:7.4200001 16:7.6599998 17:4.8699999 18:3.3099999 19:0.38 20:0.70999998 #
-4.6494005786392552400627879724801e-15 1:5.5999999 2:0.86000001 3:4.4499998 4:15.49 5:1.58 6:2.4400001 7:1.15 8:3.3 9:9.7600002 10:13.63 11:2.01 12:5.3099999 13:1.29 14:6.1700001 15:5.7399998 16:10.04 17:4.8800001 18:5.7399998 19:0 20:0.56999999 #
-4.1468623595618383216857982721227e-15 1:8.8900003 2:0.2 3:6.6700001 4:4.4400001 5:4.4400001 6:3.23 7:2.6300001 8:4.6500001 9:10.51 10:8.8900003 11:0.40000001 12:5.0500002 13:1.8200001 14:5.4499998 15:4.2399998 16:9.29 17:6.6700001 18:7.0700002 19:0.61000001 20:4.8499999 #
2.7896403471835533018098538276904e-14 1:10.01 2:0.97000003 3:3.8 4:6.0900002 5:2.71 6:5.5500002 7:3.02 8:2.71 9:5.25 10:8.3199997 11:2.1700001 12:2.9000001 13:8.1999998 14:6.7600002 15:3.9200001 16:12.06 17:8.5600004 18:4.52 19:0.41999999 20:2.05 #
-4.6494005786392552400627879724801e-15 1:6.1999998 2:3.28 3:8.3900003 4:11.31 5:2.1900001 6:3.6500001 7:2.55 8:3.6500001 9:5.1100001 10:7.3000002 11:2.1900001 12:6.9299998 13:5.4699998 14:4.3800001 15:6.1999998 16:6.9299998 17:7.3000002 18:5.8400002 19:0 20:1.09 #
-4.2108358368221207461750248696992e-15 1:10.25 2:0.56999999 3:3.98 4:4.9299998 5:1.33 6:3.98 7:5.1199999 8:3.04 9:4.7399998 10:7.4000001 11:0.75999999 12:6.0700002 13:4.3600001 14:20.68 15:4.9299998 16:7.9699998 17:3.6099999 18:3.8 19:0.19 20:2.28 #
-4.6494005786392552400627879724801e-15 1:5.0500002 2:0.75999999 3:4.5500002 4:10.1 5:1.77 6:6.3099999 7:1.01 8:2.27 9:6.3099999 10:9.0900002 11:2.27 12:5.0500002 13:3.03 14:11.36 15:5.3000002 16:11.87 17:6.5700002 18:4.8000002 19:0.50999999 20:2.02 #
-4.2719951730530203657516543792725e-15 1:6 2:2 3:9 4:12.67 5:3.3299999 6:3 7:1 8:5.3299999 9:10.67 10:8 11:1.33 12:2.6700001 13:2.6700001 14:5.3299999 15:8 16:6.6700001 17:4.3299999 18:3.3299999 19:1 20:3.6700001 #
-4.6494005786392552400627879724801e-15 1:9.8299999 2:0.95999998 3:3.47 4:5.9699998 5:0.95999998 6:8.8599997 7:2.1199999 8:1.9299999 9:9.25 10:8.6700001 11:1.35 12:3.28 13:8.29 14:4.2399998 15:5.9699998 16:12.14 17:5.9699998 18:5.1999998 19:0.95999998 20:0.57999998 #
-4.6494005786392552400627879724801e-15 1:9.0200005 2:1 3:2.76 4:9.0200005 5:2.76 6:8.0200005 7:1.5 8:1.75 9:9.0200005 10:7.77 11:2.51 12:1 13:9.2700005 14:4.5100002 15:6.77 16:9.2700005 17:7.52 18:5.5100002 19:0.25 20:0.75 #
1.9802785840011875543439730640072e-14 1:4.6799998 2:2.9200001 3:4.0900002 4:14.04 5:1.75 6:2.9200001 7:4.0900002 8:4.0900002 9:8.1899996 10:7.5999999 11:3.51 12:3.51 13:5.2600002 14:7.5999999 15:3.51 16:8.7700005 17:4.6799998 18:6.4299998 19:0 20:2.3399999 #
-4.6494005786392552400627879724801e-15 1:9.5200005 2:1.1900001 3:4.7600002 4:7.54 5:4.7600002 6:7.9400001 7:1.1900001 8:6.75 9:8.3299999 10:8.3299999 11:1.98 12:3.5699999 13:4.3699999 14:2.78 15:8.7299995 16:4.7600002 17:6.3499999 18:5.9499998 19:0.40000001 20:0.79000002 #
2.7896403471835533018098538276904e-14 1:4.0900002 2:2 3:4.27 4:11.44 5:3.27 6:3 7:2 8:5.7199998 9:9.6300001 10:9.6300001 11:2.3599999 12:5.4499998 13:3.72 14:6.0900002 15:7.27 16:5.8099999 17:5.27 18:6.0900002 19:0.44999999 20:2.45 #
-4.6494005786392552400627879724801e-15 1:4.0900002 2:1.36 3:4.5500002 4:10.45 5:3.1800001 6:3.6400001 7:1.36 8:7.27 9:5 10:13.64 11:1.8200001 12:7.73 13:1.8200001 14:4.5500002 15:3.6400001 16:13.64 17:3.1800001 18:4.5500002 19:1.36 20:3.1800001 #
9.5230689399031055366786955000515e-16 1:12.16 2:0 3:0 4:0 5:1.35 6:7.4299998 7:0 8:3.3800001 9:20.27 10:4.0500002 11:2.03 12:4.73 13:6.7600002 14:1.35 15:10.14 16:18.24 17:4.0500002 18:3.3800001 19:0 20:0.68000001 #
-4.6494005786392552400627879724801e-15 1:2.1700001 2:0.28999999 3:4.7800002 4:9.6999998 5:2.8900001 6:3.47 7:2.3199999 8:8.9700003 9:10.56 10:11.14 11:1.88 12:8.25 13:1.88 14:6.2199998 15:4.7800002 16:9.1199999 17:5.79 18:2.5999999 19:0.72000003 20:2.46 #
-4.6494005786392552400627879724801e-15 1:5.8200002 2:0.1 3:4.8000002 4:10.42 5:3.98 6:4.6999998 7:1.02 8:9.8100004 9:10.83 10:11.44 11:0.92000002 12:7.0500002 13:1.12 14:5.7199998 15:3.1700001 16:7.3499999 17:5.1100001 18:5.0100002 19:0.1 20:1.53 #
-4.6494005786392552400627879724801e-15 1:4.3299999 2:0.72000003 3:5.0500002 4:10.47 5:4.6900001 6:2.53 7:1.4400001 8:8.3000002 9:11.91 10:11.55 11:1.4400001 12:6.8600001 13:3.6099999 14:6.1399999 15:3.25 16:10.47 17:2.1700001 18:3.97 19:0.36000001 20:0.72000003 #
2.7896403471835533018098538276904e-14 1:9.4399996 2:1.54 3:7.9000001 4:8.8599997 5:2.22 6:4.9099998 7:2.22 8:3.28 9:2.99 10:6.8400002 11:2.22 12:5.3899999 13:6.1700001 14:3.6600001 15:6.5500002 16:13.39 17:4.9099998 18:4.8200002 19:0.67000002 20:2.02 #
2.7733899648512058986956236508024e-14 1:4.3899999 2:0.23999999 3:6.3400002 4:10.65 5:3.3299999 6:3.9000001 7:1.3 8:7.3200002 9:10.08 10:10.98 11:1.79 12:6.9099998 13:1.3 14:5.77 15:5.1999998 16:7.4000001 17:5.3699999 18:5.6100001 19:0.16 20:1.95 #
-4.6494005786392552400627879724801e-15 1:8.96 2:1.49 3:5.9699998 4:7.46 5:2.24 6:5.9699998 7:4.48 8:1.49 9:5.2199998 10:7.46 11:2.99 12:1.49 13:8.96 14:3.73 15:13.43 16:7.46 17:5.2199998 18:3.73 19:0 20:2.24 #
-4.6494005786392552400627879724801e-15 1:11.74 2:1.22 3:2.4400001 4:4.8899999 5:2.2 6:9.54 7:8.0699997 8:3.6700001 9:5.3800001 10:7.8200002 11:3.9100001 12:2.6900001 13:7.3299999 14:3.1800001 15:4.1599998 16:13.69 17:3.4200001 18:3.1800001 19:0.49000001 20:0.98000002 #
-4.6494005786392552400627879724801e-15 1:8.4399996 2:0.88999999 3:6.6700001 4:6.6700001 5:2.22 6:3.5599999 7:1.78 8:1.78 9:3.5599999 10:7.1100001 11:4 12:4 13:6.6700001 14:5.7800002 15:15.11 16:8 17:8 18:3.1099999 19:0 20:2.6700001 #
2.7896403471835533018098538276904e-14 1:4.98 2:0.49000001 3:5.71 4:11.02 5:3.1800001 6:4 7:1.47 8:7.6700001 9:10.94 10:10.69 11:1.39 12:7.02 13:1.8 14:5.0599999 15:4.9000001 16:7.6700001 17:4.3299999 18:4.1599998 19:0.23999999 20:3.27 #
2.7896403471835533018098538276904e-14 1:4.9299998 2:1.96 3:5.0999999 4:8.3299999 5:4 6:3.9100001 7:1.45 8:7.4000001 9:7.9099998 10:13.78 11:2.6400001 12:6.04 13:2.3800001 14:4.6799998 15:3.4000001 16:9.2700005 17:5.0999999 18:5.02 19:0.43000001 20:2.3 #
-4.0347385753747649626376199078978e-15 1:4.6199999 2:0.83999997 3:7.1399999 4:13.45 5:1.26 6:3.3599999 7:0 8:6.7199998 9:8.8199997 10:13.87 11:2.52 12:5.04 13:2.0999999 14:4.1999998 15:3.78 16:10.5 17:3.78 18:5.04 19:0 20:2.9400001 #
-4.6494005786392552400627879724801e-15 1:6.5300002 2:1.51 3:9.0500002 4:10.05 5:1.51 6:2.01 7:1.51 8:8.04 9:8.54 10:10.55 11:3.52 12:2.51 13:1.51 14:6.0300002 15:3.02 16:10.05 17:4.02 18:6.0300002 19:1.51 20:2.51 #
-4.6494005786392552400627879724801e-15 1:6.3299999 2:1.4299999 3:4.4899998 4:13.67 5:3.47 6:1.63 7:2.8599999 8:7.3499999 9:10 10:10.41 11:2.8599999 12:5.0999999 13:2.45 14:5.5100002 15:4.6900001 16:6.73 17:5.3099999 18:4.4899998 19:0.2 20:1.02 #
9.4892067124687761212235868496345e-16 1:3.6400001 2:1.8200001 3:3.6400001 4:0 5:0 6:10.91 7:5.4499998 8:0 9:18.18 10:5.4499998 11:3.6400001 12:5.4499998 13:1.8200001 14:0 15:20 16:12.73 17:1.8200001 18:1.8200001 19:0 20:3.6400001 #
-4.6494005786392552400627879724801e-15 1:9.5600004 2:3.1199999 3:3.6800001 4:6.0700002 5:1.65 6:8.0900002 7:2.5699999 8:1.29 9:1.84 10:11.76 11:1.65 12:1.1 13:12.32 14:4.96 15:6.9899998 16:10.85 17:5.3299999 18:4.96 19:1.29 20:0.92000002 #
-4.6494005786392552400627879724801e-15 1:10.08 2:2.96 3:4.9200001 4:7.6500001 5:2.55 6:6.6399999 7:3.8499999 8:3.2 9:6.7600002 10:8.3000002 11:1.66 12:2.49 13:9.4799995 14:4.5100002 15:4.9200001 16:9.6000004 17:5.6300001 18:3.6800001 19:0.23999999 20:0.88999999 #
-4.6494005786392552400627879724801e-15 1:9.5500002 2:0.56 3:5.0599999 4:6.4000001 5:2.02 6:10.45 7:3.5999999 8:2.1300001 9:4.7199998 10:8.9899998 11:1.12 12:2.1300001 13:7.6399999 14:3.48 15:10.79 16:10.11 17:3.9300001 18:3.48 19:0.56 20:3.26 #
2.7896403471835533018098538276904e-14 1:6.3699999 2:0.83999997 3:6.1999998 4:10.89 5:2.9300001 6:3.02 7:1.51 8:7.04 9:8.79 10:10.3 11:1.6799999 12:5.7800002 13:1.9299999 14:4.6100001 15:6.2800002 16:9.3800001 17:4.6900001 18:4.6900001 19:0.17 20:2.9300001 #
-4.6494005786392552400627879724801e-15 1:7.5900002 2:0.44999999 3:5.3600001 4:11.16 5:5.8000002 6:2.23 7:0.88999999 8:4.9099998 9:12.05 10:10.71 11:2.23 12:7.1399999 13:1.79 14:4.46 15:4.9099998 16:6.25 17:4.46 18:4.02 19:0.44999999 20:3.1199999 #
-4.6494005786392552400627879724801e-15 1:6.5500002 2:0.19 3:8.9899998 4:12.73 5:3 6:3.1800001 7:1.3099999 8:5.9899998 9:9.7399998 10:8.8000002 11:0.75 12:8.6099997 13:2.25 14:4.4899998 15:4.3099999 16:8.0500002 17:4.1199999 18:3.75 19:0.56 20:2.6199999 #
-3.9311346060410482996341999961009e-15 1:6.0300002 2:0.15000001 3:5.7199998 4:10.66 5:2.01 6:2.47 7:1.55 8:5.0999999 9:6.6500001 10:7.73 11:0.62 12:10.51 13:5.0999999 14:4.48 15:6.1799998 16:11.28 17:7.2600002 18:5.0999999 19:0.15000001 20:1.24 #
-4.6494005786392552400627879724801e-15 1:8.3999996 2:3.4400001 3:3.4400001 4:5.5300002 5:3.05 6:6.6799998 7:3.6300001 8:1.72 9:5.3400002 10:6.6799998 11:1.72 12:3.05 13:10.69 14:4.3899999 15:3.8199999 16:8.3999996 17:8.9700003 18:4.0100002 19:0.75999999 20:6.3000002 #
-4.6494005786392552400627879724801e-15 1:7.5900002 2:1.08 3:4.3299999 4:4.02 5:1.7 6:2.6300001 7:4.1799998 8:2.79 9:5.73 10:6.8099999 11:1.7 12:5.4200001 13:9.29 14:6.9699998 15:5.4200001 16:15.94 17:7.1199999 18:4.9499998 19:0.62 20:1.7 #
-1.25272724344980021386716283362e-15 1:11.43 2:0.70999998 3:3.21 4:5.3600001 5:2.8599999 6:3.21 7:0.70999998 8:2.8599999 9:7.1399999 10:6.79 11:2.5 12:2.1400001 13:11.79 14:5.71 15:3.21 16:14.29 17:5.3600001 18:8.9300003 19:0 20:1.79 #
2.6915461008537422254218672302701e-14 1:3.74 2:0.66000003 3:10.33 4:11.21 5:4.8400002 6:4.8400002 7:0.88 8:5.71 9:8.79 10:9.6700001 11:1.76 12:5.4899998 13:3.52 14:3.74 15:2.8599999 16:9.4499998 17:5.0500002 18:4.4000001 19:0 20:3.0799999 #
-4.6494005786392552400627879724801e-15 1:2.9300001 2:2.9300001 3:5.8499999 4:9.7600002 5:6.8299999 6:2.4400001 7:1.95 8:6.3400002 9:9.2700005 10:12.2 11:2.9300001 12:2.9300001 13:3.4100001 14:8.7799997 15:3.9000001 16:5.3699999 17:4.8800001 18:4.8800001 19:0 20:2.4400001 #
-4.6494005786392552400627879724801e-15 1:2.55 2:1.46 3:5.8400002 4:5.4699998 5:2.9200001 6:4.0100002 7:2.1900001 8:10.95 9:11.31 10:10.58 11:1.8200001 12:6.1999998 13:4.3800001 14:4.0100002 15:5.8400002 16:7.6599998 17:4.3800001 18:4.7399998 19:0 20:3.6500001 #
-4.6494005786392552400627879724801e-15 1:2.6600001 2:0.66000003 3:8.4700003 4:7.3099999 5:6.3099999 6:4.4899998 7:1.5 8:7.48 9:9.9700003 10:9.9700003 11:2.3299999 12:5.1500001 13:3.6500001 14:3.1600001 15:4.8200002 16:7.48 17:4.8200002 18:3.6500001 19:0.33000001 20:5.8099999 #
-4.6494005786392552400627879724801e-15 1:10.5 2:1.5700001 3:6.1199999 4:6.6199999 5:2.6500001 6:10.34 7:1.9 8:1.49 9:6.1199999 10:7.1999998 11:0.99000001 12:1.08 13:8.8500004 14:4.71 15:7.7800002 16:12.32 17:4.3000002 18:4.4699998 19:0.57999998 20:0.41 #
-4.6494005786392552400627879724801e-15 1:9.9499998 2:0.94999999 3:2.3699999 4:6.48 5:1.11 6:5.8499999 7:1.26 8:3.1600001 9:6 10:9.1599998 11:2.6900001 12:2.6900001 13:8.8500004 14:6.79 15:6.9499998 16:10.43 17:7.9000001 18:6.3200002 19:0.63 20:0.47 #
-2.1759631384180161593738591838363e-16 1:12.39 2:0.81999999 3:2.8099999 4:3.51 5:5.4400001 6:9.3500004 7:0.88 8:3.8 9:4.9699998 10:6.1999998 11:1.29 12:4.27 13:9.5900002 14:4.73 15:2.22 16:11.16 17:9.3500004 18:5.8400002 19:0.41 20:0.99000001 #
-4.6494005786392552400627879724801e-15 1:6.5100002 2:1.37 3:4.4499998 4:9.25 5:3.4200001 6:3.0799999 7:0 8:5.8200002 9:9.9300003 10:15.07 11:3.0799999 12:6.8499999 13:1.03 14:3.77 15:3.0799999 16:5.8200002 17:5.48 18:5.1399999 19:1.03 20:5.8200002 #
-2.8313491831788150027262398339214e-16 1:3.8099999 2:0.69 3:8.6499996 4:10.38 5:2.0799999 6:3.1099999 7:0.34999999 8:5.8800001 9:11.07 10:14.88 11:2.0799999 12:5.54 13:2.4200001 14:3.1099999 15:5.1900001 16:6.23 17:5.1900001 18:6.5700002 19:0 20:2.77 #
-4.6494005786392552400627879724801e-15 1:7.8400002 2:0.33000001 3:6.21 4:6.54 5:3.27 6:7.1900001 7:1.3099999 8:0.98000002 9:14.38 10:8.1700001 11:2.9400001 12:2.9400001 13:5.23 14:7.8400002 15:8.1700001 16:5.5599999 17:3.5899999 18:4.9000001 19:0.64999998 20:1.96 #
-8.2800860006652993953751355935054e-16 1:3.7 2:0.41 3:4.7199998 4:3.0799999 5:1.03 6:6.1599998 7:2.8699999 8:3.0799999 9:1.23 10:8.21 11:2.05 12:2.46 13:27.719999 14:5.75 15:5.9499998 16:8.0100002 17:6.5700002 18:3.7 19:1.4400001 20:1.85 #
2.7896403471835533018098538276904e-14 1:4.5100002 2:1.71 3:5.7600002 4:11.98 5:2.5699999 6:2.96 7:1.63 8:7.2399998 9:9.8100004 10:11.98 11:1.79 12:4.9000001 13:1.09 14:5.0599999 15:6.3800001 16:8.3299999 17:5.29 18:4.1999998 19:0.31 20:2.49 #
-4.6494005786392552400627879724801e-15 1:10.22 2:0 3:6.5700002 4:5.1100001 5:3.6500001 6:5.1100001 7:1.46 8:7.3000002 9:5.8400002 10:5.8400002 11:2.1900001 12:6.5700002 13:3.6500001 14:5.1100001 15:2.9200001 16:10.22 17:13.14 18:5.1100001 19:0 20:0 #
-4.6494005786392552400627879724801e-15 1:4.9499998 2:1.9400001 3:3.9300001 4:6.7800002 5:2.4200001 6:5.3800001 7:4.25 8:3.6600001 9:5.8099999 10:5.9699998 11:1.29 12:5.1100001 13:11.3 14:5.8699999 15:4.8400002 16:10.87 17:7.9099998 18:4.7399998 19:0.47999999 20:2.48 #
-4.6494005786392552400627879724801e-15 1:8.6499996 2:3.46 3:1.38 4:7.27 5:2.77 6:6.23 7:2.4200001 8:1.04 9:5.8800001 10:7.6100001 11:3.8099999 12:6.23 13:9.3400002 14:7.27 15:6.23 16:8.6499996 17:2.77 18:5.1900001 19:0 20:3.8099999 #
-4.6494005786392552400627879724801e-15 1:5.9099998 2:0 3:8.6400003 4:13.18 5:2.73 6:5 7:0.91000003 8:7.27 9:11.36 10:8.1800003 11:1.8200001 12:7.73 13:2.27 14:1.8200001 15:4.0900002 16:10.91 17:2.73 18:4.0900002 19:0 20:1.36 #
-4.6494005786392552400627879724801e-15 1:3.25 2:2.24 3:11.18 4:7.7199998 5:3.46 6:5.8899999 7:2.6400001 8:6.71 9:10.77 10:9.1499996 11:1.22 12:5.2800002 13:2.4400001 14:2.6400001 15:3.05 16:8.7399998 17:4.6700001 18:6.71 19:1.02 20:1.22 #
-4.6494005786392552400627879724801e-15 1:5.5599999 2:0.56 3:8.5699997 4:8.3400002 5:4.1199999 6:4.6700001 7:1.33 8:7.3400002 9:10.01 10:10.01 11:2.1099999 12:6.4499998 13:2.1099999 14:2.6700001 15:5.4499998 16:10.57 17:3 18:3.1099999 19:1 20:3 #
2.691709033899671138237783232182e-14 1:8.2299995 2:3.46 3:2.1600001 4:2.1600001 5:1.73 6:8.2299995 7:4.7600002 8:2.5999999 9:9.96 10:6.9299998 11:0.87 12:0.87 13:5.6300001 14:5.6300001 15:9.5200005 16:8.2299995 17:7.79 18:7.3600001 19:2.1600001 20:1.73 #
-4.6494005786392552400627879724801e-15 1:1.52 2:1.4299999 3:4.3899999 4:6.0900002 5:7.0700002 6:2.78 7:0.89999998 8:9.3100004 9:11.64 10:10.03 11:1.61 12:9.8500004 13:2.1500001 14:9.3100004 15:2.6900001 16:5.6399999 17:3.6700001 18:4.21 19:0.63 20:5.0999999 #
-4.6494005786392552400627879724801e-15 1:4.48 2:1.99 3:6.4699998 4:12.94 5:1.99 6:2.49 7:2.49 8:4.98 9:6.9699998 10:10.95 11:2.99 12:6.9699998 13:1.49 14:7.96 15:4.98 16:5.9699998 17:2.49 18:6.9699998 19:1 20:3.48 #
-4.6494005786392552400627879724801e-15 1:11.8 2:0.56 3:2.8099999 4:3.9300001 5:2.25 6:7.8699999 7:2.25 8:3.3699999 9:4.4899998 10:6.7399998 11:2.8099999 12:2.8099999 13:6.1799998 14:6.1799998 15:12.92 16:6.7399998 17:10.11 18:3.3699999 19:1.12 20:1.6900001 #
-4.6494005786392552400627879724801e-15 1:14.29 2:5.71 3:4.29 4:4.29 5:2.8599999 6:4.29 7:1.4299999 8:4.29 9:7.1399999 10:10 11:1.4299999 12:1.4299999 13:1.4299999 14:4.29 15:11.43 16:8.5699997 17:8.5699997 18:2.8599999 19:0 20:1.4299999 #
-4.6494005786392552400627879724801e-15 1:7.6700001 2:0.27000001 3:3.29 4:8.4899998 5:1.92 6:10.14 7:1.1 8:1.64 9:10.96 10:10.14 11:1.92 12:3.5599999 13:7.4000001 14:7.4000001 15:11.23 16:3.29 17:3.8399999 18:3.8399999 19:1.64 20:0.27000001 #
-4.6494005786392552400627879724801e-15 1:1.55 2:0.88999999 3:7.3200002 4:11.53 5:3.55 6:2.4400001 7:0.44 8:8.8699999 9:8.4300003 10:13.97 11:2.8800001 12:7.3200002 13:1.11 14:8.4300003 15:2.8800001 16:6.21 17:4.8800001 18:3.99 19:0 20:3.3299999 #
-4.6494005786392552400627879724801e-15 1:3.2 2:0.25 3:5.6700001 4:12.07 5:2.46 6:3.6900001 7:3.2 8:5.6700001 9:10.1 10:10.1 11:2.96 12:6.9000001 13:2.96 14:4.1900001 15:5.9099998 16:9.1099997 17:4.6799998 18:3.45 19:0.49000001 20:2.96 #
-4.6494005786392552400627879724801e-15 1:5.2800002 2:1.87 3:5.2800002 4:6.9000001 5:6.4699998 6:2.21 7:2.6400001 8:8.9399996 9:7.6700001 10:13.12 11:1.62 12:6.1300001 13:2.6400001 14:3.49 15:2.9000001 16:9.2799997 17:5.1999998 18:4.0900002 19:0.76999998 20:3.49 #
-4.6494005786392552400627879724801e-15 1:5.6100001 2:0.69 3:7.4000001 4:8.3299999 5:3.99 6:5.0900002 7:1.79 8:7.5799999 9:10.47 10:9.1999998 11:0.69 12:4.8000002 13:2.8900001 14:2.49 15:3.8199999 16:9.3699999 17:5.6700001 18:7.52 19:0.63999999 20:1.97 #
1.8808735396914668424763344739147e-14 1:13.49 2:2.29 3:4.3299999 4:7.1199999 5:1.78 6:8.6499996 7:2.29 8:4.5799999 9:9.4099998 10:5.3400002 11:2.04 12:2.8 13:5.5999999 14:4.0700002 15:8.3999996 16:6.1100001 17:3.8199999 18:4.3299999 19:0.25 20:3.3099999 #
-4.6494005786392552400627879724801e-15 1:11.19 2:1.17 3:6.3400002 4:14.69 5:2.8399999 6:9.8500004 7:2 8:2.5 9:3.8399999 10:8.5100002 11:1.17 12:1.67 13:4.8400002 14:4.1700001 15:6.5100002 16:6.6799998 17:4.1700001 18:5.1799998 19:1 20:1.67 #
-4.6494005786392552400627879724801e-15 1:11.91 2:0.36000001 3:4.6900001 4:12.27 5:2.53 6:4.3299999 7:1.08 8:2.1700001 9:8.3000002 10:12.27 11:1.8099999 12:1.8099999 13:3.97 14:12.64 15:5.0500002 16:2.53 17:5.0500002 18:5.4200001 19:0.72000003 20:1.08 #
-4.6494005786392552400627879724801e-15 1:6.21 2:1.38 3:5.8600001 4:13.28 5:4.3099999 6:10.86 7:3.0999999 8:3.79 9:6.5500002 10:3.0999999 11:3.0999999 12:2.9300001 13:4.3099999 14:4.1399999 15:6.9000001 16:8.79 17:3.6199999 18:3.0999999 19:0.17 20:4.48 #
2.7896403471835533018098538276904e-14 1:4.3000002 2:1.96 3:5.0500002 4:6.9499998 5:4.9899998 6:2.46 7:1.77 8:8.5900002 9:6.8200002 10:13.71 11:1.9 12:4.9899998 13:3.8499999 14:4.23 15:4.1100001 16:10.87 17:5.0500002 18:5.1799998 19:0.38 20:2.8399999 #
2.7896403471835533018098538276904e-14 1:3.6400001 2:1.8200001 3:6.1199999 4:6.2800002 5:5.4499998 6:3.3099999 7:0.99000001 8:5.6199999 9:9.2600002 10:10.58 11:1.65 12:6.9400001 13:4.1300001 14:5.1199999 15:3.97 16:8.7600002 17:7.1100001 18:6.6100001 19:0.82999998 20:1.8200001 #
-4.6494005786392552400627879724801e-15 1:6.4000001 2:6.4000001 3:4.8000002 4:5.5999999 5:4 6:5.5999999 7:0.80000001 8:2.4000001 9:9.6000004 10:8.8000002 11:1.6 12:7.1999998 13:3.2 14:3.2 15:2.4000001 16:9.6000004 17:8 18:7.1999998 19:0 20:3.2 #
-4.6494005786392552400627879724801e-15 1:4.9099998 2:1.73 3:3.76 4:7.23 5:4.6199999 6:2.3099999 7:2.8900001 8:5.7800002 9:10.98 10:10.98 11:0.87 12:6.0700002 13:3.47 14:3.1800001 15:7.8000002 16:11.56 17:5.1999998 18:3.76 19:0.28999999 20:2.5999999 #
-4.6494005786392552400627879724801e-15 1:2.3699999 2:2.6700001 3:4.4499998 4:4.75 5:3.5599999 6:6.5300002 7:2.6700001 8:7.4200001 9:8.8999996 10:11.57 11:2.3699999 12:7.1199999 13:2.6700001 14:5.04 15:7.1199999 16:9.5 17:2.97 18:5.04 19:0.30000001 20:2.97 #
2.7473467342252840799695446728024e-14 1:8.54 2:0.82999998 3:6.8899999 4:12.67 5:1.38 6:5.5100002 7:1.65 8:2.75 9:8.54 10:7.9899998 11:1.1 12:3.8599999 13:5.79 14:5.5100002 15:7.71 16:6.8899999 17:4.96 18:5.79 19:0.82999998 20:0.82999998 #
-1.1710342984041174618172519510765e-15 1:7.1399999 2:3.0599999 3:9.6899996 4:8.6700001 5:2.04 6:14.8 7:10.2 8:1.53 9:3.0599999 10:7.1399999 11:2.04 12:3.0599999 13:2.55 14:3.0599999 15:2.04 16:2.55 17:2.55 18:12.76 19:0 20:2.04 #
-4.6494005786392552400627879724801e-15 1:6.04 2:1.9299999 3:7.4899998 4:8.4499998 5:2.6600001 6:13.04 7:7.25 8:4.8299999 9:7.73 10:4.8299999 11:1.9299999 12:1.9299999 13:5.5599999 14:3.6199999 15:3.3800001 16:5.5599999 17:5.8000002 18:6.04 19:0.47999999 20:1.45 #
-4.6494005786392552400627879724801e-15 1:6.4099998 2:0.17 3:10.12 4:13.49 5:2.53 6:3.3699999 7:1.01 8:5.0599999 9:9.6099997 10:7.9299998 11:1.52 12:4.5500002 13:3.54 14:3.3699999 15:4.5500002 16:10.79 17:4.0500002 18:5.5599999 19:0.50999999 20:1.85 #
2.7896403471835533018098538276904e-14 1:2.98 2:1.85 3:5.54 4:8.3800001 5:5.2600002 6:2.98 7:1.85 8:7.6700001 9:10.8 10:9.8000002 11:2.1300001 12:6.8200002 13:2.27 14:4.5500002 15:4.1199999 16:8.1000004 17:4.4000001 18:5.1100001 19:1.7 20:3.6900001 #
2.7429977673114516423214048317965e-14 1:6.1300001 2:0.28 3:5.5700002 4:8.0799999 5:4.46 6:3.6199999 7:1.39 8:4.46 9:9.1899996 10:11.42 11:1.95 12:5.8499999 13:5.29 14:3.0599999 15:5.5700002 16:12.81 17:3.6199999 18:2.79 19:1.39 20:3.0599999 #
-4.6494005786392552400627879724801e-15 1:4.4899998 2:1.6900001 3:4.4899998 4:8.71 5:3.6500001 6:5.0599999 7:2.8099999 8:3.3699999 9:7.8699999 10:11.24 11:2.8099999 12:2.25 13:3.3699999 14:8.71 15:4.7800002 16:14.04 17:4.4899998 18:4.21 19:0.56 20:1.4 #
-4.6494005786392552400627879724801e-15 1:5.4899998 2:0.54000002 3:6.1599998 4:8.3000002 5:4.2800002 6:2.8099999 7:0.94 8:6.02 9:11.24 10:13.12 11:1.0700001 12:4.8200002 13:4.02 14:4.8200002 15:3.8800001 16:10.04 17:4.8200002 18:4.4200001 19:0.40000001 20:2.8099999 #
-4.6494005786392552400627879724801e-15 1:3 2:0 3:4.7199998 4:11.16 5:3.8599999 6:2.5799999 7:2.5799999 8:5.5799999 9:7.3000002 10:12.88 11:2.5799999 12:6.0100002 13:5.5799999 14:6.4400001 15:5.1500001 16:9.4399996 17:4.7199998 18:3.4300001 19:1.29 20:1.72 #
2.7130270206320216839220285402301e-14 1:7.0300002 2:1.5599999 3:7.8099999 4:3.1199999 5:1.5599999 6:8.5900002 7:3.1199999 8:9.3800001 9:14.06 10:3.9100001 11:4.6900001 12:3.9100001 13:2.3399999 14:2.3399999 15:3.9100001 16:8.5900002 17:3.1199999 18:8.5900002 19:0.77999997 20:1.5599999 #
-4.6494005786392552400627879724801e-15 1:13.95 2:2.3299999 3:6.98 4:6.98 5:2.3299999 6:9.3000002 7:1.16 8:5.8099999 9:4.6500001 10:4.6500001 11:3.49 12:10.47 13:2.3299999 14:3.49 15:2.3299999 16:5.8099999 17:4.6500001 18:5.8099999 19:1.16 20:2.3299999 #
-4.6494005786392552400627879724801e-15 1:12.26 2:1.67 3:4.7399998 4:7.8000002 5:2.23 6:6.6900001 7:3.0599999 8:3.0599999 9:4.1799998 10:5.5700002 11:2.79 12:4.1799998 13:3.3399999 14:3.6199999 15:7.2399998 16:7.52 17:6.1300001 18:5.8499999 19:0.28 20:7.8000002 #
-4.6494005786392552400627879724801e-15 1:9.0900002 2:3.25 3:4.8699999 4:5.1900001 5:4.5500002 6:8.4399996 7:1.62 8:3.5699999 9:6.1700001 10:6.1700001 11:2.5999999 12:7.4699998 13:2.5999999 14:2.9200001 15:3.9000001 16:7.4699998 17:6.8200002 18:7.4699998 19:1.95 20:3.9000001 #
-4.4196910155763497171181501748884e-16 1:9.0900002 2:3.4100001 3:1.14 4:4.5500002 5:3.4100001 6:3.4100001 7:3.4100001 8:4.5500002 9:14.77 10:13.64 11:1.14 12:3.4100001 13:2.27 14:3.4100001 15:11.36 16:6.8200002 17:2.27 18:7.9499998 19:0 20:0 #
-4.6494005786392552400627879724801e-15 1:6.8200002 2:1.36 3:4.5500002 4:5.4499998 5:4.5500002 6:4.0900002 7:2.27 8:6.8200002 9:12.73 10:10 11:1.36 12:0.91000003 13:4.0900002 14:6.8200002 15:7.73 16:7.73 17:4.5500002 18:4.5500002 19:0.44999999 20:3.1800001 #
-4.6494005786392552400627879724801e-15 1:8.4200001 2:1.1799999 3:3.2 4:10.1 5:3.3699999 6:5.5599999 7:2.3599999 8:5.0500002 9:10.94 10:10.27 11:2.02 12:3.7 13:3.54 14:3.2 15:5.2199998 16:10.27 17:3.3699999 18:6.0599999 19:0.17 20:2.02 #
-4.6494005786392552400627879724801e-15 1:6.6999998 2:1.0700001 3:4.5599999 4:9.9200001 5:1.61 6:5.3600001 7:1.61 8:2.95 9:2.6800001 10:12.6 11:2.4100001 12:3.49 13:12.33 14:4.5599999 15:6.9699998 16:7.77 17:4.29 18:4.8299999 19:0.27000001 20:4.02 #
-4.6494005786392552400627879724801e-15 1:4.5799999 2:4.1700001 3:3.75 4:12.5 5:5 6:3.3299999 7:4.5799999 8:3.3299999 9:2.5 10:6.6700001 11:2.5 12:4.5799999 13:7.9200001 14:5 15:4.5799999 16:10.83 17:5.8299999 18:5 19:1.67 20:1.67 #
-4.6494005786392552400627879724801e-15 1:5.73 2:1.91 3:9.3400002 4:6.1599998 5:4.46 6:8.9200001 7:3.8199999 8:4.25 9:3.4000001 10:7.6399999 11:2.76 12:3.8199999 13:6.79 14:1.7 15:6.5799999 16:7.2199998 17:3.6099999 18:6.5799999 19:0.63999999 20:4.6700001 #
-4.6494005786392552400627879724801e-15 1:6.52 2:0.62 3:4.04 4:10.56 5:3.4200001 6:4.3499999 7:1.24 8:9.0100002 9:10.25 10:9.3199997 11:0.62 12:6.52 13:3.1099999 14:3.1099999 15:7.7600002 16:6.8299999 17:4.9699998 18:6.52 19:0 20:1.24 #
-4.6494005786392552400627879724801e-15 1:3.8099999 2:1.37 3:6.0999999 4:12.12 5:2.29 6:3.05 7:2.0599999 8:6.7800002 9:11.28 10:10.59 11:2.52 12:4.9499998 13:1.3 14:7.8499999 15:6.3299999 16:6.1700001 17:4.8800001 18:4.3400002 19:0.30000001 20:1.91 #
-4.6494005786392552400627879724801e-15 1:4.7399998 2:1.29 3:4.96 4:10.78 5:3.45 6:2.3699999 7:2.1600001 8:6.6799998 9:12.5 10:10.56 11:3.02 12:4.96 13:2.5899999 14:6.4699998 15:4.0900002 16:6.25 17:4.0900002 18:5.3899999 19:0.22 20:3.45 #
-4.6494005786392552400627879724801e-15 1:8.5900002 2:0.47999999 3:8.9499998 4:7.2600002 5:3.99 6:3.51 7:2.3 8:4.5900002 9:5.1999998 10:6.1700001 11:1.8099999 12:7.8600001 13:5.6799998 14:3.6300001 15:5.4400001 16:8.71 17:7.3800001 18:5.1999998 19:0.23999999 20:3.02 #
-4.6494005786392552400627879724801e-15 1:6.1700001 2:5.4200001 3:5.7199998 4:7.23 5:2.4100001 6:6.6300001 7:2.26 8:2.26 9:4.3699999 10:8.4300003 11:1.66 12:3.3099999 13:7.3800001 14:5.5700002 15:6.6300001 16:9.1899996 17:5.5700002 18:6.1700001 19:0.89999998 20:2.71 #
-4.6494005786392552400627879724801e-15 1:5.0900002 2:2.5999999 3:8.2600002 4:5.6599998 5:3.3900001 6:8.6000004 7:1.7 8:4.6399999 9:5.1999998 10:8.0299997 11:2.3800001 12:5.6599998 13:6.1100001 14:4.1900001 15:5.8800001 16:9.0500002 17:4.4099998 18:6.5599999 19:1.13 20:1.47 #
9.4756822545152652554884206392846e-15 1:9.2700005 2:0.40000001 3:2.0799999 4:3.6800001 5:1.12 6:5.1999998 7:1.6 8:5.1199999 9:5.1999998 10:8.3100004 11:1.92 12:4.96 13:7.75 14:14.63 15:3.76 16:8.8699999 17:10.15 18:4.8800001 19:0.40000001 20:0.72000003 #
-8.6613232957903079665897883433833e-16 1:6.3400002 2:0.34999999 3:5.2800002 4:8.8000002 5:2.8199999 6:8.4499998 7:2.1099999 8:3.52 9:19.01 10:7.3899999 11:0.69999999 12:3.52 13:1.76 14:2.8199999 15:5.6300001 16:10.56 17:3.8699999 18:4.23 19:1.41 20:1.41 #
-4.6494005786392552400627879724801e-15 1:9.3100004 2:0 3:6.0100002 4:11.71 5:2.7 6:4.1999998 7:1.2 8:5.71 9:15.02 10:7.21 11:1.5 12:4.8000002 13:2.7 14:4.5 15:6.6100001 16:7.5100002 17:4.5 18:3.3 19:0 20:1.5 #
-4.6494005786392552400627879724801e-15 1:3.1800001 2:0 3:7.8000002 4:8.96 5:2.5999999 6:8.96 7:1.45 8:6.0700002 9:11.56 10:6.6500001 11:2.02 12:5.4899998 13:1.73 14:4.6199999 15:7.8000002 16:10.4 17:5.1999998 18:4.0500002 19:0 20:1.45 #
2.7896403471835533018098538276904e-14 1:6.71 2:2.4000001 3:4.5100002 4:4.3099999 5:2.6800001 6:5.8499999 7:2.8800001 8:5.5599999 9:5.9400001 10:6.8099999 11:2.1099999 12:4.2199998 13:10.35 14:5.5599999 15:5.1799998 16:9.3999996 17:7.5700002 18:4.4099998 19:0.86000001 20:2.6800001 #
-4.6494005786392552400627879724801e-15 1:7.5300002 2:1.97 3:3.0799999 4:3.77 5:2.4000001 6:5.0500002 7:4.3699999 8:4.4499998 9:4.02 10:6.9299998 11:2.48 12:3.5999999 13:7.8800001 14:7.1100001 15:3.9400001 16:11.04 17:9.5900002 18:6.7600002 19:0.76999998 20:3.25 #
-4.6494005786392552400627879724801e-15 1:6.6399999 2:1.14 3:4.4200001 4:7.0900002 5:2.9000001 6:3.8900001 7:2.29 8:3.8099999 9:7.8600001 10:7.6999998 11:2.21 12:5.8699999 13:9.3800001 14:4.3499999 15:4.04 16:10.68 17:8.7700005 18:4.3499999 19:0.99000001 20:1.6 #
-4.6494005786392552400627879724801e-15 1:5.5300002 2:2.6099999 3:5.3800001 4:4.4499998 5:2.9200001 6:3.6900001 7:3.53 8:4.7600002 9:5.3800001 10:11.67 11:2.3 12:3.53 13:7.9899998 14:4.4499998 15:4.1500001 16:12.44 17:7.0700002 18:5.2199998 19:0.46000001 20:2.46 #
-4.6494005786392552400627879724801e-15 1:5.6900001 2:0 3:5.3899999 4:12.57 5:3.29 6:4.1900001 7:1.5 8:4.79 9:10.18 10:6.5900002 11:2.0999999 12:5.0900002 13:2.6900001 14:4.4899998 15:8.6800003 16:9.2799997 17:4.1900001 18:5.3899999 19:1.2 20:2.6900001 #
-4.6494005786392552400627879724801e-15 1:12.16 2:1.22 3:5.7800002 4:9.1199999 5:3.3399999 6:7.29 7:2.4300001 8:1.52 9:3.04 10:10.64 11:1.8200001 12:1.8200001 13:6.6900001 14:4.5599999 15:8.21 16:6.6900001 17:5.1700001 18:5.1700001 19:1.22 20:2.1300001 #
-2.2083444300321771412684047507659e-15 1:15.09 2:0.63 3:4.4000001 4:3.1400001 5:0.63 6:7.5500002 7:2.52 8:4.4000001 9:0.63 10:8.1800003 11:1.89 12:1.26 13:15.09 14:1.89 15:8.8100004 16:8.1800003 17:4.4000001 18:6.29 19:2.52 20:2.52 #
2.7021282192905263435713048846216e-14 1:5.73 2:0.63999999 3:6.6900001 4:9.2399998 5:1.59 6:2.55 7:3.5 8:3.5 9:8.2799997 10:10.19 11:3.8199999 12:5.4099998 13:2.55 14:4.1399999 15:6.6900001 16:12.1 17:7.0100002 18:4.7800002 19:0.63999999 20:0.95999998 #
-4.6494005786392552400627879724801e-15 1:3.22 2:1.6799999 3:7.3499999 4:5.8000002 5:4.1199999 6:4.9000001 7:1.55 8:7.2199998 9:7.5999999 10:8.8900003 11:1.55 12:7.9899998 13:2.5799999 14:3.22 15:4.77 16:10.05 17:6.3099999 18:7.73 19:2.1900001 20:1.29 #
-4.6494005786392552400627879724801e-15 1:3.21 2:3.21 3:3.6099999 4:9.2399998 5:5.2199998 6:1.61 7:2.8099999 8:7.23 9:8.0299997 10:11.24 11:4.02 12:7.23 13:2.4100001 14:6.02 15:4.8200002 16:8.0299997 17:3.6099999 18:2.8099999 19:1.61 20:4.02 #
-4.6494005786392552400627879724801e-15 1:2.96 2:0.99000001 3:6.5100002 4:9.0699997 5:4.1399999 6:3.55 7:2.3699999 8:7.5 9:7.3000002 10:8.0900002 11:1.58 12:6.1100001 13:3.3499999 14:4.54 15:6.1100001 16:9.8599997 17:6.1100001 18:4.3400002 19:1.78 20:3.75 #
-4.6494005786392552400627879724801e-15 1:9.2700005 2:1.46 3:4.3899999 4:10.73 5:2.4400001 6:4.3899999 7:1.95 8:3.9000001 9:5.3699999 10:9.7600002 11:1.95 12:1.95 13:3.9000001 14:11.22 15:6.8299999 16:6.3400002 17:3.9000001 18:6.8299999 19:0.98000002 20:2.4400001 #
-4.6494005786392552400627879724801e-15 1:8.1999998 2:2.6600001 3:3.55 4:7.3200002 5:2.4400001 6:5.9899998 7:2.6600001 8:2.22 9:5.0999999 10:12.42 11:2 12:2.22 13:9.5299997 14:6.4299998 15:6.4299998 16:7.0999999 17:4.4299998 18:5.9899998 19:1.33 20:2 #
-8.226585174854610086707867966278e-16 1:7.6100001 2:0.50999999 3:5.0799999 4:14.72 5:1.02 6:5.5799999 7:3.05 8:4.0599999 9:4.5700002 10:13.71 11:1.52 12:1.02 13:2.03 14:9.1400003 15:5.5799999 16:5.5799999 17:4.5700002 18:7.1100001 19:1.52 20:2.03 #
-4.6494005786392552400627879724801e-15 1:3.9200001 2:1.3099999 3:6.1999998 4:7.3400002 5:4.73 6:5.0599999 7:1.47 8:6.5300002 9:10.6 10:7.8299999 11:1.96 12:6.5300002 13:4.0799999 14:3.75 15:3.26 16:12.89 17:4.5700002 18:4.8899999 19:0.64999998 20:2.45 #
-4.6494005786392552400627879724801e-15 1:2.6900001 2:1.58 3:6.6399999 4:9.0900002 5:2.9200001 6:3 7:2.0599999 8:5.3800001 9:11.94 10:7.75 11:2.1300001 12:9.0900002 13:3.0799999 14:5.2199998 15:4.1900001 16:10.59 17:6.0100002 18:4.8200002 19:0.23999999 20:1.58 #
-4.6494005786392552400627879724801e-15 1:5.25 2:0.79000002 3:5.4099998 4:6.52 5:3.5 6:3.5 7:1.75 8:7.79 9:7.1500001 10:11.92 11:1.4299999 12:7.79 13:4.29 14:4.6100001 15:3.5 16:10.81 17:6.8400002 18:4.29 19:0.31999999 20:2.54 #
-4.6494005786392552400627879724801e-15 1:5.6599998 2:1.21 3:5.9299998 4:5.6599998 5:4.1799998 6:6.3299999 7:3.6400001 8:6.0599999 9:9.1599998 10:9.1599998 11:2.4300001 12:5.1199999 13:3.6400001 14:3.3699999 15:5.3899999 16:8.3599997 17:6.3299999 18:5.6599998 19:0.54000002 20:2.1600001 #
-4.6494005786392552400627879724801e-15 1:6.6100001 2:0.36000001 3:9.6400003 4:11.43 5:3.5699999 6:6.96 7:2.3199999 8:2.8599999 9:7.6799998 10:10.36 11:1.79 12:1.96 13:5 14:4.6399999 15:6.4299998 16:8.04 17:3.9300001 18:3.9300001 19:0.88999999 20:1.61 #
-4.6494005786392552400627879724801e-15 1:8.0100002 2:1.46 3:7.4200001 4:10.19 5:3.9300001 6:9.6099997 7:2.1800001 8:3.2 9:5.5300002 10:5.6799998 11:2.47 12:3.6400001 13:6.2600002 14:3.9300001 15:7.2800002 16:7.2800002 17:4.9499998 18:3.2 19:0.73000002 20:3.0599999 #
-4.6494005786392552400627879724801e-15 1:8.25 2:0.51999998 3:4.9099998 4:11.6 5:2.6099999 6:4.1799998 7:2.8199999 8:2.8199999 9:10.55 10:5.4299998 11:4.4899998 12:3.24 13:4.8099999 14:4.0799999 15:5.8499999 16:10.55 17:6.0599999 18:3.6600001 19:1.36 20:2.1900001 #
-4.6494005786392552400627879724801e-15 1:3.51 2:2.04 3:4.4099998 4:4.52 5:6.6700001 6:2.5999999 7:2.49 8:9.3900003 9:8.4799995 10:11.31 11:1.58 12:7.6900001 13:3.6199999 14:4.1900001 15:4.0700002 16:7.8099999 17:5.54 18:5.54 19:0.89999998 20:3.6199999 #
-4.6494005786392552400627879724801e-15 1:3.23 2:2.4200001 3:6.4499998 4:7.2600002 5:5.6500001 6:2.4200001 7:1.61 8:5.6500001 9:8.8699999 10:8.8699999 11:2.4200001 12:7.2600002 13:7.2600002 14:1.61 15:10.48 16:8.8699999 17:2.4200001 18:2.4200001 19:0 20:4.8400002 #
-8.0880187200635934919494019503704e-16 1:2.8299999 2:1.52 3:4.25 4:4.7600002 5:7.8899999 6:2.8299999 7:2.4300001 8:7.79 9:9.1099997 10:11.13 11:2.9400001 12:5.2600002 13:3.1400001 14:3.54 15:5.9699998 16:9.6199999 17:4.4499998 18:5.6700001 19:1.11 20:3.74 #
-4.6494005786392552400627879724801e-15 1:7.8899999 2:2.8099999 3:5.4400001 4:7.8899999 5:2.6300001 6:4.5599999 7:1.23 8:3.3299999 9:6.6700001 10:9.6499996 11:1.58 12:1.9299999 13:6.6700001 14:8.0699997 15:6.4899998 16:8.9499998 17:5.6100001 18:6.8400002 19:1.05 20:0.69999999 #
-4.6494005786392552400627879724801e-15 1:8.1300001 2:0.74000001 3:5.4200001 4:7.8800001 5:2.8299999 6:7.5100002 7:1.6 8:2.96 9:9.2399998 10:8.3699999 11:1.35 12:3.5699999 13:7.5100002 14:5.54 15:6.4000001 16:7.8800001 17:5.3000002 18:5.54 19:0.49000001 20:1.72 #
-4.6494005786392552400627879724801e-15 1:5.5100002 2:3.0599999 3:4.4400001 4:9.8000002 5:2.9100001 6:5.21 7:3.3699999 8:2.76 9:6.4299998 10:8.5799999 11:1.23 12:3.0599999 13:6.1300001 14:8.5799999 15:6.5799999 16:7.1999998 17:5.8200002 18:6.5799999 19:1.23 20:1.53 #
-4.6494005786392552400627879724801e-15 1:5.6700001 2:0.44999999 3:5.2199998 4:9.9799995 5:3.8499999 6:1.59 7:1.59 8:5.6700001 9:5.6700001 10:9.75 11:0.68000001 12:7.0300002 13:2.72 14:7.0300002 15:5.2199998 16:15.65 17:4.7600002 18:5.6700001 19:0 20:1.8099999 #
-4.6494005786392552400627879724801e-15 1:5.6399999 2:2.21 3:3.8599999 4:7.5700002 5:3.9300001 6:3.71 7:1.71 8:6.5700002 9:7.1399999 10:12.36 11:1.21 12:5.5700002 13:4.0700002 14:4.0700002 15:3.6400001 16:12.36 17:5.79 18:5.71 19:0.93000001 20:1.9299999 #
-4.6494005786392552400627879724801e-15 1:6.7800002 2:0.64999998 3:6.04 4:9.8400002 5:3.71 6:3.25 7:2.1400001 8:5.3899999 9:10.4 10:12.44 11:1.86 12:6.8699999 13:2.1400001 14:4.7399998 15:4.0900002 16:7.2399998 17:4.46 18:3.1600001 19:0.93000001 20:3.9000001 #
2.7481963284936590545947400934502e-14 1:6.3400002 2:2.01 3:5.8800001 4:6.2600002 5:4.3299999 6:9.2799997 7:1.62 8:6.2600002 9:5.2600002 10:8.8900003 11:2.0899999 12:6.1100001 13:4.6399999 14:4.02 15:6.73 16:6.2600002 17:4.1799998 18:6.1100001 19:0.85000002 20:2.8599999 #
-4.6494005786392552400627879724801e-15 1:6.21 2:1.6799999 3:6.4200001 4:6.9499998 5:4.9499998 6:6.7399998 7:2 8:4.3200002 9:5.79 10:7.8899999 11:2.8399999 12:4.8400002 13:9.0500002 14:4.1100001 15:7.5799999 16:5.5799999 17:2.74 18:5.1599998 19:1.58 20:3.5799999 #
-4.6494005786392552400627879724801e-15 1:2.9100001 2:7.77 3:3.8800001 4:1.9400001 5:3.8800001 6:12.62 7:1.9400001 8:4.8499999 9:4.8499999 10:4.8499999 11:3.8800001 12:3.8800001 13:8.7399998 14:5.8299999 15:12.62 16:5.8299999 17:3.8800001 18:0.97000003 19:3.8800001 20:0.97000003 #
-4.6494005786392552400627879724801e-15 1:5.52 2:2.0699999 3:7.5900002 4:8.9700003 5:3.45 6:5.52 7:3.45 8:11.03 9:6.9000001 10:6.9000001 11:0.69 12:5.52 13:4.1399999 14:2.76 15:4.1399999 16:4.1399999 17:4.8299999 18:7.5900002 19:0.69 20:4.1399999 #
2.7896403471835533018098538276904e-14 1:4.8899999 2:0.94 3:5.7199998 4:4.9899998 5:3.6400001 6:4.1599998 7:1.66 8:3.3299999 9:8 10:9.04 11:1.04 12:3.95 13:7.3800001 14:5.9299998 15:7.3800001 16:11.54 17:7.6900001 18:6.5500002 19:0.41999999 20:1.77 #
-4.6494005786392552400627879724801e-15 1:6.4200001 2:0.44 3:5.3099999 4:8.4099998 5:2.8800001 6:6.1900001 7:0.88 8:3.0999999 9:7.96 10:9.0699997 11:1.33 12:3.98 13:6.4200001 14:3.0999999 15:8.4099998 16:9.7299995 17:8.4099998 18:5.3099999 19:0.44 20:2.21 #
-4.6494005786392552400627879724801e-15 1:7.9400001 2:1.55 3:5.6599998 4:6.75 5:2.9200001 6:5.75 7:2.1900001 8:2.74 9:11.22 10:7.7600002 11:1.55 12:3.01 13:7.8499999 14:3.3800001 15:4.3800001 16:10.13 17:6.1999998 18:5.3800001 19:1 20:2.6500001 #
-4.6494005786392552400627879724801e-15 1:6.48 2:0.88 3:4.9000001 4:8.0600004 5:2.8 6:1.58 7:1.9299999 8:6.8299999 9:8.7600002 10:8.7600002 11:2.0999999 12:4.0300002 13:8.7600002 14:2.45 15:6.48 16:13.13 17:5.7800002 18:5.0799999 19:0.34999999 20:0.88 #
-4.6494005786392552400627879724801e-15 1:3.3699999 2:0.61000001 3:7.98 4:8.2799997 5:3.0699999 6:7.3600001 7:2.76 8:6.1300001 9:7.0599999 10:6.75 11:1.23 12:10.43 13:3.99 14:2.45 15:2.76 16:8.8999996 17:4.29 18:8.8999996 19:1.23 20:2.45 #
-6.3501783902287133273165354421556e-16 1:5.1300001 2:0.63999999 3:4.8099999 4:7.21 5:4.8099999 6:3.3699999 7:4.3299999 8:4.6500001 9:5.1300001 10:9.7799997 11:2.0799999 12:5.6100001 13:5.6100001 14:4.6500001 15:4.8099999 16:5.1300001 17:4.9699998 18:10.26 19:1.76 20:5.29 #
-4.6494005786392552400627879724801e-15 1:6.0700002 2:1.87 3:7.48 4:8.1800003 5:5.6100001 6:4.9099998 7:2.5699999 8:6.0700002 9:6.7800002 10:9.5799999 11:3.5 12:3.74 13:3.5 14:5.3699999 15:5.8400002 16:4.6700001 17:3.5 18:8.4099998 19:0 20:2.3399999 #
-3.6513801192375451885160266367113e-15 1:5.6599998 2:0.28 3:3.1099999 4:8.1999998 5:2.97 6:15.13 7:2.55 8:1.7 9:4.6700001 10:4.5300002 11:3.96 12:1.98 13:16.27 14:6.9299998 15:8.4899998 16:5.23 17:3.25 18:2.97 19:0.14 20:1.98 #
-4.6494005786392552400627879724801e-15 1:10.52 2:0.88999999 3:4.0999999 4:8.5600004 5:2.3199999 6:7.3099999 7:3.03 8:1.0700001 9:3.03 10:10.52 11:1.6 12:1.6 13:9.8000002 14:5.6999998 15:8.1999998 16:9.4499998 17:5.3499999 18:5.8800001 19:0 20:1.0700001 #
-2.7486225082774461117246907956193e-15 1:10.2 2:0.88 3:3.1400001 4:3.8199999 5:2.3499999 6:8.2399998 7:3.1400001 8:1.37 9:3.4300001 10:9.1199999 11:2.55 12:4.2199998 13:11.37 14:10.88 15:3.6300001 16:11.86 17:4.1199999 18:3.9200001 19:0.38999999 20:1.37 #
-4.6494005786392552400627879724801e-15 1:6.0300002 2:1.21 3:5.8800001 4:10.41 5:3.6199999 6:3.1700001 7:1.36 8:6.3299999 9:9.3500004 10:10.71 11:2.26 12:6.3299999 13:3.77 14:2.8699999 15:5.4299998 16:8.6000004 17:4.98 18:4.98 19:0.30000001 20:2.4100001 #
-4.6494005786392552400627879724801e-15 1:5.9200001 2:1.4 3:4.52 4:12.77 5:3.1199999 6:4.21 7:2.02 8:4.98 9:9.9700003 10:11.06 11:2.1800001 12:5.3000002 13:2.8 14:5.6100001 15:4.52 16:7.3200002 17:4.3600001 18:4.21 19:0.62 20:3.1199999 #
-4.6494005786392552400627879724801e-15 1:8.04 2:0.5 3:10.72 4:12.23 5:1.84 6:4.8600001 7:1.01 8:5.3600001 9:10.05 10:9.7200003 11:1.51 12:4.6900001 13:2.8499999 14:4.02 15:6.0300002 16:7.3699999 17:2.8499999 18:2.6800001 19:0.5 20:3.1800001 #
-4.6494005786392552400627879724801e-15 1:7.1399999 2:5.1900001 3:4.5500002 4:3.9000001 5:2.5999999 6:5.1900001 7:1.95 8:1.3 9:3.25 10:11.69 11:1.3 12:3.25 13:6.4899998 14:10.39 15:11.69 16:6.4899998 17:6.4899998 18:3.9000001 19:1.3 20:1.95 #
-4.6494005786392552400627879724801e-15 1:7.3699999 2:1.42 3:4.25 4:4.5300002 5:2.27 6:5.3800001 7:4.25 8:3.6800001 9:12.46 10:8.5 11:1.7 12:5.0999999 13:7.9299998 14:3.97 15:4.5300002 16:9.3500004 17:5.3800001 18:5.0999999 19:1.13 20:1.7 #
-4.6494005786392552400627879724801e-15 1:7.4899998 2:2.05 3:4.46 4:4.9099998 5:2.3199999 6:7.0500002 7:3.1199999 8:2.5 9:8.1199999 10:7.6700001 11:1.52 12:3.48 13:8.3000002 14:5 15:6.5999999 16:11.51 17:5.5300002 18:5.2600002 19:0.88999999 20:2.23 #
2.7896403471835533018098538276904e-14 1:6.3299999 2:0.64999998 3:5.8400002 4:11.03 5:3.73 6:3.8099999 7:1.87 8:6.6500001 9:9.4099998 10:10.87 11:1.54 12:3.97 13:2.03 14:4.9499998 15:5.6799998 16:9 17:4.8699999 18:4.54 19:0.23999999 20:3 #
2.7896403471835533018098538276904e-14 1:8.1199999 2:1.29 3:7.3200002 4:8.8400002 5:2.97 6:4.98 7:2.25 8:6.27 9:11.98 10:8.8400002 11:2.49 12:5.3099999 13:1.9299999 14:4.6599998 15:4.7399998 16:5.79 17:5.23 18:5.0599999 19:0.16 20:1.77 #
-4.6494005786392552400627879724801e-15 1:10.14 2:2.1700001 3:3.6199999 4:14.49 5:3.6199999 6:2.1700001 7:1.45 8:4.3499999 9:10.14 10:7.25 11:2.1700001 12:4.3499999 13:0.72000003 14:7.25 15:6.52 16:7.25 17:5.8000002 18:4.3499999 19:0 20:2.1700001 #
-4.6494005786392552400627879724801e-15 1:8.1800003 2:1.21 3:6.9699998 4:13.94 5:3.03 6:5.1500001 7:1.21 8:5.7600002 9:10.61 10:9.0900002 11:2.4200001 12:3.9400001 13:2.1199999 14:5.4499998 15:4.8499999 16:7.8800001 17:3.03 18:3.9400001 19:0.30000001 20:0.91000003 #
-4.6494005786392552400627879724801e-15 1:4.23 2:1.41 3:8.4499998 4:15.49 5:2.1099999 6:4.23 7:2.1099999 8:6.3400002 9:7.75 10:7.04 11:3.52 12:2.8199999 13:4.23 14:6.3400002 15:2.1099999 16:4.9299998 17:9.1499996 18:5.6300001 19:0 20:2.1099999 #
-4.6494005786392552400627879724801e-15 1:5.5 2:0.81 3:4.9699998 4:6.7800002 5:1.6799999 6:5.77 7:2.75 8:2.75 9:8.0500002 10:9.0600004 11:1.48 12:2.6199999 13:10.6 14:4.6300001 15:6.71 16:13.36 17:5.5 18:4.0900002 19:0.54000002 20:2.3499999 #
-4.6494005786392552400627879724801e-15 1:3.45 2:0 3:5.1700001 4:3.45 5:3.45 6:8.6199999 7:3.45 8:3.45 9:12.07 10:8.6199999 11:3.45 12:0 13:6.9000001 14:3.45 15:8.6199999 16:6.9000001 17:8.6199999 18:5.1700001 19:0 20:5.1700001 #
-4.6494005786392552400627879724801e-15 1:4.8800001 2:2.4400001 3:4.8800001 4:7.0300002 5:3.4400001 6:2.73 7:1.87 8:4.8800001 9:5.8800001 10:9.6099997 11:1.4299999 12:5.7399998 13:7.46 14:4.5900002 15:5.5999999 16:12.34 17:6.7399998 18:5.5999999 19:1 20:1.87 #
2.7896403471835533018098538276904e-14 1:6.5100002 2:1.5599999 3:6.0500002 4:10.91 5:3.3900001 6:3.76 7:2.3800001 8:5.8699999 9:9.6199999 10:9.5299997 11:2.8399999 12:5.1300001 13:2.5699999 14:5.77 15:6.7800002 16:6.6900001 17:3.48 18:4.4000001 19:0.27000001 20:2.47 #
-4.6494005786392552400627879724801e-15 1:6.04 2:2.05 3:7.5700002 4:8.1899996 5:4.4000001 6:2.76 7:3.1700001 8:6.04 9:8.8000002 10:8.1899996 11:1.64 12:5.1199999 13:2.3499999 14:5.2199998 15:4.1999998 16:10.24 17:6.1399999 18:5.02 19:0.81999999 20:2.05 #
-4.6494005786392552400627879724801e-15 1:4.9099998 2:1.24 3:7.3899999 4:6.98 5:3.46 6:4.2800002 7:2.28 8:6.29 9:7.1900001 10:7.1199999 11:2.6300001 12:7.1900001 13:4.2199998 14:4.6300001 15:5.6700001 16:10.16 17:6.4299998 18:4.77 19:0.41 20:2.76 #
-4.6494005786392552400627879724801e-15 1:3.8 2:1.41 3:5.1199999 4:8.04 5:3.53 6:4.3299999 7:1.9400001 8:5.7399998 9:11.75 10:7.5999999 11:2.1199999 12:7.1599998 13:4.8600001 14:5.5700002 15:4.77 16:8.3900003 17:7.1599998 18:4.3299999 19:0.52999997 20:1.86 #
-4.6494005786392552400627879724801e-15 1:3.5899999 2:0 3:3.98 4:14.74 5:1.59 6:5.5799999 7:1.59 8:5.1799998 9:13.15 10:5.1799998 11:0.80000001 12:5.1799998 13:5.98 14:6.77 15:2.79 16:10.76 17:5.5799999 18:6.3699999 19:0 20:1.2 #
-4.6494005786392552400627879724801e-15 1:5.0100002 2:2.28 3:5.9200001 4:11.15 5:3.75 6:5.0100002 7:2.3900001 8:3.6400001 9:11.26 10:6.0300002 11:1.8200001 12:5.1199999 13:6.0300002 14:4.0999999 15:6.8299999 16:8.9899998 17:4.3200002 18:4.21 19:0.80000001 20:1.37 #
2.7896403471835533018098538276904e-14 1:4.1599998 2:1.47 3:6.5999999 4:6.1100001 5:3.4200001 6:3.4200001 7:3.4200001 8:6.3600001 9:6.1100001 10:14.18 11:2.2 12:4.8899999 13:4.4000001 14:4.6500001 15:5.8699999 16:7.0900002 17:5.1300001 18:5.6199999 19:1.47 20:3.4200001 #
-4.6494005786392552400627879724801e-15 1:4.3099999 2:1.85 3:4 4:4.9200001 5:5.54 6:3.6900001 7:4.3099999 8:9.8500004 9:8 10:9.2299995 11:3.3800001 12:5.23 13:3.6900001 14:4.6199999 15:5.54 16:6.77 17:3.3800001 18:7.0799999 19:2.1500001 20:2.46 #
-4.6494005786392552400627879724801e-15 1:4.9499998 2:2.1500001 3:4.52 4:9.0299997 5:3.23 6:6.4499998 7:3.23 8:4.52 9:6.6700001 10:9.0299997 11:2.8 12:2.8 13:6.2399998 14:3.23 15:7.3099999 16:7.7399998 17:3.6600001 18:6.8800001 19:1.29 20:4.3000002 #
-4.6494005786392552400627879724801e-15 1:8.3000002 2:1.87 3:6.4299998 4:6.02 5:3.1099999 6:5.3899999 7:2.0699999 8:5.5999999 9:6.6399999 10:11.62 11:2.9000001 12:5.3899999 13:3.9400001 14:4.98 15:6.6399999 16:7.6799998 17:3.9400001 18:4.5599999 19:0.41 20:2.49 #
-4.6494005786392552400627879724801e-15 1:6.1100001 2:2 3:5.29 4:6.9299998 5:5.7600002 6:3.4100001 7:1.29 8:5.9899998 9:6.46 10:12.69 11:1.76 12:4.8200002 13:3.8800001 14:4.1100001 15:5.1700001 16:9.1700001 17:4.4699998 18:5.4099998 19:0.70999998 20:4.5799999 #
-4.6494005786392552400627879724801e-15 1:6.1300001 2:0.49000001 3:7.04 4:13.38 5:1.55 6:3.1700001 7:1.9 8:3.52 9:10.77 10:5.9200001 11:2.04 12:3.6600001 13:7.6100001 14:4.0799999 15:5.2800002 16:10.85 17:6.27 18:5.5599999 19:0 20:0.76999998 #
-4.6494005786392552400627879724801e-15 1:5.5599999 2:1.26 3:5.2600002 4:10.41 5:2.98 6:4.5 7:1.87 8:4.5500002 9:9.3000002 10:6.6700001 11:2.28 12:5.0599999 13:6.1700001 14:4.1999998 15:5.1599998 16:11.02 17:5.6599998 18:6.4200001 19:0.2 20:1.47 #
-4.6494005786392552400627879724801e-15 1:5.9899998 2:1.75 3:4.7399998 4:8.9799995 5:2 6:3.99 7:0.5 8:4.7399998 9:4.7399998 10:5.7399998 11:2.24 12:4.9899998 13:6.98 14:3.99 15:10.22 16:14.46 17:6.48 18:6.48 19:0.25 20:0.75 #
-1.5682117312461619748829682842459e-15 1:1.96 2:3.9200001 3:8.8199997 4:1.96 5:1.96 6:6.8600001 7:0.98000002 8:9.8000002 9:6.8600001 10:9.8000002 11:1.96 12:4.9000001 13:1.96 14:6.8600001 15:7.8400002 16:7.8400002 17:1.96 18:10.78 19:0.98000002 20:1.96 #
-4.6494005786392552400627879724801e-15 1:4.9499998 2:0.99000001 3:6.27 4:7.2600002 5:3.96 6:3.3 7:1.98 8:7.2600002 9:5.9400001 10:13.53 11:0.99000001 12:7.2600002 13:4.6199999 14:2.6400001 15:4.9499998 16:8.9099998 17:5.2800002 18:5.6100001 19:1.3200001 20:2.97 #
-4.6494005786392552400627879724801e-15 1:2.8399999 2:2.8399999 3:5.4000001 4:5.4000001 5:6.5300002 6:2.5599999 7:2.5599999 8:5.1100001 9:6.8200002 10:12.78 11:1.42 12:6.8200002 13:3.4100001 14:5.6799998 15:4.2600002 16:8.5200005 17:5.6799998 18:7.0999999 19:1.14 20:3.1199999 #
2.7896403471835533018098538276904e-14 1:8.5699997 2:0 3:4.6399999 4:8.9300003 5:3.5699999 6:3.5699999 7:2.1400001 8:6.0700002 9:10.36 10:4.6399999 11:2.1400001 12:4.29 13:5.71 14:7.5 15:6.4299998 16:8.21 17:5.71 18:5 19:0.36000001 20:2.1400001 #
-4.6494005786392552400627879724801e-15 1:7.3899999 2:0.38999999 3:3.76 4:13.75 5:1.6900001 6:3.6300001 7:1.95 8:3.3699999 9:10.77 10:10.38 11:1.5599999 12:3.6300001 13:5.8400002 14:5.8400002 15:6.8699999 16:7.3899999 17:4.02 18:5.8400002 19:1.04 20:0.91000003 #
-3.1228403925270914605679295279287e-15 1:9.8299999 2:0.41999999 3:4.3899999 4:9.6199999 5:2.9300001 6:6.0700002 7:1.26 8:1.26 9:9 10:11.92 11:0.41999999 12:1.88 13:6.2800002 14:6.6900001 15:12.55 16:4.8099999 17:4.1799998 18:5.02 19:0.63 20:0.83999997 #
-4.6494005786392552400627879724801e-15 1:8.8900003 2:0.88999999 3:3.1099999 4:11.56 5:1.78 6:4 7:2.6700001 8:4.8899999 9:5.3299999 10:8.8900003 11:3.5599999 12:7.1100001 13:3.1099999 14:7.5599999 15:6.2199998 16:4.8899999 17:3.5599999 18:5.7800002 19:1.78 20:4.4400001 #
-4.6494005786392552400627879724801e-15 1:3.7 2:1.95 3:4.4699998 4:7.1999998 5:5.4499998 6:3.7 7:2.72 8:7.7800002 9:6.6100001 10:11.28 11:2.53 12:4.6700001 13:3.7 14:6.23 15:5.8400002 16:7.1999998 17:7 18:2.72 19:1.95 20:3.3099999 #
-4.6494005786392552400627879724801e-15 1:5.5999999 2:0.88 3:4.1300001 4:7.0799999 5:5.0100002 6:2.6500001 7:2.6500001 8:7.0799999 9:7.96 10:10.32 11:2.6500001 12:4.4200001 13:4.4200001 14:6.7800002 15:5.5999999 16:6.7800002 17:6.4899998 18:4.7199998 19:1.1799999 20:3.54 #
-4.6494005786392552400627879724801e-15 1:5.6399999 2:4.3200002 3:3.01 4:7.3299999 5:4.1399999 6:6.3899999 7:5.8299999 8:4.8899999 9:9.0200005 10:7.3299999 11:1.13 12:4.8899999 13:3.5699999 14:5.8299999 15:4.3200002 16:7.52 17:5.4499998 18:6.3899999 19:0.94 20:2.0699999 #
-4.6494005786392552400627879724801e-15 1:8.3800001 2:0 3:6.2800002 4:8.3800001 5:2.0899999 6:4.71 7:3.1400001 8:3.1400001 9:9.4200001 10:6.8099999 11:1.5700001 12:6.8099999 13:4.71 14:5.7600002 15:7.8499999 16:10.47 17:4.1900001 18:3.1400001 19:0.51999998 20:2.6199999 #
-4.6494005786392552400627879724801e-15 1:3.77 2:0 3:8.3699999 4:6.2800002 5:3.77 6:2.9300001 7:1.67 8:7.1100001 9:7.9499998 10:14.64 11:3.3499999 12:7.5300002 13:2.51 14:4.1799998 15:5.02 16:8.3699999 17:5.8600001 18:3.77 19:0.83999997 20:2.0899999 #
-4.6494005786392552400627879724801e-15 1:5.73 2:0.17 3:7.29 4:8.8500004 5:2.5999999 6:2.78 7:2.78 8:4.8600001 9:7.9899998 10:9.3800001 11:2.4300001 12:6.25 13:6.5999999 14:5.9000001 15:3.99 16:9.0299997 17:6.25 18:3.3 19:0.69 20:3.1199999 #
-4.6494005786392552400627879724801e-15 1:6.6700001 2:0 3:6.6700001 4:8 5:2.6700001 6:9.3299999 7:1.33 8:4.8899999 9:16.889999 10:7.5599999 11:1.33 12:5.7800002 13:3.5599999 14:5.3299999 15:7.5599999 16:3.5599999 17:5.3299999 18:3.5599999 19:0 20:0 #
-4.6494005786392552400627879724801e-15 1:6.48 2:0.40000001 3:5.6700001 4:12.55 5:0.81 6:2.8299999 7:0.81 8:7.29 9:10.93 10:12.55 11:5.2600002 12:4.0500002 13:2.4300001 14:9.3100004 15:4.4499998 16:6.0700002 17:2.8299999 18:4.0500002 19:0.81 20:0.40000001 #
-4.6494005786392552400627879724801e-15 1:2.8199999 2:2.51 3:5.02 4:10.03 5:5.02 6:2.51 7:1.5700001 8:7.8400002 9:12.54 10:8.46 11:0.63 12:7.52 13:4.3899999 14:6.27 15:5.02 16:8.1499996 17:4.3899999 18:3.45 19:0 20:1.88 #
2.7896403471835533018098538276904e-14 1:6.5 2:1.6 3:7.1199999 4:6.1300001 5:3.6800001 6:4.79 7:2.8199999 8:6.1300001 9:4.79 10:9.1999998 11:1.1 12:5.1500001 13:4.6599998 14:3.3099999 15:4.4200001 16:9.8199997 17:7.1199999 18:6.8699999 19:1.6 20:3.1900001 #
-8.0622318660070451562075254899801e-16 1:3.9000001 2:1.46 3:2.9300001 4:3.4100001 5:7.8000002 6:24.389999 7:0.49000001 8:3.9000001 9:6.8299999 10:3.9000001 11:1.46 12:2.9300001 13:6.3400002 14:1.95 15:12.2 16:7.8000002 17:2.9300001 18:3.9000001 19:0 20:1.46 #
-4.6494005786392552400627879724801e-15 1:7.5300002 2:1.15 3:5.8899999 4:7.1999998 5:2.78 6:5.5599999 7:2.95 8:2.95 9:5.4000001 10:9.9799995 11:2.78 12:3.1099999 13:10.31 14:2.29 15:8.3500004 16:7.6900001 17:4.75 18:6.5500002 19:0.81999999 20:1.96 #
-4.6494005786392552400627879724801e-15 1:6.8000002 2:10.76 3:5.6700001 4:10.76 5:2.27 6:9.6300001 7:1.7 8:1.13 9:4.25 10:8.2200003 11:1.42 12:3.6800001 13:6.23 14:3.1199999 15:3.97 16:7.3699999 17:5.0999999 18:3.97 19:1.42 20:2.55 #
-4.6494005786392552400627879724801e-15 1:7.9400001 2:1.28 3:4.23 4:4.3499999 5:1.54 6:10.12 7:2.5599999 8:5.6300001 9:2.5599999 10:7.5500002 11:0.89999998 12:5.5100002 13:5.3800001 14:11.52 15:2.5599999 16:9.4799995 17:8.96 18:6.5300002 19:0.63999999 20:0.76999998 #
2.7896403471835533018098538276904e-14 1:5.7800002 2:1.52 3:5.02 4:7.46 5:2.4400001 6:6.0900002 7:3.5 8:4.7199998 9:8.3699999 10:7.3099999 11:2.4400001 12:6.3899999 13:5.3299999 14:4.5700002 15:5.9400001 16:10.5 17:5.6300001 18:3.2 19:1.67 20:2.1300001 #
-4.6494005786392552400627879724801e-15 1:8.0699997 2:0.41 3:8.6999998 4:10.14 5:4.7600002 6:4.1399999 7:1.86 8:5.5900002 9:7.8699999 10:8.8999996 11:1.45 12:4.3499999 13:3.73 14:3.9300001 15:4.9699998 16:7.04 17:4.5500002 18:5.1799998 19:0.82999998 20:3.52 #
-4.6494005786392552400627879724801e-15 1:7.9699998 2:1.45 3:7.9699998 4:7.25 5:4.3499999 6:5.0700002 7:2.1700001 8:5.8000002 9:10.14 10:3.6199999 11:2.9000001 12:3.6199999 13:2.9000001 14:5.0700002 15:3.6199999 16:7.25 17:5.0700002 18:9.4200001 19:0.72000003 20:3.6199999 #
-4.6494005786392552400627879724801e-15 1:7.6599998 2:0.89999998 3:5.8600001 4:9.46 5:2.7 6:1.8 7:2.7 8:5.8600001 9:10.36 10:10.81 11:4.9499998 12:3.1500001 13:2.7 14:5.4099998 15:6.3099999 16:6.3099999 17:5.4099998 18:5.4099998 19:0.89999998 20:1.35 #
-4.6494005786392552400627879724801e-15 1:7.2399998 2:3.1500001 3:4.7199998 4:7.8699999 5:3.3099999 6:4.8800001 7:2.2 8:5.8299999 9:5.98 10:8.0299997 11:1.5700001 12:5.5100002 13:4.0900002 14:4.0900002 15:8.1899996 16:8.0299997 17:5.3499999 18:6.1399999 19:0.63 20:3.1500001 #
-4.6494005786392552400627879724801e-15 1:4.4200001 2:3.22 3:5.0900002 4:8.6800003 5:2.77 6:5.54 7:2.54 8:3.74 9:8.0799999 10:9.21 11:2.3199999 12:3.1400001 13:7.3400002 14:4.04 15:7.7800002 16:7.8600001 17:4.7199998 18:5.6900001 19:1.65 20:2.1700001 #
-4.6494005786392552400627879724801e-15 1:7.4000001 2:1.29 3:5.0500002 4:9.2799997 5:3.0599999 6:9.0500002 7:1.53 8:5.0500002 9:11.87 10:6.23 11:1.76 12:2.5899999 13:5.1700001 14:5.52 15:5.1700001 16:7.7600002 17:5.0500002 18:5.1700001 19:0.58999997 20:1.41 #
-4.6494005786392552400627879724801e-15 1:4.1500001 2:2.49 3:7.0500002 4:8.3000002 5:2.49 6:6.2199998 7:2.9000001 8:4.1500001 9:17.43 10:3.73 11:2.9000001 12:3.3199999 13:4.1500001 14:2.9000001 15:7.0500002 16:7.8800001 17:5.3899999 18:5.3899999 19:0.41 20:1.66 #
-4.6494005786392552400627879724801e-15 1:6.0900002 2:1.74 3:4.9299998 4:7.3899999 5:2.6099999 6:6.52 7:2.1700001 8:5.5100002 9:9.2799997 10:6.23 11:2.1700001 12:4.9299998 13:5.0700002 14:5.9400001 15:5.0700002 16:7.6799998 17:5.9400001 18:5.9400001 19:0.72000003 20:4.0599999 #
2.7896403471835533018098538276904e-14 1:5.71 2:2.0799999 3:4.5 4:8.6499996 5:3.6300001 6:3.98 7:2.0799999 8:7.4400001 9:5.3600001 10:10.21 11:3.6300001 12:4.3299999 13:5.02 14:5.8800001 15:3.46 16:5.3600001 17:6.75 18:7.4400001 19:0.87 20:3.6300001 #
-4.6494005786392552400627879724801e-15 1:5.25 2:0.41999999 3:5.46 4:6.9299998 5:4.1999998 6:6.5100002 7:2.73 8:5.25 9:6.3000002 10:9.6599998 11:3.3599999 12:5.25 13:6.5100002 14:3.1500001 15:4.8299999 16:7.98 17:4.6199999 18:6.9299998 19:1.26 20:3.3599999 #
-4.6494005786392552400627879724801e-15 1:5.23 2:0 3:5.23 4:9.8000002 5:3.9200001 6:1.3099999 7:1.96 8:7.1900001 9:2.6099999 10:18.299999 11:1.3099999 12:4.5799999 13:1.3099999 14:11.11 15:5.23 16:10.46 17:4.5799999 18:1.96 19:0.64999998 20:3.27 #
-4.6494005786392552400627879724801e-15 1:4.6399999 2:2.48 3:5.2600002 4:6.8099999 5:5.8800001 6:1.86 7:1.86 8:7.7399998 9:6.8099999 10:11.76 11:0.93000001 12:6.8099999 13:3.0999999 14:3.72 15:6.1900001 16:7.1199999 17:5.2600002 18:5.8800001 19:0.62 20:5.2600002 #
-4.6494005786392552400627879724801e-15 1:5.29 2:0.80000001 3:5.77 4:9.46 5:3.53 6:2.4000001 7:1.76 8:5.77 9:5.77 10:11.38 11:2.5599999 12:6.25 13:3.3699999 14:6.25 15:6.4099998 16:10.1 17:4.4899998 18:5.29 19:0.31999999 20:3.04 #
2.7896403471835533018098538276904e-14 1:5.2600002 2:0 3:9.1300001 4:6.3499999 5:5.1100001 6:8.5100002 7:2.48 8:4.3299999 9:8.9799995 10:7.1199999 11:2.1700001 12:4.6399999 13:4.6399999 14:4.02 15:3.8699999 16:8.9799995 17:4.3299999 18:6.9699998 19:0.76999998 20:2.3199999 #
-4.6494005786392552400627879724801e-15 1:8.3000002 2:0.44999999 3:7.8400002 4:9.3500004 5:3.6199999 6:8.75 7:0.75 8:6.6399999 9:9.3500004 10:7.6900001 11:1.66 12:4.52 13:3.02 14:3.47 15:4.8299999 16:3.9200001 17:5.5799999 18:7.6900001 19:0.30000001 20:2.26 #
-1.8201112698830995656194031259271e-15 1:5.71 2:0.63 3:14.6 4:11.43 5:5.4000001 6:5.0799999 7:3.49 8:3.49 9:9.21 10:6.6700001 11:2.8599999 12:2.8599999 13:2.54 14:3.49 15:4.1300001 16:3.49 17:3.8099999 18:5.4000001 19:1.9 20:3.8099999 #
-4.6494005786392552400627879724801e-15 1:7.1599998 2:1.49 3:7.46 4:7.1599998 5:5.6700001 6:4.48 7:1.49 8:7.1599998 9:6.8699999 10:6.8699999 11:1.1900001 12:6.5700002 13:5.9699998 14:2.3900001 15:5.3699999 16:6.5700002 17:5.0700002 18:7.7600002 19:0.60000002 20:2.6900001 #
-1.5011112140939646824032938817318e-15 1:2.99 2:1.62 3:3.49 4:3.49 5:2.6199999 6:3.24 7:2 8:4.2399998 9:4.7399998 10:6.1100001 11:2.74 12:18.58 13:3.8699999 14:20.32 15:1.62 16:7.1100001 17:5.3600001 18:3.8699999 19:0 20:2 #
-4.6494005786392552400627879724801e-15 1:3.8499999 2:0.85000002 3:4.9899998 4:6.6300001 5:5.3299999 6:2.95 7:1.42 8:8.6199999 9:7.8800001 10:11.96 11:2.0999999 12:7.1399999 13:2.8900001 14:3.23 15:3.6300001 16:9.8100004 17:5.9499998 18:5.5 19:1.42 20:3.8499999 #
-2.4092295715949473591593192153222e-15 1:6.5100002 2:0.98000002 3:12.05 4:10.42 5:2.9300001 6:5.8600001 7:1.95 8:1.95 9:13.03 10:4.8899999 11:1.3 12:1.95 13:6.1900001 14:3.26 15:0.64999998 16:12.7 17:5.54 18:6.5100002 19:0.33000001 20:0.98000002 #
-4.6494005786392552400627879724801e-15 1:4.3099999 2:1.72 3:5.3499999 4:6.4200001 5:5.6700001 6:3.52 7:1.6900001 8:7.3899999 9:7.4299998 10:12.81 11:2.1199999 12:6.0999999 13:3.01 14:4.02 15:3.9100001 16:9.0100002 17:5.02 18:5.1300001 19:1.47 20:3.9100001 #
-4.6494005786392552400627879724801e-15 1:8 2:0.93000001 3:5.3000002 4:8.1000004 5:2.1800001 6:6.75 7:1.87 8:3.3199999 9:6.1300001 10:7.5799999 11:1.25 12:4.2600002 13:6.6500001 14:6.23 15:8.1999998 16:11.11 17:5.1900001 18:4.4699998 19:0.1 20:2.3900001 #
-4.6494005786392552400627879724801e-15 1:9.2700005 2:0.38999999 3:3.8599999 4:9.2700005 5:3.0899999 6:6.1799998 7:2.3199999 8:1.54 9:10.81 10:10.81 11:1.9299999 12:3.0899999 13:5.02 14:9.2700005 15:10.81 16:5.02 17:1.54 18:3.8599999 19:0 20:1.9299999 #
-4.6494005786392552400627879724801e-15 1:8.1000004 2:1.97 3:4.5999999 4:7 5:3.72 6:5.6900001 7:2.4100001 8:2.1900001 9:7.8800001 10:9.4099998 11:1.09 12:2.1900001 13:7.6599998 14:5.25 15:9.1899996 16:8.9700003 17:4.3800001 18:6.3499999 19:0.66000003 20:1.3099999 #
-4.6494005786392552400627879724801e-15 1:3.29 2:0.99000001 3:5.5799999 4:7.5700002 5:3.5999999 6:3.55 7:2.1900001 8:8.04 9:7.9299998 10:10.86 11:2.1400001 12:7.8800001 13:4.6500001 14:4.02 15:4.1199999 16:9.71 17:5.0599999 18:5.79 19:0.68000001 20:2.3499999 #
-4.6494005786392552400627879724801e-15 1:5.6199999 2:1.38 3:7.21 4:7.21 5:4.3499999 6:6.1500001 7:2.55 8:6.8899999 9:9.0100002 10:11.13 11:1.59 12:3.71 13:2.23 14:3.5 15:3.1800001 16:8.3800001 17:6.2600002 18:5.3000002 19:2.01 20:2.3299999 #
-4.6494005786392552400627879724801e-15 1:4.77 2:0.88999999 3:5.3400002 4:5.7399998 5:6.3899999 6:4.2800002 7:2.3399999 8:6.4699998 9:8.7299995 10:11.4 11:1.21 12:6.4699998 13:4.6100001 14:3.4000001 15:3.1500001 16:9.2200003 17:6.3099999 18:5.0100002 19:0.64999998 20:3.6400001 #
1.3183938410339345579325134610281e-14 1:5.8800001 2:4.71 3:4.1199999 4:2.9400001 5:1.1799999 6:5.29 7:3.53 8:2.3499999 9:11.18 10:9.4099998 11:3.53 12:4.1199999 13:2.9400001 14:7.6500001 15:7.0599999 16:9.4099998 17:5.8800001 18:5.8800001 19:1.1799999 20:1.76 #
-4.6494005786392552400627879724801e-15 1:8.9700003 2:0.70999998 3:6.1300001 4:11.97 5:4.5599999 6:2.99 7:1.71 8:4.9899998 9:7.1199999 10:8.1199999 11:2.99 12:3.5599999 13:4.1300001 14:5.27 15:9.1199999 16:2.4200001 17:3.1300001 18:4.6999998 19:2.8499999 20:4.5599999 #
-4.6494005786392552400627879724801e-15 1:4.6599998 2:5.48 3:4.6599998 4:8.4899998 5:2.74 6:6.8499999 7:5.21 8:3.8399999 9:10.96 10:5.21 11:2.1900001 12:3.5599999 13:2.74 14:4.6599998 15:6.3000002 16:10.68 17:5.48 18:3.29 19:0 20:3.01 #
-4.6494005786392552400627879724801e-15 1:6.54 2:2.9300001 3:3.52 4:7.52 5:2.3399999 6:7.23 7:3.3199999 8:4.5900002 9:8.0100002 10:8.9799995 11:2.05 12:2.6400001 13:7.3200002 14:5.0799999 15:6.9299998 16:7.9099998 17:4.6900001 18:4.8800001 19:2.05 20:1.46 #
-4.6494005786392552400627879724801e-15 1:5.3299999 2:2.47 3:5.71 4:8.3699999 5:4.7600002 6:4.7600002 7:4.6599998 8:2.95 9:7.71 10:7.71 11:2.6600001 12:4.0900002 13:7.04 14:4.4699998 15:4.6599998 16:12.08 17:4.9499998 18:3.1400001 19:0.28999999 20:2.1900001 #
-4.6494005786392552400627879724801e-15 1:3.5 2:1.75 3:6.8400002 4:8.2700005 5:3.1800001 6:3.3399999 7:1.27 8:6.1999998 9:7.9499998 10:10.49 11:2.0699999 12:5.25 13:4.6100001 14:4.29 15:4.1300001 16:9.54 17:6.52 18:7.4699998 19:0.47999999 20:2.8599999 #
-4.6494005786392552400627879724801e-15 1:4.0100002 2:0.64999998 3:7.7600002 4:6.5999999 5:2.98 6:4.6599998 7:1.9400001 8:7.3699999 9:10.48 10:10.48 11:1.42 12:6.0799999 13:3.8800001 14:4.1399999 15:4.5300002 16:9.5699997 17:5.4299998 18:5.8200002 19:0.64999998 20:1.55 #
-4.6494005786392552400627879724801e-15 1:6 2:1.59 3:7.3400002 4:6 5:2.5699999 6:6 7:2.3299999 8:8.8100004 9:7.0999999 10:11.02 11:2.0799999 12:5.3899999 13:2.9400001 14:3.79 15:2.9400001 16:8.0799999 17:6.2399998 18:5.5100002 19:1.71 20:2.5699999 #
-4.6494005786392552400627879724801e-15 1:7.7800002 2:1.23 3:4.0900002 4:8.5900002 5:1.77 6:3.27 7:3.4100001 8:4.3699999 9:5.46 10:9.4099998 11:2.1800001 12:4.6399999 13:7.6399999 14:7.23 15:6.2800002 16:9.1400003 17:3.55 18:6.8200002 19:0.81999999 20:2.3199999 #
-4.6494005786392552400627879724801e-15 1:7.6500001 2:1.29 3:4.2399998 4:5.8099999 5:2.95 6:7.4699998 7:3.04 8:4.0599999 9:7 10:6.1799998 11:1.5700001 12:7.1900001 13:6.1799998 14:6.6399999 15:4.6999998 16:10.32 17:5.25 18:5.4400001 19:0.64999998 20:2.4000001 #
-4.6494005786392552400627879724801e-15 1:7.1199999 2:2.49 3:6.4099998 4:8.8999996 5:2.8499999 6:2.8499999 7:2.1400001 8:6.4099998 9:8.54 10:7.8299999 11:2.49 12:2.1400001 13:7.1199999 14:6.7600002 15:6.0500002 16:5.3400002 17:5.6900001 18:6.0500002 19:1.42 20:1.42 #
2.7896403471835533018098538276904e-14 1:4.8299999 2:0.87 3:7.73 4:9.2799997 5:5.3099999 6:4.8299999 7:0.87 8:6.6700001 9:8.4099998 10:8.6999998 11:1.16 12:6.7600002 13:4.25 14:3.77 15:4.9299998 16:7.73 17:4.54 18:5.1199999 19:1.0599999 20:3.1900001 #
-4.6494005786392552400627879724801e-15 1:7.2199998 2:0.41999999 3:6.1599998 4:8.4899998 5:2.55 6:7.2199998 7:1.49 8:8.4899998 9:6.79 10:8.6999998 11:2.55 12:3.1800001 13:2.55 14:4.46 15:4.8800001 16:8.2799997 17:7.8600001 18:6.79 19:0.20999999 20:1.7 #
-4.6494005786392552400627879724801e-15 1:5.6399999 2:0.85000002 3:6.5 4:5.4299998 5:5.3200002 6:7.1399999 7:2.5599999 8:6.8200002 9:6.71 10:8.7299995 11:1.8099999 12:4.5799999 13:2.98 14:3.3 15:5.3200002 16:9.5799999 17:6.71 18:6.5 19:1.0599999 20:2.45 #
-4.6494005786392552400627879724801e-15 1:8.4300003 2:0.56 3:6.1799998 4:8.4300003 5:1.6900001 6:2.8099999 7:2.25 8:3.3699999 9:11.8 10:6.7399998 11:3.3699999 12:5.6199999 13:5.0599999 14:3.3699999 15:11.8 16:3.9300001 17:1.6900001 18:6.7399998 19:1.12 20:5.0599999 #
-4.6494005786392552400627879724801e-15 1:6.8800001 2:0.56999999 3:4.8699999 4:6.5900002 5:5.4400001 6:5.73 7:3.4400001 8:6.02 9:10.32 10:6.8800001 11:1.4299999 12:3.72 13:6.3000002 14:4.3000002 15:8.6000004 16:6.02 17:6.02 18:3.72 19:0.56999999 20:2.5799999 #
-4.6494005786392552400627879724801e-15 1:9.7299995 2:0.38999999 3:5.0599999 4:11.28 5:2.72 6:3.8900001 7:0.77999997 8:1.95 9:12.45 10:8.9499998 11:1.5599999 12:4.6700001 13:3.5 14:6.6100001 15:8.9499998 16:5.8400002 17:4.2800002 18:5.8400002 19:0.77999997 20:0.77999997 #
-8.5665810539025426905448754576169e-16 1:6.5700002 2:3.1099999 3:7.27 4:5.54 5:4.1500001 6:8.3000002 7:1.04 8:8.6499996 9:6.9200001 10:10.03 11:1.38 12:4.1500001 13:5.54 14:1.38 15:4.1500001 16:4.1500001 17:4.5 18:7.96 19:0.34999999 20:4.8400002 #
-4.6494005786392552400627879724801e-15 1:4.5100002 2:2.04 3:5.02 4:7.9299998 5:4.5100002 6:4.8000002 7:4.5100002 8:3.8599999 9:5.0900002 10:8.8800001 11:3.0599999 12:4.1500001 13:9.9700003 14:4.3699999 15:8.1499996 16:6.6199999 17:4.29 18:3.78 19:1.02 20:3.4200001 #
-4.6494005786392552400627879724801e-15 1:8.0600004 2:1.5 3:7.1999998 4:8.0600004 5:4.4000001 6:6.1199999 7:2.5799999 8:5.1599998 9:5.1599998 10:9.9899998 11:2.9000001 12:3.76 13:4.73 14:4.1900001 15:4.8299999 16:7.1999998 17:5.48 18:4.9400001 19:1.0700001 20:2.6900001 #
-4.6494005786392552400627879724801e-15 1:7.46 2:1.75 3:5.2600002 4:12.28 5:4.3899999 6:3.0699999 7:0.44 8:5.6999998 9:10.53 10:10.96 11:2.1900001 12:5.2600002 13:1.75 14:6.5799999 15:7.8899999 16:5.6999998 17:3.51 18:2.6300001 19:0.44 20:2.1900001 #
-4.6494005786392552400627879724801e-15 1:5.4899998 2:0.69999999 3:4.6500001 4:9.8599997 5:4.5100002 6:3.3800001 7:1.27 8:6.0599999 9:10.85 10:10.14 11:2.25 12:5.3499999 13:3.24 14:4.5100002 15:4.5100002 16:8.4499998 17:5.9200001 18:5.21 19:0.69999999 20:2.96 #
-4.6494005786392552400627879724801e-15 1:5.4200001 2:0.68000001 3:5.9299998 4:11.86 5:3.05 6:3.73 7:2.2 8:6.6100001 9:9.4899998 10:9.1499996 11:2.71 12:5.25 13:2.54 14:5.4200001 15:6.27 16:7.46 17:4.2399998 18:3.73 19:1.1900001 20:3.05 #
-4.6494005786392552400627879724801e-15 1:5.1100001 2:2.04 3:6.9499998 4:7.5700002 5:3.48 6:3.48 7:2.25 8:5.9299998 9:6.9499998 10:6.9499998 11:1.23 12:6.75 13:6.1300001 14:3.0699999 15:7.98 16:10.02 17:6.9499998 18:3.48 19:0.61000001 20:3.0699999 #
-4.6494005786392552400627879724801e-15 1:4.6999998 2:0.61000001 3:7.5700002 4:6.1300001 5:3.48 6:4.6999998 7:3.27 8:5.52 9:9.4099998 10:5.3200002 11:2.6600001 12:6.54 13:2.8599999 14:3.0699999 15:7.77 16:8.79 17:6.1300001 18:5.9299998 19:1.4299999 20:4.0900002 #
-4.6494005786392552400627879724801e-15 1:4.5500002 2:1.01 3:8.25 4:6.5700002 5:3.54 6:6.4000001 7:2.8599999 8:5.5599999 9:5.7199998 10:8.9200001 11:1.52 12:7.2399998 13:3.54 14:4.5500002 15:3.3699999 16:9.4300003 17:7.0700002 18:5.7199998 19:1.6799999 20:2.53 #
2.7896403471835533018098538276904e-14 1:4.7600002 2:0.81999999 3:6.4000001 4:9.3599997 5:4.9299998 6:5.25 7:1.8099999 8:4.5999999 9:9.6899996 10:11.66 11:2.6300001 12:3.1199999 13:4.9299998 14:3.9400001 15:5.25 16:7.2199998 17:4.4299998 18:5.4200001 19:0.33000001 20:3.45 #
-4.6494005786392552400627879724801e-15 1:5.8200002 2:1.65 3:4.3800001 4:8.3699999 5:4.4899998 6:3.6300001 7:2.76 8:6.3899999 9:8.5500002 10:14.18 11:2.48 12:3.3800001 13:4.0900002 14:4.4899998 15:4.02 16:6.3899999 17:5.3499999 18:6.21 19:0.79000002 20:2.5899999 #
-4.6494005786392552400627879724801e-15 1:9.3100004 2:1.21 3:6.8800001 4:11.34 5:1.21 6:3.24 7:1.62 8:4.4499998 9:6.8800001 10:9.7200003 11:2.8299999 12:5.6700001 13:1.62 14:4.8600001 15:5.2600002 16:7.29 17:4.4499998 18:6.0700002 19:0.81 20:5.2600002 #
-4.6494005786392552400627879724801e-15 1:9.5500002 2:1.6900001 3:4.3099999 4:11.8 5:2.0599999 6:4.6799998 7:2.25 8:5.9899998 9:13.48 10:9.5500002 11:2.8099999 12:2.6199999 13:3 14:2.25 15:4.1199999 16:6.1799998 17:4.3099999 18:6.1799998 19:0.56 20:2.6199999 #
2.7896403471835533018098538276904e-14 1:5.0999999 2:2.8299999 3:6.46 4:7.8099999 5:2.8299999 6:6.3400002 7:3.0599999 8:3.0599999 9:8.6099997 10:8.1499996 11:1.25 12:4.98 13:5.7800002 14:3.0599999 15:7.4699998 16:11.55 17:4.6399999 18:4.6399999 19:0.44999999 20:1.9299999 #
-4.6494005786392552400627879724801e-15 1:2.77 2:1.73 3:5.1900001 4:6.5700002 5:3.46 6:8.3000002 7:0.69 8:4.1500001 9:7.27 10:6.23 11:2.0799999 12:4.5 13:7.27 14:7.27 15:8.6499996 16:13.49 17:5.1900001 18:3.8099999 19:0.34999999 20:1.04 #
-4.6494005786392552400627879724801e-15 1:6.21 2:0.75 3:6.4200001 4:5.7800002 5:2.6800001 6:5.46 7:2.5699999 8:5.5700002 9:8.9899998 10:7.8200002 11:2.78 12:3.96 13:5.7800002 14:4.0700002 15:5.1399999 16:11.35 17:6.6399999 18:5.25 19:0.54000002 20:2.25 #
-4.6494005786392552400627879724801e-15 1:7.1399999 2:0.87 3:4.5700002 4:8.0699997 5:1.8 6:5.5999999 7:2.9300001 8:3.1900001 9:6.5799999 10:7.3499999 11:2.77 12:3.4400001 13:8.8900003 14:5.5 15:6.1199999 16:11.92 17:5.96 18:5.5500002 19:0.15000001 20:1.59 #
-4.6494005786392552400627879724801e-15 1:5.79 2:1.2 3:5.5900002 4:13.17 5:3.3900001 6:5.1900001 7:2.79 8:4.1900001 9:8.1800003 10:11.18 11:1.8 12:5.1900001 13:3.1900001 14:4.3899999 15:6.1900001 16:5.3899999 17:4.3899999 18:2.4000001 19:1.6 20:4.79 #
-4.6494005786392552400627879724801e-15 1:7.1799998 2:2.5599999 3:5.1100001 4:5.4099998 5:2.46 6:5.6999998 7:2.0599999 8:3.8299999 9:6.1900001 10:10.72 11:2.5599999 12:3.3399999 13:5.21 14:4.23 15:5.1100001 16:10.91 17:6.0999999 18:7.77 19:1.97 20:1.5700001 #
-4.6494005786392552400627879724801e-15 1:5.3499999 2:0.62 3:7.96 4:13.56 5:3.98 6:4.23 7:1.24 8:4.98 9:9.1999998 10:8.5799999 11:2.24 12:3.48 13:2.8599999 14:3.23 15:4.98 16:6.4699998 17:6.4699998 18:6.4699998 19:1.12 20:2.99 #
-4.6494005786392552400627879724801e-15 1:7.9200001 2:3.21 3:4.5300002 4:5.8499999 5:2.45 6:5.0900002 7:5.4699998 8:2.6400001 9:5.8499999 10:10.38 11:2.26 12:3.4000001 13:5.0900002 14:6.98 15:5.4699998 16:7.9200001 17:5.6599998 18:5.4699998 19:1.13 20:3.21 #
-4.6494005786392552400627879724801e-15 1:6.2600002 2:1.33 3:2.8499999 4:6.2600002 5:2.47 6:5.3099999 7:5.6900001 8:4.5500002 9:7.02 10:7.7800002 11:1.14 12:3.4200001 13:5.1199999 14:3.23 15:11.76 16:11.95 17:6.6399999 18:4.7399998 19:0.38 20:2.0899999 #
-4.6494005786392552400627879724801e-15 1:5.27 2:3.1300001 3:3.8499999 4:5.5599999 5:3.28 6:5.5599999 7:2.5599999 8:5.27 9:5.1300001 10:11.54 11:1.42 12:3.1300001 13:8.1199999 14:3.99 15:7.98 16:7.98 17:5.27 18:6.27 19:1 20:3.7 #
-4.6494005786392552400627879724801e-15 1:5.46 2:0.2 3:9.3699999 4:9.46 5:4.4899998 6:3.6099999 7:1.66 8:5.0700002 9:10.54 10:9.3699999 11:1.0700001 12:6.3400002 13:2.73 14:4.3899999 15:3.02 16:9.7600002 17:4.98 18:4.98 19:0.49000001 20:3.02 #
-4.6494005786392552400627879724801e-15 1:4.5500002 2:0.83999997 3:5.7199998 4:7.5799999 5:4.21 6:4.8800001 7:2.1900001 8:6.4000001 9:11.78 10:11.62 11:1.1799999 12:5.2199998 13:3.7 14:5.3899999 15:4.3800001 16:5.5599999 17:4.71 18:6.73 19:0 20:3.3699999 #
2.7896403471835533018098538276904e-14 1:4.9899998 2:1.11 3:4.4299998 4:6.9299998 5:4.4299998 6:4.71 7:3.8800001 8:3.8800001 9:7.48 10:10.25 11:3.3199999 12:3.05 13:7.1999998 14:3.5999999 15:7.7600002 16:7.7600002 17:5.2600002 18:5.2600002 19:0.82999998 20:3.8800001 #
-4.6494005786392552400627879724801e-15 1:6.8800001 2:0.64999998 3:7.27 4:8.5699997 5:3.9000001 6:5.0599999 7:2.0799999 8:5.9699998 9:10.91 10:9.8699999 11:2.3399999 12:2.5999999 13:3.6400001 14:5.1900001 15:4.8099999 16:6.75 17:5.71 18:5.1900001 19:0.25999999 20:2.3399999 #
-4.6494005786392552400627879724801e-15 1:6.4000001 2:1.16 3:5.3899999 4:8.5900002 5:4.3699999 6:2.04 7:2.3299999 8:4.8000002 9:11.79 10:10.77 11:3.9300001 12:6.1100001 13:3.78 14:4.8000002 15:5.3899999 16:6.2600002 17:4.8000002 18:4.6599998 19:0.44 20:2.1800001 #
-4.6494005786392552400627879724801e-15 1:4.75 2:2.51 3:5.8699999 4:8.4499998 5:3.0699999 6:4.96 7:2.3699999 8:6.0100002 9:8.1700001 10:10.54 11:3.1400001 12:4.4699998 13:3.8399999 14:4.1900001 15:4.6100001 16:9.0100002 17:4.8200002 18:5.52 19:1.12 20:2.5799999 #
-4.6494005786392552400627879724801e-15 1:4.6900001 2:1.62 3:7.4400001 4:5.3400002 5:5.02 6:6.96 7:2.9100001 8:4.6900001 9:5.9899998 10:8.0900002 11:2.5899999 12:4.5300002 13:6.96 14:1.62 15:5.1799998 16:9.3900003 17:5.1799998 18:6.6300001 19:2.0999999 20:3.0699999 #
-9.539108074131353760593519996008e-16 1:3.3900001 2:1.9400001 3:7.5100002 4:5.8099999 5:3.8699999 6:7.9899998 7:3.1500001 8:3.8699999 9:5.8099999 10:10.9 11:2.4200001 12:4.3600001 13:7.5100002 14:2.4200001 15:4.8400002 16:7.2600002 17:4.5999999 18:6.54 19:2.1800001 20:3.6300001 #
-4.6494005786392552400627879724801e-15 1:6.2600002 2:0.99000001 3:7.25 4:5.9299998 5:5.1100001 6:4.6100001 7:1.8099999 8:7.7399998 9:7.7399998 10:10.05 11:2.3099999 12:4.6100001 13:5.5999999 14:4.2800002 15:5.4400001 16:6.9200001 17:3.46 18:6.0999999 19:0.81999999 20:2.97 #
-4.6494005786392552400627879724801e-15 1:6.5999999 2:1.74 3:3.8199999 4:11.46 5:5.5599999 6:3.47 7:2.4300001 8:5.5599999 9:6.5999999 10:12.15 11:2.0799999 12:3.47 13:3.47 14:4.1700001 15:6.9400001 16:9.0299997 17:4.5100002 18:4.5100002 19:1.39 20:1.04 #
-4.6494005786392552400627879724801e-15 1:6.02 2:0 3:4.4200001 4:7.6300001 5:3.21 6:4.8200002 7:1.2 8:5.6199999 9:8.8400002 10:7.6300001 11:3.21 12:4.8200002 13:6.4299998 14:6.4299998 15:8.0299997 16:6.8299999 17:6.02 18:6.4299998 19:0 20:2.4100001 #
-4.6494005786392552400627879724801e-15 1:4.27 2:1.14 3:5.4099998 4:5.1300001 5:5.98 6:3.1300001 7:3.1300001 8:6.5500002 9:8.2600002 10:10.26 11:1.71 12:5.4099998 13:3.1300001 14:4.8400002 15:6.27 16:12.54 17:3.99 18:4.8400002 19:0.28 20:3.7 #
-4.6494005786392552400627879724801e-15 1:7.25 2:2 3:9.5 4:8.5 5:3 6:7 7:2.5 8:5.5 9:6.25 10:7.5 11:2 12:3 13:3.5 14:2.5 15:6 16:8.75 17:5.25 18:6.75 19:1.25 20:2 #
-4.6494005786392552400627879724801e-15 1:5.29 2:4.0100002 3:5.9299998 4:6.0900002 5:3.04 6:7.6900001 7:1.92 8:4.4899998 9:7.5300002 10:8.0100002 11:1.6 12:5.1300001 13:4.3299999 14:4.0100002 15:7.0500002 16:6.8899999 17:4.4899998 18:7.8499999 19:0.63999999 20:4.0100002 #
-4.6494005786392552400627879724801e-15 1:7.5100002 2:2.6800001 3:6.9699998 4:3.75 5:4.8299999 6:6.9699998 7:2.6800001 8:6.4299998 9:6.6999998 10:5.3600001 11:2.95 12:6.1700001 13:5.6300001 14:4.8299999 15:2.95 16:6.4299998 17:6.4299998 18:6.1700001 19:2.1400001 20:2.4100001 #
-4.6494005786392552400627879724801e-15 1:5.4400001 2:0.68000001 3:4.7600002 4:16.33 5:1.36 6:3.4000001 7:1.36 8:4.7600002 9:14.29 10:10.88 11:2.72 12:2.72 13:5.4400001 14:4.0799999 15:6.1199999 16:6.8000002 17:4.7600002 18:2.72 19:0 20:1.36 #
-4.6494005786392552400627879724801e-15 1:3.1800001 2:1.17 3:5.73 4:7.7399998 5:2.55 6:4.0300002 7:2.76 8:4.8800001 9:10.82 10:6.4699998 11:1.38 12:6.04 13:5.4099998 14:4.2399998 15:6.3600001 16:12.51 17:6.3600001 18:5.8299999 19:0.41999999 20:2.1199999 #
-4.6494005786392552400627879724801e-15 1:3.9300001 2:1.96 3:5.8899999 4:7.5300002 5:2.78 6:4.75 7:3.27 8:3.5999999 9:7.6900001 10:8.6700001 11:2.45 12:4.0900002 13:4.9099998 14:4.4200001 15:8.0200005 16:10.97 17:5.8899999 18:3.5999999 19:0.98000002 20:4.5799999 #
-4.6494005786392552400627879724801e-15 1:6.8699999 2:2.8299999 3:4.8499999 4:8.7600002 5:2.96 6:4.5799999 7:3.23 8:5.3899999 9:6.1999998 10:12.67 11:1.89 12:2.5599999 13:7.5500002 14:4.3099999 15:5.1199999 16:6.8699999 17:4.4499998 18:5.2600002 19:1.08 20:2.5599999 #
-4.6494005786392552400627879724801e-15 1:2.8 2:3.5999999 3:5.4000001 4:6.5999999 5:4.5999999 6:4.8000002 7:2.5999999 8:5 9:8.3999996 10:12.4 11:2.8 12:4 13:5.4000001 14:6.8000002 15:3.4000001 16:7 17:5.8000002 18:5 19:1.4 20:2.2 #
-4.6494005786392552400627879724801e-15 1:6.5900002 2:1.1 3:4.6300001 4:8.2399998 5:3.53 6:4.5500002 7:3.1400001 8:4.3200002 9:6.8299999 10:8.3199997 11:1.96 12:4.0799999 13:6.2800002 14:7.54 15:5.6500001 16:7.6900001 17:4.71 18:6.5900002 19:0.86000001 20:3.3800001 #
2.7896403471835533018098538276904e-14 1:7.3200002 2:0.49000001 3:4.6300001 4:7.8000002 5:6.3400002 6:2.4400001 7:2.2 8:5.3699999 9:9.2700005 10:8.7799997 11:3.6600001 12:4.8800001 13:3.9000001 14:2.4400001 15:6.0999999 16:7.5599999 17:7.5599999 18:5.6100001 19:0.98000002 20:2.6800001 #
2.7896403471835533018098538276904e-14 1:4.9899998 2:1.02 3:7.29 4:9.4200001 5:4.71 6:5.3600001 7:2.49 8:5.1700001 9:10.16 10:7.48 11:2.4000001 12:4.9899998 13:3.5999999 14:2.8599999 15:4.8000002 16:8.6800003 17:4.6199999 18:6.1900001 19:0.74000001 20:3.05 #
-4.6494005786392552400627879724801e-15 1:4.7600002 2:2.54 3:4.4400001 4:6.0300002 5:5.4000001 6:5.71 7:2.22 8:5.4000001 9:11.11 10:7.9400001 11:2.8599999 12:6.0300002 13:3.8099999 14:1.9 15:5.71 16:8.25 17:4.4400001 18:4.7600002 19:1.9 20:4.7600002 #
-4.6494005786392552400627879724801e-15 1:5.8299999 2:0.93000001 3:5.1300001 4:9.25 5:4.5799999 6:5.6700001 7:2.02 8:7.77 9:8.3900003 10:9.0900002 11:2.5599999 12:5.6700001 13:4.3499999 14:3.1099999 15:5.21 16:5.98 17:5.52 18:5.9099998 19:0.77999997 20:2.25 #
-4.6494005786392552400627879724801e-15 1:5.3899999 2:1.01 3:6.0599999 4:7.0700002 5:6.0599999 6:2.3599999 7:3.7 8:5.0500002 9:11.78 10:9.4300003 11:2.3599999 12:7.4099998 13:3.7 14:3.7 15:3.3699999 16:7.7399998 17:4.71 18:5.3899999 19:0.67000002 20:3.03 #
-4.6494005786392552400627879724801e-15 1:7.77 2:0.81 3:5.9899998 4:7.9299998 5:3.5599999 6:4.0500002 7:2.4300001 8:4.6900001 9:6.8000002 10:9.3900003 11:2.5899999 12:5.1799998 13:5.02 14:3.5599999 15:5.5 16:11.49 17:5.6599998 18:4.6900001 19:0.64999998 20:2.27 #
-4.6494005786392552400627879724801e-15 1:4.0100002 2:0.18000001 3:11.11 4:9.4700003 5:3.8299999 6:4.3699999 7:0.73000002 8:6.1900001 9:8.5600004 10:6.1900001 11:1.09 12:6.1900001 13:5.0999999 14:3.28 15:5.46 16:9.4700003 17:5.8299999 18:5.2800002 19:0.36000001 20:3.28 #
-4.6494005786392552400627879724801e-15 1:3.45 2:1.29 3:7.6300001 4:8.1999998 5:4.5999999 6:3.8800001 7:2.1600001 8:6.6199999 9:7.1900001 10:9.5 11:2.01 12:5.7600002 13:4.75 14:3.74 15:4.3200002 16:8.7799997 17:4.5999999 18:6.6199999 19:0.57999998 20:4.3200002 #
-4.6494005786392552400627879724801e-15 1:4.5799999 2:0.79000002 3:6.3899999 4:10.1 5:4.4200001 6:5.4499998 7:1.97 8:6.3899999 9:9.71 10:7.73 11:2.5999999 12:4.7399998 13:5.0500002 14:3.71 15:5.4499998 16:6.8699999 17:5.21 18:5.5999999 19:0.47 20:2.76 #
-4.6494005786392552400627879724801e-15 1:4.71 2:1.1900001 3:5.6799998 4:7.4699998 5:4.6300001 6:3.6600001 7:2.02 8:5.9000001 9:6.8699999 10:10.53 11:1.72 12:5.23 13:5.0799999 14:4.71 15:6.7199998 16:9.8599997 17:5.23 18:5 19:0.81999999 20:2.99 #
-4.6494005786392552400627879724801e-15 1:5.0999999 2:5.0999999 3:6.3099999 4:7.2800002 5:3.4000001 6:6.5500002 7:1.9400001 8:4.3699999 9:5.3400002 10:8.9799995 11:1.21 12:4.8499999 13:3.8800001 14:4.1300001 15:9.71 16:4.8499999 17:3.6400001 18:6.3099999 19:1.46 20:5.5799999 #
-4.6494005786392552400627879724801e-15 1:8.4700003 2:0.70999998 3:3.0899999 4:3.6199999 5:1.9400001 6:8.29 7:2.1199999 8:2.5599999 9:3 10:7.3200002 11:4.0599999 12:6.0799999 13:10.49 14:14.9 15:3.6199999 16:9.79 17:4.6700001 18:3.53 19:0.34999999 20:1.41 #
-4.6494005786392552400627879724801e-15 1:9.4399996 2:6.9899998 3:4.79 4:5.7199998 5:2.79 6:11.2 7:1.96 8:1.27 9:2.1500001 10:8.5600004 11:0.63999999 12:2.0999999 13:8.8999996 14:4.1599998 15:7.2399998 16:7.1399999 17:5.77 18:7.0900002 19:0.68000001 20:1.42 #
-3.590798933213585911273708183012e-15 1:8.1700001 2:1.8099999 3:3.45 4:7.6199999 5:2.54 6:7.2600002 7:3.6300001 8:1.8099999 9:4.9000001 10:12.89 11:1.27 12:1.8099999 13:7.0799999 14:4.9000001 15:9.4399996 16:7.6199999 17:4.7199998 18:5.8099999 19:1.09 20:2.1800001 #
-4.6494005786392552400627879724801e-15 1:6.4499998 2:1.84 3:6.4499998 4:10.6 5:4.1500001 6:5.0700002 7:0.46000001 8:5.5300002 9:13.36 10:5.5300002 11:1.38 12:4.1500001 13:5.0700002 14:2.76 15:5.5300002 16:10.6 17:3.23 18:4.1500001 19:0.46000001 20:3.23 #
-4.6494005786392552400627879724801e-15 1:6.1999998 2:0.99000001 3:6.9499998 4:7.8800001 5:4.3400002 6:6.02 7:1.55 8:5.0900002 9:11.6 10:7.6900001 11:2.1099999 12:4.9000001 13:4.4699998 14:3.3499999 15:3.9100001 16:7.1300001 17:5.71 18:6.0799999 19:1.1799999 20:2.8499999 #
-4.6494005786392552400627879724801e-15 1:7.6300001 2:0.87 3:6.3200002 4:10.24 5:3.9200001 6:4.3600001 7:1.53 8:5.23 9:15.25 10:6.0999999 11:0.87 12:4.5799999 13:2.8299999 14:2.8299999 15:5.8800001 16:8.2799997 17:5.8800001 18:5.6599998 19:0.22 20:1.53 #
-4.6494005786392552400627879724801e-15 1:4.4299998 2:1.83 3:6.1199999 4:7.1900001 5:4.4299998 6:2.29 7:1.38 8:6.73 9:10.24 10:11.77 11:2.29 12:5.3499999 13:3.8199999 14:4.1300001 15:5.96 16:5.8099999 17:4.5900002 18:6.1199999 19:1.22 20:4.2800002 #
-4.6494005786392552400627879724801e-15 1:5.8800001 2:5.8800001 3:3.9200001 4:8.8199997 5:2.9400001 6:8.8199997 7:1.96 8:3.9200001 9:4.9000001 10:5.8800001 11:4.9000001 12:2.9400001 13:5.8800001 14:2.9400001 15:3.9200001 16:8.8199997 17:4.9000001 18:8.8199997 19:1.96 20:1.96 #
-1.3861157042001827178760543330397e-15 1:4.6399999 2:1.0700001 3:4.29 4:6.4299998 5:9.29 6:3.5699999 7:1.79 8:5.71 9:5.71 10:12.86 11:2.1400001 12:4.29 13:3.5699999 14:3.21 15:5 16:9.6400003 17:8.5699997 18:3.9300001 19:1.0700001 20:3.21 #
-4.6494005786392552400627879724801e-15 1:4.23 2:1.91 3:4.77 4:3.55 5:4.6399999 6:2.5899999 7:2.73 8:8.8699999 9:6.1399999 10:13.1 11:2.3199999 12:5.46 13:4.6399999 14:4.5 15:3.96 16:9.5500002 17:6.5500002 18:4.9099998 19:1.91 20:3.6800001 #
-4.6494005786392552400627879724801e-15 1:5.6700001 2:1.72 3:8.8699999 4:7.1399999 5:6.1599998 6:3.6900001 7:3.2 8:6.1599998 9:5.1700001 10:9.3599997 11:2.22 12:4.4299998 13:5.4200001 14:4.1900001 15:5.9099998 16:6.9000001 17:3.6900001 18:5.9099998 19:0.49000001 20:3.6900001 #
-4.6494005786392552400627879724801e-15 1:6.5999999 2:0.58999997 3:10.7 4:12.02 5:4.4000001 6:4.1100001 7:1.3200001 8:3.6700001 9:10.12 10:6.1599998 11:1.03 12:4.6900001 13:3.8099999 14:3.6700001 15:6.0100002 16:9.3800001 17:4.4000001 18:4.6900001 19:0.28999999 20:2.3499999 #
-4.6494005786392552400627879724801e-15 1:4.8099999 2:0.41999999 3:7.7399998 4:10.46 5:4.1799998 6:5.4400001 7:1.26 8:3.77 9:9.4099998 10:7.5300002 11:1.88 12:6.4899998 13:2.9300001 14:3.3499999 15:6.0700002 16:8.5799999 17:5.8600001 18:5.6500001 19:1.26 20:2.9300001 #
