SVM-light Version V6.02
1 # kernel type
4 # kernel parameter -d 
1 # kernel parameter -g 
1 # kernel parameter -s 
1 # kernel parameter -r 
empty# kernel parameter -u 
20 # highest feature index 
768 # number of training documents 
586 # number of support vectors plus 1 
1.094215 # threshold b, each following line is a SV (starting with alpha*y)
-3.6265366570042682591449576238314e-12 1:5.4400001 2:2.95 3:8.3900003 4:4.7600002 5:3.1700001 6:5.6700001 7:3.4000001 8:6.1199999 9:7.2600002 10:7.48 11:2.49 12:5.9000001 13:4.3099999 14:2.72 15:5.2199998 16:8.8400002 17:4.9899998 18:4.9899998 19:2.95 20:2.95 #
-3.6265366570042682591449576238314e-12 1:9.9499998 2:1.08 3:4.0300002 4:6.9899998 5:2.96 6:8.3299999 7:1.88 8:5.6500001 9:12.37 10:9.1400003 11:1.61 12:2.1500001 13:4.8400002 14:2.6900001 15:4.5700002 16:10.48 17:4.3000002 18:5.1100001 19:0.27000001 20:1.61 #
2.7347964272052428896445323023499e-12 1:7.0100002 2:1 3:4.8400002 4:6.6799998 5:5.1799998 6:6.1799998 7:2.1700001 8:6.8400002 9:10.85 10:8.8500004 11:1.84 12:3.3399999 13:3.8399999 14:5.6799998 15:5.6799998 16:6.8400002 17:5.1799998 18:6.0100002 19:0.67000002 20:1.34 #
-3.6265366570042682591449576238314e-12 1:7.5900002 2:2.1600001 3:4.4499998 4:6.7800002 5:2.02 6:5.2600002 7:1.8 8:3.8199999 9:9.5699997 10:7.46 11:1.75 12:3.8199999 13:6.96 14:5.0300002 15:6.9200001 16:10.74 17:5.6199999 18:5.6599998 19:0.44999999 20:2.1600001 #
-3.6265366570042682591449576238314e-12 1:6.23 2:0.77999997 3:4.6700001 4:8.3699999 5:5.25 6:5.0599999 7:1.17 8:7.3899999 9:6.6100001 10:7.7800002 11:2.3299999 12:4.6700001 13:4.8600001 14:6.0300002 15:6.6100001 16:7.5900002 17:2.72 18:5.25 19:2.72 20:3.8900001 #
7.2530733140085365182899152476628e-12 1:5.9499998 2:1.42 3:4.8200002 4:7.0799999 5:5.0999999 6:3.6800001 7:3.1199999 8:6.23 9:12.18 10:7.6500001 11:3.1199999 12:3.97 13:7.0799999 14:4.25 15:7.9299998 16:3.97 17:4.25 18:4.8200002 19:1.13 20:2.27 #
7.2530733140085365182899152476628e-12 1:13.99 2:1.4 3:2.0999999 4:5.5900002 5:3.5 6:4.9000001 7:0.69999999 8:0.69999999 9:13.99 10:7.6900001 11:2.0999999 12:2.8 13:3.5 14:8.3900003 15:9.79 16:6.9899998 17:5.5900002 18:4.9000001 19:0 20:1.4 #
7.2530733140085365182899152476628e-12 1:6.0300002 2:1.85 3:4.6100001 4:8.5200005 5:3.0699999 6:5.98 7:2.28 8:2.8099999 9:5.5599999 10:9.3199997 11:2.01 12:3.23 13:9.1099997 14:5.6100001 15:6.3499999 16:10.43 17:5.1300001 18:5.4499998 19:1.22 20:1.4299999 #
7.2530733140085365182899152476628e-12 1:6.5500002 2:0.19 3:8.9899998 4:12.73 5:3 6:3.1800001 7:1.3099999 8:5.9899998 9:9.7399998 10:8.8000002 11:0.75 12:8.6099997 13:2.25 14:4.4899998 15:4.3099999 16:8.0500002 17:4.1199999 18:3.75 19:0.56 20:2.6199999 #
-3.6265366570042682591449576238314e-12 1:7.5 2:0 3:2.5 4:2.5 5:0 6:0 7:2.5 8:1.25 9:22.5 10:10 11:1.25 12:6.25 13:7.5 14:3.75 15:16.25 16:5 17:2.5 18:3.75 19:0 20:5 #
-3.6265366570042682591449576238314e-12 1:4.3800001 2:10.95 3:4.3800001 4:7.3000002 5:4.3800001 6:7.3000002 7:3.6500001 8:3.6500001 9:5.8400002 10:9.4899998 11:1.46 12:3.6500001 13:4.3800001 14:0.73000002 15:10.95 16:2.1900001 17:5.8400002 18:5.1100001 19:1.46 20:2.9200001 #
7.2530733140085365182899152476628e-12 1:10.22 2:0 3:6.5700002 4:5.1100001 5:3.6500001 6:5.1100001 7:1.46 8:7.3000002 9:5.8400002 10:5.8400002 11:2.1900001 12:6.5700002 13:3.6500001 14:5.1100001 15:2.9200001 16:10.22 17:13.14 18:5.1100001 19:0 20:0 #
7.2530733140085365182899152476628e-12 1:6.29 2:3.48 3:4.8000002 4:4.1399999 5:4.8000002 6:7.6199999 7:4.6399999 8:4.3000002 9:3.3099999 10:7.2800002 11:1.66 12:6.29 13:6.79 14:2.98 15:5.3000002 16:11.26 17:5.6300001 18:5.3000002 19:1.3200001 20:2.8099999 #
-3.6265366570042682591449576238314e-12 1:12.74 2:0 3:2.23 4:17.83 5:2.23 6:6.3699999 7:0.95999998 8:4.46 9:5.4099998 10:9.2399998 11:0.63999999 12:1.91 13:3.5 14:6.6900001 15:10.51 16:4.1399999 17:3.1800001 18:5.4099998 19:1.27 20:1.27 #
-3.1526694857781317108546613251754e-12 1:12.04 2:0.69 3:6.25 4:6.9400001 5:3.7 6:8.8000002 7:2.3099999 8:4.4000001 9:3.7 10:7.1799998 11:1.62 12:4.6300001 13:3.47 14:5.3200002 15:4.8600001 16:5.5599999 17:6.9400001 18:6.25 19:1.85 20:3.47 #
7.2530733140085365182899152476628e-12 1:7.4299998 2:1.75 3:5.0999999 4:3.5 5:5.54 6:5.54 7:4.52 8:5.98 9:5.98 10:9.1800003 11:1.9 12:3.9400001 13:4.96 14:4.3699999 15:4.52 16:8.75 17:5.54 18:7.1399999 19:1.6 20:2.77 #
-3.6265366570042682591449576238314e-12 1:4.3099999 2:1.72 3:5.3499999 4:6.4200001 5:5.6700001 6:3.52 7:1.6900001 8:7.3899999 9:7.4299998 10:12.81 11:2.1199999 12:6.0999999 13:3.01 14:4.02 15:3.9100001 16:9.0100002 17:5.02 18:5.1300001 19:1.47 20:3.9100001 #
7.2530733140085365182899152476628e-12 1:9.3299999 2:2.1300001 3:2.6700001 4:8.8000002 5:0.52999997 6:9.6000004 7:2.6700001 8:1.33 9:6.6700001 10:10.93 11:1.87 12:1.6 13:11.47 14:4.8000002 15:8.5299997 16:6.4000001 17:5.0700002 18:3.73 19:0.80000001 20:1.0700001 #
-3.6265366570042682591449576238314e-12 1:7.0700002 2:0 3:4.04 4:10.1 5:3.03 6:4.04 7:2.02 8:3.03 9:28.280001 10:4.04 11:2.02 12:3.03 13:6.0599999 14:5.0500002 15:1.01 16:4.04 17:3.03 18:4.04 19:1.01 20:5.0500002 #
-3.6265366570042682591449576238314e-12 1:3.29 2:0 3:8.9200001 4:12.68 5:1.88 6:3.29 7:0.94 8:7.5100002 9:11.27 10:13.15 11:1.41 12:7.98 13:2.3499999 14:2.3499999 15:4.6900001 16:7.98 17:1.88 18:5.6300001 19:0.47 20:2.3499999 #
-3.6265366570042682591449576238314e-12 1:3.74 2:0.66000003 3:10.33 4:11.21 5:4.8400002 6:4.8400002 7:0.88 8:5.71 9:8.79 10:9.6700001 11:1.76 12:5.4899998 13:3.52 14:3.74 15:2.8599999 16:9.4499998 17:5.0500002 18:4.4000001 19:0 20:3.0799999 #
7.2530733140085365182899152476628e-12 1:12.58 2:0.64999998 3:3.55 4:7.7399998 5:2.26 6:8.3900003 7:1.9400001 8:1.61 9:3.55 10:11.94 11:0.64999998 12:0.97000003 13:6.77 14:7.0999999 15:8.3900003 16:9.0299997 17:3.55 18:5.8099999 19:1.9400001 20:1.61 #
7.2530733140085365182899152476628e-12 1:15.09 2:0.63 3:4.4000001 4:3.1400001 5:0.63 6:7.5500002 7:2.52 8:4.4000001 9:0.63 10:8.1800003 11:1.89 12:1.26 13:15.09 14:1.89 15:8.8100004 16:8.1800003 17:4.4000001 18:6.29 19:2.52 20:2.52 #
7.2530733140085365182899152476628e-12 1:10.77 2:2.97 3:5.3200002 4:5.4499998 5:3.22 6:6.0599999 7:3.71 8:2.5999999 9:3.8399999 10:12.5 11:0.99000001 12:1.98 13:3.96 14:5.5700002 15:5.9400001 16:6.4400001 17:6.9299998 18:8.04 19:2.3499999 20:1.36 #
-3.6265366570042682591449576238314e-12 1:11.8 2:0.56 3:2.8099999 4:3.9300001 5:2.25 6:7.8699999 7:2.25 8:3.3699999 9:4.4899998 10:6.7399998 11:2.8099999 12:2.8099999 13:6.1799998 14:6.1799998 15:12.92 16:6.7399998 17:10.11 18:3.3699999 19:1.12 20:1.6900001 #
-3.6265366570042682591449576238314e-12 1:13.62 2:1.5599999 3:5.0599999 4:5.0599999 5:4.2800002 6:7.3899999 7:1.95 8:3.1099999 9:2.72 10:14.01 11:1.17 12:0.77999997 13:9.3400002 14:4.2800002 15:5.4499998 16:7 17:4.6700001 18:6.6100001 19:0.77999997 20:1.17 #
3.5537571588088943014584788649156e-12 1:5.4400001 2:0.68000001 3:4.7600002 4:16.33 5:1.36 6:3.4000001 7:1.36 8:4.7600002 9:14.29 10:10.88 11:2.72 12:2.72 13:5.4400001 14:4.0799999 15:6.1199999 16:6.8000002 17:4.7600002 18:2.72 19:0 20:1.36 #
5.2716983165119195528730919541243e-13 1:6.6100001 2:0.36000001 3:9.6400003 4:11.43 5:3.5699999 6:6.96 7:2.3199999 8:2.8599999 9:7.6799998 10:10.36 11:1.79 12:1.96 13:5 14:4.6399999 15:6.4299998 16:8.04 17:3.9300001 18:3.9300001 19:0.88999999 20:1.61 #
-3.6265366570042682591449576238314e-12 1:13.92 2:0 3:4.0300002 4:9.1599998 5:0.73000002 6:5.8600001 7:0.73000002 8:1.83 9:24.540001 10:4.7600002 11:0.73000002 12:4.0300002 13:6.23 14:1.83 15:2.9300001 16:4.7600002 17:6.23 18:7.6900001 19:0 20:0 #
-3.6265366570042682591449576238314e-12 1:3.74 2:0 3:0.93000001 4:13.08 5:0 6:10.28 7:0 8:0.93000001 9:14.95 10:2.8 11:0.93000001 12:0.93000001 13:12.15 14:5.6100001 15:10.28 16:13.08 17:7.48 18:2.8 19:0 20:0 #
-3.6265366570042682591449576238314e-12 1:4.52 2:0.80000001 3:6.1199999 4:13.3 5:2.3900001 6:6.9099998 7:1.6 8:3.1900001 9:13.56 10:4.79 11:0.80000001 12:3.99 13:4.52 14:3.99 15:3.1900001 16:10.64 17:5.8499999 18:4.79 19:1.86 20:3.1900001 #
7.2530733140085365182899152476628e-12 1:7.1399999 2:5.1900001 3:4.5500002 4:3.9000001 5:2.5999999 6:5.1900001 7:1.95 8:1.3 9:3.25 10:11.69 11:1.3 12:3.25 13:6.4899998 14:10.39 15:11.69 16:6.4899998 17:6.4899998 18:3.9000001 19:1.3 20:1.95 #
7.2530733140085365182899152476628e-12 1:6.75 2:4.9099998 3:3.6800001 4:9.1999998 5:4.9099998 6:5.52 7:2.45 8:4.9099998 9:3.0699999 10:12.88 11:1.23 12:3.0699999 13:1.84 14:3.6800001 15:9.8199997 16:5.52 17:5.52 18:6.1300001 19:0.61000001 20:4.29 #
-3.6265366570042682591449576238314e-12 1:10.28 2:0.82999998 3:5.6399999 4:6.6300001 5:3.3199999 6:6.1399999 7:2.8199999 8:1.16 9:2.1600001 10:12.6 11:1.49 12:1.8200001 13:8.1300001 14:4.48 15:10.95 16:7.1300001 17:3.48 18:6.9699998 19:1.33 20:2.6500001 #
-3.6265366570042682591449576238314e-12 1:7.25 2:4.3499999 3:1.9299999 4:7.73 5:5.8000002 6:6.7600002 7:6.2800002 8:4.3499999 9:0.97000003 10:13.53 11:1.9299999 12:0.47999999 13:7.73 14:2.9000001 15:8.6999998 16:7.73 17:3.8599999 18:4.8299999 19:1.45 20:1.45 #
-3.6265366570042682591449576238314e-12 1:4.1999998 2:0.41999999 3:6.7199998 4:12.18 5:6.3000002 6:1.26 7:2.9400001 8:5.46 9:10.92 10:10.92 11:2.0999999 12:6.3000002 13:2.0999999 14:6.3000002 15:6.7199998 16:5.8800001 17:2.52 18:2.9400001 19:0.83999997 20:2.9400001 #
7.2530733140085365182899152476628e-12 1:4.5799999 2:3.9200001 3:3.9200001 4:7.1900001 5:1.96 6:3.9200001 7:3.27 8:3.9200001 9:20.26 10:3.9200001 11:1.3099999 12:4.5799999 13:3.27 14:8.5 15:1.3099999 16:5.23 17:6.54 18:6.54 19:0 20:5.8800001 #
7.2530733140085365182899152476628e-12 1:9.3900003 2:1.63 3:5.3099999 4:13.06 5:2.8599999 6:7.3499999 7:2.04 8:2.04 9:13.47 10:4.0799999 11:0.81999999 12:4.4899998 13:6.9400001 14:2.8599999 15:0.41 16:8.5699997 17:4.9000001 18:7.7600002 19:0.81999999 20:1.22 #
4.2177083636760319921519224593869e-12 1:9.8199997 2:2.45 3:3.99 4:9.1999998 5:1.84 6:9.1999998 7:1.23 8:0.61000001 9:1.53 10:13.5 11:1.23 12:0.61000001 13:4.9099998 14:4.9099998 15:14.11 16:9.5100002 17:3.0699999 18:4.9099998 19:0.92000002 20:2.45 #
-3.1155311227221206888686666583245e-12 1:15.38 2:0 3:3.21 4:8.9700003 5:1.92 6:4.4899998 7:1.28 8:3.8499999 9:20.51 10:3.8499999 11:1.92 12:1.92 13:5.1300001 14:1.92 15:2.5599999 16:6.4099998 17:7.6900001 18:6.4099998 19:0 20:2.5599999 #
1.4744901952927286187657573162401e-12 1:8.1000004 2:1.97 3:4.5999999 4:7 5:3.72 6:5.6900001 7:2.4100001 8:2.1900001 9:7.8800001 10:9.4099998 11:1.09 12:2.1900001 13:7.6599998 14:5.25 15:9.1899996 16:8.9700003 17:4.3800001 18:6.3499999 19:0.66000003 20:1.3099999 #
-3.6265366570042682591449576238314e-12 1:5.6100001 2:1.02 3:7.1399999 4:12.76 5:4.5900002 6:4.0799999 7:1.02 8:4.5900002 9:7.6500001 10:5.0999999 11:1.02 12:2.55 13:3.0599999 14:2.55 15:3.5699999 16:19.389999 17:8.1599998 18:4.5900002 19:0.50999999 20:1.02 #
-3.6265366570042682591449576238314e-12 1:4.5300002 2:0.43000001 3:12.72 4:15.95 5:3.23 6:3.23 7:1.72 8:4.0900002 9:6.25 10:4.3099999 11:1.08 12:6.4699998 13:2.8 14:4.96 15:7.1100001 16:8.1899996 17:5.8200002 18:4.5300002 19:0.43000001 20:2.1600001 #
-3.6265366570042682591449576238314e-12 1:7.5 2:2.72 3:5.4299998 4:9.96 5:2.5899999 6:4.5300002 7:2.46 8:2.98 9:5.3000002 10:8.54 11:2.3299999 12:3.0999999 13:7.6300001 14:5.5599999 15:4.27 16:9.1800003 17:7.3699999 18:6.73 19:0.13 20:1.6799999 #
7.2530733140085365182899152476628e-12 1:8.1700001 2:1.8099999 3:3.45 4:7.6199999 5:2.54 6:7.2600002 7:3.6300001 8:1.8099999 9:4.9000001 10:12.89 11:1.27 12:1.8099999 13:7.0799999 14:4.9000001 15:9.4399996 16:7.6199999 17:4.7199998 18:5.8099999 19:1.09 20:2.1800001 #
7.2530733140085365182899152476628e-12 1:10.75 2:0.54000002 3:3.23 4:14.52 5:1.61 6:2.6900001 7:1.61 8:2.1500001 9:13.98 10:5.9099998 11:4.3000002 12:2.1500001 13:7.5300002 14:6.9899998 15:8.0600004 16:5.9099998 17:1.61 18:4.3000002 19:0.54000002 20:1.61 #
-3.6265366570042682591449576238314e-12 1:3.1099999 2:1.11 3:4.4400001 4:11.11 5:2.4400001 6:5.5599999 7:4 8:1.78 9:15.56 10:4.6700001 11:2.22 12:4.8899999 13:3.5599999 14:3.78 15:8.8900003 16:14.22 17:3.3299999 18:2.22 19:0.88999999 20:2.22 #
-3.6265366570042682591449576238314e-12 1:5.6700001 2:0.86000001 3:5.1500001 4:11.51 5:2.23 6:4.1199999 7:1.72 8:5.8400002 9:15.46 10:6.3600001 11:1.89 12:3.4400001 13:3.95 14:3.78 15:6.6999998 16:7.73 17:5.3299999 18:5.8400002 19:0.86000001 20:1.55 #
7.2530733140085365182899152476628e-12 1:5.0700002 2:0.23999999 3:4.3499999 4:10.14 5:4.5900002 6:14.98 7:2.6600001 8:2.1700001 9:1.9299999 10:3.8599999 11:1.21 12:3.3800001 13:12.32 14:5.0700002 15:9.1800003 16:7 17:2.4200001 18:4.3499999 19:0.23999999 20:4.8299999 #
7.2530733140085365182899152476628e-12 1:5.3299999 2:0.67000002 3:12 4:7.3299999 5:5.3299999 6:7.3299999 7:1.33 8:5.3299999 9:5.3299999 10:10.67 11:3.3299999 12:2.6700001 13:2.6700001 14:2 15:6 16:6 17:4 18:6.6700001 19:0 20:6 #
7.2530733140085365182899152476628e-12 1:6.1999998 2:3.28 3:8.3900003 4:11.31 5:2.1900001 6:3.6500001 7:2.55 8:3.6500001 9:5.1100001 10:7.3000002 11:2.1900001 12:6.9299998 13:5.4699998 14:4.3800001 15:6.1999998 16:6.9299998 17:7.3000002 18:5.8400002 19:0 20:1.09 #
2.7488248102155419661736586421516e-12 1:6.8699999 2:0.69 3:5.5 4:8.5900002 5:3.78 6:5.8400002 7:4.4699998 8:3.0899999 9:4.8099999 10:10.31 11:2.4100001 12:2.4100001 13:4.4699998 14:2.0599999 15:12.03 16:4.8099999 17:6.1900001 18:7.5599999 19:1.03 20:3.0899999 #
-3.6265366570042682591449576238314e-12 1:10.27 2:1.08 3:5.1399999 4:5.1399999 5:5.1399999 6:9.1899996 7:2.4300001 8:3.78 9:2.7 10:10 11:2.7 12:3.78 13:4.5900002 14:3.78 15:7.0300002 16:4.0500002 17:6.4899998 18:8.3800001 19:1.35 20:2.97 #
-3.0447428775820194960173614205783e-12 1:3.47 2:0.57999998 3:6.6500001 4:4.0500002 5:2.8900001 6:25.43 7:1.73 8:2.5999999 9:4.9099998 10:2.5999999 11:2.3099999 12:2.8900001 13:3.47 14:9.8299999 15:6.3600001 16:4.9099998 17:5.4899998 18:4.6199999 19:2.5999999 20:2.5999999 #
7.2530733140085365182899152476628e-12 1:5.5999999 2:0.80000001 3:5.1999998 4:13.8 5:3.2 6:9.8000002 7:0.2 8:2.5999999 9:10.2 10:2 11:0.80000001 12:2.5999999 13:3.8 14:2.4000001 15:4.5999999 16:22.200001 17:4 18:4.8000002 19:0.40000001 20:1 #
-2.2386606109539425111365369612771e-12 1:9.1400003 2:1.38 3:3.28 4:6.7199998 5:1.9 6:5.3400002 7:1.38 8:2.24 9:8.2799997 10:8.79 11:0.86000001 12:3.45 13:3.45 14:4.6599998 15:3.79 16:21.209999 17:5.6900001 18:6.7199998 19:0.69 20:1.03 #
-3.6265366570042682591449576238314e-12 1:5.23 2:0.57999998 3:5.8099999 4:6.4000001 5:4.6500001 6:1.74 7:1.74 8:8.1400003 9:11.63 10:8.7200003 11:1.74 12:9.3000002 13:5.23 14:2.9100001 15:2.9100001 16:7.5599999 17:9.3000002 18:3.49 19:0 20:2.9100001 #
-3.6265366570042682591449576238314e-12 1:4.1799998 2:3.77 3:5.4400001 4:10.46 5:5.4400001 6:10.46 7:2.9300001 8:2.9300001 9:4.1799998 10:5.02 11:2.51 12:5.02 13:2.0899999 14:2.51 15:15.06 16:7.1100001 17:2.51 18:4.5999999 19:0.41999999 20:3.3499999 #
7.2530733140085365182899152476628e-12 1:2.9100001 2:7.77 3:3.8800001 4:1.9400001 5:3.8800001 6:12.62 7:1.9400001 8:4.8499999 9:4.8499999 10:4.8499999 11:3.8800001 12:3.8800001 13:8.7399998 14:5.8299999 15:12.62 16:5.8299999 17:3.8800001 18:0.97000003 19:3.8800001 20:0.97000003 #
7.2530733140085365182899152476628e-12 1:6.1399999 2:1.62 3:8.0799999 4:8.5600004 5:3.72 6:4.8499999 7:1.9400001 8:5.6500001 9:4.04 10:7.75 11:1.62 12:5.8200002 13:4.1999998 14:4.1999998 15:11.79 16:7.5900002 17:6.46 18:3.8800001 19:0.47999999 20:1.62 #
7.1739924734749192935631992949701e-12 1:6.73 2:0.61000001 3:4.2800002 4:4.5900002 5:4.2800002 6:21.1 7:3.0599999 8:5.1999998 9:5.8099999 10:4.2800002 11:1.83 12:3.6700001 13:4.5900002 14:2.75 15:9.1700001 16:4.8899999 17:2.45 18:8.2600002 19:0.31 20:2.1400001 #
-1.2781546286019868614379447855832e-12 1:6.48 2:0.40000001 3:5.6700001 4:12.55 5:0.81 6:2.8299999 7:0.81 8:7.29 9:10.93 10:12.55 11:5.2600002 12:4.0500002 13:2.4300001 14:9.3100004 15:4.4499998 16:6.0700002 17:2.8299999 18:4.0500002 19:0.81 20:0.40000001 #
-3.6265366570042682591449576238314e-12 1:9.0900002 2:3.4100001 3:1.14 4:4.5500002 5:3.4100001 6:3.4100001 7:3.4100001 8:4.5500002 9:14.77 10:13.64 11:1.14 12:3.4100001 13:2.27 14:3.4100001 15:11.36 16:6.8200002 17:2.27 18:7.9499998 19:0 20:0 #
-3.6265366570042682591449576238314e-12 1:7.46 2:1.75 3:5.2600002 4:12.28 5:4.3899999 6:3.0699999 7:0.44 8:5.6999998 9:10.53 10:10.96 11:2.1900001 12:5.2600002 13:1.75 14:6.5799999 15:7.8899999 16:5.6999998 17:3.51 18:2.6300001 19:0.44 20:2.1900001 #
-3.6265366570042682591449576238314e-12 1:8.9700003 2:0.70999998 3:6.1300001 4:11.97 5:4.5599999 6:2.99 7:1.71 8:4.9899998 9:7.1199999 10:8.1199999 11:2.99 12:3.5599999 13:4.1300001 14:5.27 15:9.1199999 16:2.4200001 17:3.1300001 18:4.6999998 19:2.8499999 20:4.5599999 #
7.2530733140085365182899152476628e-12 1:5.6300001 2:0.17 3:7.6500001 4:6.2199998 5:2.02 6:4.29 7:0.83999997 8:5.0500002 9:10.26 10:5.7199998 11:1.4299999 12:6.73 13:7.23 14:4.04 15:3.7 16:16.57 17:6.1399999 18:5.21 19:0.17 20:0.93000001 #
7.2530733140085365182899152476628e-12 1:4.75 2:2.51 3:5.8699999 4:8.4499998 5:3.0699999 6:4.96 7:2.3699999 8:6.0100002 9:8.1700001 10:10.54 11:3.1400001 12:4.4699998 13:3.8399999 14:4.1900001 15:4.6100001 16:9.0100002 17:4.8200002 18:5.52 19:1.12 20:2.5799999 #
7.2530733140085365182899152476628e-12 1:4.8899999 2:0.50999999 3:3.3699999 4:6.4099998 5:4.7199998 6:4.7199998 7:3.3699999 8:4.5500002 9:7.7600002 10:7.0799999 11:1.85 12:4.3800001 13:8.2600002 14:2.8699999 15:8.0900002 16:13.15 17:5.5599999 18:4.3800001 19:1.01 20:3.04 #
-3.6265366570042682591449576238314e-12 1:8.1700001 2:0 3:10.42 4:7.8899999 5:0 6:13.8 7:1.13 8:1.6900001 9:10.14 10:1.41 11:0.28 12:5.9200001 13:8.1700001 14:2.54 15:7.6100001 16:11.83 17:3.0999999 18:4.79 19:0.28 20:0.85000002 #
7.2530733140085365182899152476628e-12 1:6.5900002 2:1.1 3:4.6300001 4:8.2399998 5:3.53 6:4.5500002 7:3.1400001 8:4.3200002 9:6.8299999 10:8.3199997 11:1.96 12:4.0799999 13:6.2800002 14:7.54 15:5.6500001 16:7.6900001 17:4.71 18:6.5900002 19:0.86000001 20:3.3800001 #
7.2530733140085365182899152476628e-12 1:7.9699998 2:1.1 3:3.5699999 4:14.29 5:3.3 6:5.4899998 7:1.1 8:3.8499999 9:4.9499998 10:12.09 11:2.75 12:2.2 13:5.2199998 14:5.2199998 15:7.1399999 16:5.4899998 17:3.5699999 18:7.1399999 19:1.92 20:1.65 #
1.2993314287891745293707828137753e-20 1:9.5500002 2:1.6900001 3:4.3099999 4:11.8 5:2.0599999 6:4.6799998 7:2.25 8:5.9899998 9:13.48 10:9.5500002 11:2.8099999 12:2.6199999 13:3 14:2.25 15:4.1199999 16:6.1799998 17:4.3099999 18:6.1799998 19:0.56 20:2.6199999 #
-3.6265366570042682591449576238314e-12 1:6.46 2:1.11 3:5.3499999 4:6.9000001 5:5.5700002 6:14.7 7:2.6700001 8:3.3399999 9:3.5599999 10:4.9000001 11:3.3399999 12:4.23 13:3.79 14:4.0100002 15:6.9000001 16:8.2399998 17:3.5599999 18:5.5700002 19:0.44999999 20:5.3499999 #
-3.6265366570042682591449576238314e-12 1:5.6599998 2:0.28 3:3.1099999 4:8.1999998 5:2.97 6:15.13 7:2.55 8:1.7 9:4.6700001 10:4.5300002 11:3.96 12:1.98 13:16.27 14:6.9299998 15:8.4899998 16:5.23 17:3.25 18:2.97 19:0.14 20:1.98 #
-3.6265366570042682591449576238314e-12 1:6.21 2:1.38 3:5.8600001 4:13.28 5:4.3099999 6:10.86 7:3.0999999 8:3.79 9:6.5500002 10:3.0999999 11:3.0999999 12:2.9300001 13:4.3099999 14:4.1399999 15:6.9000001 16:8.79 17:3.6199999 18:3.0999999 19:0.17 20:4.48 #
-1.392927105440926230300906422831e-12 1:7.1399999 2:3.0599999 3:9.6899996 4:8.6700001 5:2.04 6:14.8 7:10.2 8:1.53 9:3.0599999 10:7.1399999 11:2.04 12:3.0599999 13:2.55 14:3.0599999 15:2.04 16:2.55 17:2.55 18:12.76 19:0 20:2.04 #
7.2530733140085365182899152476628e-12 1:5.2800002 2:1.87 3:5.2800002 4:6.9000001 5:6.4699998 6:2.21 7:2.6400001 8:8.9399996 9:7.6700001 10:13.12 11:1.62 12:6.1300001 13:2.6400001 14:3.49 15:2.9000001 16:9.2799997 17:5.1999998 18:4.0900002 19:0.76999998 20:3.49 #
7.2530733140085365182899152476628e-12 1:14.29 2:5.71 3:4.29 4:4.29 5:2.8599999 6:4.29 7:1.4299999 8:4.29 9:7.1399999 10:10 11:1.4299999 12:1.4299999 13:1.4299999 14:4.29 15:11.43 16:8.5699997 17:8.5699997 18:2.8599999 19:0 20:1.4299999 #
-3.6265366570042682591449576238314e-12 1:1.49 2:1.12 3:6.3200002 4:13.75 5:2.97 6:1.86 7:2.23 8:5.5799999 9:8.9200001 10:14.5 11:2.97 12:4.8299999 13:4.0900002 14:5.1999998 15:4.0900002 16:6.3200002 17:6.6900001 18:4.46 19:1.49 20:1.12 #
-3.6265366570042682591449576238314e-12 1:3.8099999 2:0.69 3:8.6499996 4:10.38 5:2.0799999 6:3.1099999 7:0.34999999 8:5.8800001 9:11.07 10:14.88 11:2.0799999 12:5.54 13:2.4200001 14:3.1099999 15:5.1900001 16:6.23 17:5.1900001 18:6.5700002 19:0 20:2.77 #
-3.6265366570042682591449576238314e-12 1:4.6399999 2:1.0700001 3:4.29 4:6.4299998 5:9.29 6:3.5699999 7:1.79 8:5.71 9:5.71 10:12.86 11:2.1400001 12:4.29 13:3.5699999 14:3.21 15:5 16:9.6400003 17:8.5699997 18:3.9300001 19:1.0700001 20:3.21 #
-3.6265366570042682591449576238314e-12 1:7.6199999 2:1.75 3:5.5599999 4:6.98 5:5.71 6:5.4000001 7:3.3299999 8:3.1700001 9:4.1300001 10:9.8400002 11:2.22 12:4.5999999 13:4.5999999 14:5.71 15:6.3499999 16:6.8299999 17:3.49 18:5.2399998 19:2.22 20:5.2399998 #
7.2530733140085365182899152476628e-12 1:8.0799999 2:0.68000001 3:3.4200001 4:8.6300001 5:3.29 6:17.809999 7:1.37 8:5.3400002 9:5.48 10:5.75 11:8.6300001 12:4.25 13:5.21 14:1.92 15:7.4000001 16:4.3800001 17:1.92 18:5.3400002 19:0.41 20:0.68000001 #
-3.6265366570042682591449576238314e-12 1:9.4399996 2:6.9899998 3:4.79 4:5.7199998 5:2.79 6:11.2 7:1.96 8:1.27 9:2.1500001 10:8.5600004 11:0.63999999 12:2.0999999 13:8.8999996 14:4.1599998 15:7.2399998 16:7.1399999 17:5.77 18:7.0900002 19:0.68000001 20:1.42 #
-3.6265366570042682591449576238314e-12 1:6.6500001 2:2.46 3:4.4299998 4:8.3699999 5:1.23 6:15.52 7:1.97 8:3.2 9:4.1900001 10:8.3699999 11:1.97 12:2.22 13:8.8699999 14:3.2 15:6.1599998 16:8.1300001 17:6.6500001 18:3.6900001 19:0.49000001 20:2.22 #
-3.6265366570042682591449576238314e-12 1:9.6599998 2:1.38 3:1.38 4:4.1399999 5:4.1399999 6:4.8299999 7:4.8299999 8:2.76 9:6.21 10:8.2799997 11:5.52 12:0.69 13:8.9700003 14:3.45 15:15.17 16:8.9700003 17:4.1399999 18:3.45 19:0.69 20:1.38 #
7.2530733140085365182899152476628e-12 1:10.5 2:1.5700001 3:6.1199999 4:6.6199999 5:2.6500001 6:10.34 7:1.9 8:1.49 9:6.1199999 10:7.1999998 11:0.99000001 12:1.08 13:8.8500004 14:4.71 15:7.7800002 16:12.32 17:4.3000002 18:4.4699998 19:0.57999998 20:0.41 #
7.2530733140085365182899152476628e-12 1:6.0900002 2:1.08 3:6.6900001 4:9.5600004 5:3.5799999 6:5.8499999 7:0.47999999 8:6.4499998 9:8.2399998 10:10.39 11:2.6300001 12:4.3000002 13:4.9000001 14:2.3900001 15:5.9699998 16:8.4799995 17:5.5 18:5.9699998 19:0.36000001 20:1.08 #
-3.6265366570042682591449576238314e-12 1:6.3499999 2:3.3099999 3:4.6999998 4:10.5 5:3.5899999 6:5.52 7:1.9299999 8:5.25 9:4.9699998 10:10.77 11:3.04 12:4.9699998 13:4.4200001 14:2.49 15:5.8000002 16:7.73 17:5.52 18:4.9699998 19:1.38 20:2.76 #
-3.6265366570042682591449576238314e-12 1:4.3299999 2:0.72000003 3:5.0500002 4:10.47 5:4.6900001 6:2.53 7:1.4400001 8:8.3000002 9:11.91 10:11.55 11:1.4400001 12:6.8600001 13:3.6099999 14:6.1399999 15:3.25 16:10.47 17:2.1700001 18:3.97 19:0.36000001 20:0.72000003 #
-3.6265366570042682591449576238314e-12 1:5.2199998 2:0.37 3:3.3599999 4:10.07 5:0.75 6:2.24 7:2.6099999 8:4.8499999 9:13.81 10:12.69 11:4.0999999 12:7.46 13:2.6099999 14:6.3400002 15:3.3599999 16:8.96 17:5.9699998 18:4.0999999 19:0.37 20:0.75 #
-3.6265366570042682591449576238314e-12 1:3.4300001 2:0.80000001 3:5.4899998 4:11.2 5:2.1700001 6:2.74 7:2.0599999 8:5.3699999 9:12.57 10:9.6000004 11:1.83 12:8.3400002 13:1.9400001 14:6.5100002 15:3.4300001 16:10.51 17:6.1700001 18:4.3400002 19:0 20:1.49 #
-3.6265366570042682591449576238314e-12 1:9.5500002 2:0.56 3:5.0599999 4:6.4000001 5:2.02 6:10.45 7:3.5999999 8:2.1300001 9:4.7199998 10:8.9899998 11:1.12 12:2.1300001 13:7.6399999 14:3.48 15:10.79 16:10.11 17:3.9300001 18:3.48 19:0.56 20:3.26 #
-3.6265366570042682591449576238314e-12 1:10.36 2:3.5599999 3:3.8800001 4:6.8000002 5:3.24 6:6.1500001 7:2.27 8:1.62 9:4.5300002 10:9.3900003 11:1.29 12:1.29 13:10.36 14:5.5 15:11 16:8.7399998 17:4.21 18:2.5899999 19:0.97000003 20:2.27 #
-3.6265366570042682591449576238314e-12 1:11.48 2:1.21 3:5.4400001 4:6.3400002 5:3.3199999 6:7.5500002 7:1.96 8:1.8099999 9:2.27 10:7.4000001 11:1.66 12:2.27 13:8.7600002 14:1.96 15:10.12 16:6.6500001 17:7.25 18:8.1599998 19:1.96 20:2.4200001 #
7.2530733140085365182899152476628e-12 1:3.1800001 2:1.14 3:6.8200002 4:6.3600001 5:3.6400001 6:2.73 7:1.8200001 8:7.5 9:10.68 10:11.59 11:3.1800001 12:8.1800003 13:2.73 14:4.0900002 15:5 16:6.3600001 17:3.4100001 18:3.8599999 19:1.14 20:6.5900002 #
7.2530733140085365182899152476628e-12 1:3.8399999 2:0.55000001 3:9.5900002 4:9.5900002 5:2.47 6:1.92 7:2.74 8:6.8499999 9:9.8599997 10:11.51 11:2.1900001 12:6.3000002 13:3.5599999 14:3.8399999 15:4.9299998 16:7.1199999 17:4.6599998 18:3.8399999 19:0.81999999 20:3.8399999 #
7.2530733140085365182899152476628e-12 1:5.0500002 2:0.75999999 3:4.5500002 4:10.1 5:1.77 6:6.3099999 7:1.01 8:2.27 9:6.3099999 10:9.0900002 11:2.27 12:5.0500002 13:3.03 14:11.36 15:5.3000002 16:11.87 17:6.5700002 18:4.8000002 19:0.50999999 20:2.02 #
-3.6265366570042682591449576238314e-12 1:6.0799999 2:1.52 3:4.2600002 4:14.59 5:1.8200001 6:3.95 7:3.95 8:3.04 9:10.03 10:12.46 11:3.6500001 12:2.1300001 13:3.04 14:9.1199999 15:6.3800001 16:6.3800001 17:3.04 18:3.6500001 19:0.61000001 20:0.30000001 #
-3.6265366570042682591449576238314e-12 1:5.5300002 2:0.55000001 3:8.71 4:10.93 5:4.8400002 6:7.1900001 7:2.21 8:4.6999998 9:12.72 10:5.1199999 11:2.21 12:3.46 13:3.8699999 14:1.9400001 15:3.8699999 16:9.54 17:4.4299998 18:4.6999998 19:0.82999998 20:2.6300001 #
-3.6265366570042682591449576238314e-12 1:7.0300002 2:1.5599999 3:7.8099999 4:3.1199999 5:1.5599999 6:8.5900002 7:3.1199999 8:9.3800001 9:14.06 10:3.9100001 11:4.6900001 12:3.9100001 13:2.3399999 14:2.3399999 15:3.9100001 16:8.5900002 17:3.1199999 18:8.5900002 19:0.77999997 20:1.5599999 #
-3.6265366570042682591449576238314e-12 1:3.9200001 2:1.3099999 3:6.1999998 4:7.3400002 5:4.73 6:5.0599999 7:1.47 8:6.5300002 9:10.6 10:7.8299999 11:1.96 12:6.5300002 13:4.0799999 14:3.75 15:3.26 16:12.89 17:4.5700002 18:4.8899999 19:0.64999998 20:2.45 #
-3.6265366570042682591449576238314e-12 1:10.41 2:1.27 3:3.8099999 4:6.3499999 5:2.54 6:8.8800001 7:0.75999999 8:3.55 9:5.3299999 10:10.41 11:2.03 12:4.3099999 13:5.5799999 14:4.5700002 15:4.8200002 16:8.3800001 17:5.3299999 18:7.1100001 19:1.78 20:2.79 #
-3.6265366570042682591449576238314e-12 1:10.52 2:0.88999999 3:4.0999999 4:8.5600004 5:2.3199999 6:7.3099999 7:3.03 8:1.0700001 9:3.03 10:10.52 11:1.6 12:1.6 13:9.8000002 14:5.6999998 15:8.1999998 16:9.4499998 17:5.3499999 18:5.8800001 19:0 20:1.0700001 #
-3.6265366570042682591449576238314e-12 1:8.21 2:2.6900001 3:3.21 4:7.0500002 5:1.41 6:8.5900002 7:2.8199999 8:0.76999998 9:4.4899998 10:9.6199999 11:1.67 12:2.1800001 13:14.36 14:3.46 15:8.7200003 16:8.8500004 17:4.0999999 18:4.3600001 19:1.15 20:2.3099999 #
7.2530733140085365182899152476628e-12 1:5.52 2:2.0699999 3:7.5900002 4:8.9700003 5:3.45 6:5.52 7:3.45 8:11.03 9:6.9000001 10:6.9000001 11:0.69 12:5.52 13:4.1399999 14:2.76 15:4.1399999 16:4.1399999 17:4.8299999 18:7.5900002 19:0.69 20:4.1399999 #
7.2530733140085365182899152476628e-12 1:4.6599998 2:5.48 3:4.6599998 4:8.4899998 5:2.74 6:6.8499999 7:5.21 8:3.8399999 9:10.96 10:5.21 11:2.1900001 12:3.5599999 13:2.74 14:4.6599998 15:6.3000002 16:10.68 17:5.48 18:3.29 19:0 20:3.01 #
-3.6265366570042682591449576238314e-12 1:1.96 2:3.9200001 3:8.8199997 4:1.96 5:1.96 6:6.8600001 7:0.98000002 8:9.8000002 9:6.8600001 10:9.8000002 11:1.96 12:4.9000001 13:1.96 14:6.8600001 15:7.8400002 16:7.8400002 17:1.96 18:10.78 19:0.98000002 20:1.96 #
-3.6265366570042682591449576238314e-12 1:3.6400001 2:11.82 3:7.27 4:4.5500002 5:2.73 6:10 7:1.8200001 8:6.3600001 9:10.91 10:4.5500002 11:0.91000003 12:1.8200001 13:3.6400001 14:2.73 15:7.27 16:4.5500002 17:2.73 18:6.3600001 19:0 20:6.3600001 #
-3.6265366570042682591449576238314e-12 1:6.5700002 2:3.1099999 3:7.27 4:5.54 5:4.1500001 6:8.3000002 7:1.04 8:8.6499996 9:6.9200001 10:10.03 11:1.38 12:4.1500001 13:5.54 14:1.38 15:4.1500001 16:4.1500001 17:4.5 18:7.96 19:0.34999999 20:4.8400002 #
-3.6265366570042682591449576238314e-12 1:4.0100002 2:0.18000001 3:11.11 4:9.4700003 5:3.8299999 6:4.3699999 7:0.73000002 8:6.1900001 9:8.5600004 10:6.1900001 11:1.09 12:6.1900001 13:5.0999999 14:3.28 15:5.46 16:9.4700003 17:5.8299999 18:5.2800002 19:0.36000001 20:3.28 #
7.2530733140085365182899152476628e-12 1:8.25 2:2.0599999 3:3.8699999 4:10.57 5:2.3199999 6:6.6999998 7:3.3499999 8:3.6099999 9:17.01 10:4.3800001 11:1.29 12:5.1500001 13:4.6399999 14:6.1900001 15:3.8699999 16:6.1900001 17:3.3499999 18:4.6399999 19:1.29 20:1.29 #
-3.6265366570042682591449576238314e-12 1:11.91 2:0.36000001 3:4.6900001 4:12.27 5:2.53 6:4.3299999 7:1.08 8:2.1700001 9:8.3000002 10:12.27 11:1.8099999 12:1.8099999 13:3.97 14:12.64 15:5.0500002 16:2.53 17:5.0500002 18:5.4200001 19:0.72000003 20:1.08 #
-3.6265366570042682591449576238314e-12 1:12.47 2:0.25999999 3:5.71 4:3.6400001 5:4.9400001 6:7.5300002 7:1.8200001 8:2.8599999 9:16.620001 10:5.4499998 11:0.77999997 12:4.4200001 13:3.6400001 14:2.8599999 15:2.5999999 16:9.3500004 17:5.1900001 18:7.0100002 19:0.51999998 20:2.3399999 #
7.2530733140085365182899152476628e-12 1:6.2800002 2:0.87 3:8.1300001 4:6.6100001 5:6.5 6:5.7399998 7:1.95 8:5.96 9:5.6300001 10:8.1300001 11:1.41 12:5.8499999 13:2.71 14:3.6800001 15:4.77 16:9.3199997 17:5.6300001 18:6.9299998 19:1.52 20:2.3800001 #
7.2530733140085365182899152476628e-12 1:5.73 2:1.91 3:9.3400002 4:6.1599998 5:4.46 6:8.9200001 7:3.8199999 8:4.25 9:3.4000001 10:7.6399999 11:2.76 12:3.8199999 13:6.79 14:1.7 15:6.5799999 16:7.2199998 17:3.6099999 18:6.5799999 19:0.63999999 20:4.6700001 #
7.2530733140085365182899152476628e-12 1:9.3800001 2:3.1199999 3:3.9100001 4:6.25 5:1.5599999 6:3.9100001 7:1.5599999 8:7.0300002 9:7.8099999 10:12.5 11:1.5599999 12:3.9100001 13:4.6900001 14:7.8099999 15:4.6900001 16:6.25 17:3.9100001 18:7.8099999 19:0 20:2.3399999 #
-3.6265366570042682591449576238314e-12 1:10.2 2:1.97 3:3.95 4:8.5500002 5:3.29 6:7.2399998 7:0.99000001 8:4.2800002 9:6.25 10:9.8699999 11:5.5900002 12:2.3 13:6.9099998 14:2.96 15:6.5799999 16:6.5799999 17:3.29 18:7.2399998 19:0.66000003 20:1.3200001 #
-3.6265366570042682591449576238314e-12 1:12.12 2:0 3:4.04 4:11.11 5:3.03 6:3.03 7:0 8:2.02 9:14.14 10:4.04 11:2.02 12:5.0500002 13:6.0599999 14:4.04 15:11.11 16:4.04 17:6.0599999 18:3.03 19:1.01 20:4.04 #
-3.6265366570042682591449576238314e-12 1:6.4499998 2:1.84 3:6.4499998 4:10.6 5:4.1500001 6:5.0700002 7:0.46000001 8:5.5300002 9:13.36 10:5.5300002 11:1.38 12:4.1500001 13:5.0700002 14:2.76 15:5.5300002 16:10.6 17:3.23 18:4.1500001 19:0.46000001 20:3.23 #
-2.4039650846223257856050201148334e-12 1:5.0700002 2:1.45 3:0 4:2.9000001 5:0.72000003 6:5.0700002 7:0.72000003 8:2.9000001 9:18.120001 10:2.9000001 11:1.45 12:5.8000002 13:5.8000002 14:8.6999998 15:15.94 16:6.52 17:7.9699998 18:5.0700002 19:0.72000003 20:2.1700001 #
7.2530733140085365182899152476628e-12 1:6.1599998 2:1.77 3:4.0599999 4:7.79 5:4.5700002 6:3.22 7:2.52 8:6.7199998 9:7.8400002 10:14.97 11:2.24 12:3.6800001 13:4.1500001 14:4.9899998 15:2.75 16:7.79 17:4.6599998 18:7.1399999 19:0.83999997 20:2.1500001 #
7.2530733140085365182899152476628e-12 1:5.25 2:0.79000002 3:5.4099998 4:6.52 5:3.5 6:3.5 7:1.75 8:7.79 9:7.1500001 10:11.92 11:1.4299999 12:7.79 13:4.29 14:4.6100001 15:3.5 16:10.81 17:6.8400002 18:4.29 19:0.31999999 20:2.54 #
7.2530733140085365182899152476628e-12 1:8.8900003 2:0.88999999 3:3.1099999 4:11.56 5:1.78 6:4 7:2.6700001 8:4.8899999 9:5.3299999 10:8.8900003 11:3.5599999 12:7.1100001 13:3.1099999 14:7.5599999 15:6.2199998 16:4.8899999 17:3.5599999 18:5.7800002 19:1.78 20:4.4400001 #
-3.6265366570042682591449576238314e-12 1:7.6399999 2:2.55 3:11.46 4:9.5500002 5:2.55 6:3.8199999 7:3.1800001 8:5.0999999 9:6.3699999 10:8.2799997 11:1.91 12:8.2799997 13:2.55 14:1.27 15:1.27 16:4.46 17:2.55 18:13.38 19:0.63999999 20:3.1800001 #
-3.6265366570042682591449576238314e-12 1:5.1300001 2:0.63999999 3:4.8099999 4:7.21 5:4.8099999 6:3.3699999 7:4.3299999 8:4.6500001 9:5.1300001 10:9.7799997 11:2.0799999 12:5.6100001 13:5.6100001 14:4.6500001 15:4.8099999 16:5.1300001 17:4.9699998 18:10.26 19:1.76 20:5.29 #
-3.6265366570042682591449576238314e-12 1:5.71 2:0.63 3:14.6 4:11.43 5:5.4000001 6:5.0799999 7:3.49 8:3.49 9:9.21 10:6.6700001 11:2.8599999 12:2.8599999 13:2.54 14:3.49 15:4.1300001 16:3.49 17:3.8099999 18:5.4000001 19:1.9 20:3.8099999 #
-3.6265366570042682591449576238314e-12 1:5.6399999 2:2.21 3:3.8599999 4:7.5700002 5:3.9300001 6:3.71 7:1.71 8:6.5700002 9:7.1399999 10:12.36 11:1.21 12:5.5700002 13:4.0700002 14:4.0700002 15:3.6400001 16:12.36 17:5.79 18:5.71 19:0.93000001 20:1.9299999 #
7.2530733140085365182899152476628e-12 1:9.0200005 2:1 3:2.76 4:9.0200005 5:2.76 6:8.0200005 7:1.5 8:1.75 9:9.0200005 10:7.77 11:2.51 12:1 13:9.2700005 14:4.5100002 15:6.77 16:9.2700005 17:7.52 18:5.5100002 19:0.25 20:0.75 #
-3.6265366570042682591449576238314e-12 1:9.5600004 2:3.1199999 3:3.6800001 4:6.0700002 5:1.65 6:8.0900002 7:2.5699999 8:1.29 9:1.84 10:11.76 11:1.65 12:1.1 13:12.32 14:4.96 15:6.9899998 16:10.85 17:5.3299999 18:4.96 19:1.29 20:0.92000002 #
-3.6265366570042682591449576238314e-12 1:9.8299999 2:0.95999998 3:3.47 4:5.9699998 5:0.95999998 6:8.8599997 7:2.1199999 8:1.9299999 9:9.25 10:8.6700001 11:1.35 12:3.28 13:8.29 14:4.2399998 15:5.9699998 16:12.14 17:5.9699998 18:5.1999998 19:0.95999998 20:0.57999998 #
-3.6265366570042682591449576238314e-12 1:5.73 2:0.17 3:7.29 4:8.8500004 5:2.5999999 6:2.78 7:2.78 8:4.8600001 9:7.9899998 10:9.3800001 11:2.4300001 12:6.25 13:6.5999999 14:5.9000001 15:3.99 16:9.0299997 17:6.25 18:3.3 19:0.69 20:3.1199999 #
-3.6265366570042682591449576238314e-12 1:9.9499998 2:0.94999999 3:2.3699999 4:6.48 5:1.11 6:5.8499999 7:1.26 8:3.1600001 9:6 10:9.1599998 11:2.6900001 12:2.6900001 13:8.8500004 14:6.79 15:6.9499998 16:10.43 17:7.9000001 18:6.3200002 19:0.63 20:0.47 #
3.1896268305906279991162191102503e-12 1:2.3299999 2:4.6500001 3:13.95 4:6.0500002 5:3.72 6:3.72 7:2.79 8:6.0500002 9:11.63 10:2.79 11:1.86 12:4.1900001 13:2.3299999 14:6.5100002 15:5.5799999 16:8.3699999 17:5.1199999 18:4.6500001 19:0.93000001 20:2.79 #
7.2530733140085365182899152476628e-12 1:7.3699999 2:1.42 3:4.25 4:4.5300002 5:2.27 6:5.3800001 7:4.25 8:3.6800001 9:12.46 10:8.5 11:1.7 12:5.0999999 13:7.9299998 14:3.97 15:4.5300002 16:9.3500004 17:5.3800001 18:5.0999999 19:1.13 20:1.7 #
7.2530733140085365182899152476628e-12 1:3.3699999 2:0.61000001 3:7.98 4:8.2799997 5:3.0699999 6:7.3600001 7:2.76 8:6.1300001 9:7.0599999 10:6.75 11:1.23 12:10.43 13:3.99 14:2.45 15:2.76 16:8.8999996 17:4.29 18:8.8999996 19:1.23 20:2.45 #
-3.6265366570042682591449576238314e-12 1:3.5999999 2:0 3:11.46 4:11.46 5:2.25 6:3.1500001 7:1.5700001 8:5.8400002 9:11.01 10:8.7600002 11:2.7 12:5.3899999 13:4.7199998 14:3.8199999 15:5.1700001 16:5.6199999 17:5.3899999 18:4.7199998 19:0.67000002 20:2.7 #
-3.6265366570042682591449576238314e-12 1:2.6600001 2:0.66000003 3:8.4700003 4:7.3099999 5:6.3099999 6:4.4899998 7:1.5 8:7.48 9:9.9700003 10:9.9700003 11:2.3299999 12:5.1500001 13:3.6500001 14:3.1600001 15:4.8200002 16:7.48 17:4.8200002 18:3.6500001 19:0.33000001 20:5.8099999 #
-3.6265366570042682591449576238314e-12 1:2.6900001 2:1.58 3:6.6399999 4:9.0900002 5:2.9200001 6:3 7:2.0599999 8:5.3800001 9:11.94 10:7.75 11:2.1300001 12:9.0900002 13:3.0799999 14:5.2199998 15:4.1900001 16:10.59 17:6.0100002 18:4.8200002 19:0.23999999 20:1.58 #
3.0725137842136869212530168271762e-12 1:12.41 2:0.73000002 3:5.8400002 4:2.9200001 5:2.1900001 6:10.95 7:1.46 8:4.3800001 9:6.5700002 10:4.3800001 11:2.1900001 12:2.1900001 13:3.6500001 14:2.9200001 15:10.95 16:6.5700002 17:8.0299997 18:10.22 19:0 20:1.46 #
7.2530733140085365182899152476628e-12 1:8.96 2:1.49 3:5.9699998 4:7.46 5:2.24 6:5.9699998 7:4.48 8:1.49 9:5.2199998 10:7.46 11:2.99 12:1.49 13:8.96 14:3.73 15:13.43 16:7.46 17:5.2199998 18:3.73 19:0 20:2.24 #
-3.6265366570042682591449576238314e-12 1:7.4099998 2:0 3:1.85 4:3.7 5:2.78 6:12.04 7:2.78 8:5.5599999 9:9.2600002 10:4.6300001 11:1.85 12:3.7 13:1.85 14:2.78 15:12.96 16:5.5599999 17:9.2600002 18:8.3299999 19:0 20:3.7 #
-3.6265366570042682591449576238314e-12 1:8.4399996 2:0.88999999 3:6.6700001 4:6.6700001 5:2.22 6:3.5599999 7:1.78 8:1.78 9:3.5599999 10:7.1100001 11:4 12:4 13:6.6700001 14:5.7800002 15:15.11 16:8 17:8 18:3.1099999 19:0 20:2.6700001 #
-3.6265366570042682591449576238314e-12 1:12.16 2:1.22 3:5.7800002 4:9.1199999 5:3.3399999 6:7.29 7:2.4300001 8:1.52 9:3.04 10:10.64 11:1.8200001 12:1.8200001 13:6.6900001 14:4.5599999 15:8.21 16:6.6900001 17:5.1700001 18:5.1700001 19:1.22 20:2.1300001 #
7.2530733140085365182899152476628e-12 1:5.4899998 2:0.54000002 3:6.1599998 4:8.3000002 5:4.2800002 6:2.8099999 7:0.94 8:6.02 9:11.24 10:13.12 11:1.0700001 12:4.8200002 13:4.02 14:4.8200002 15:3.8800001 16:10.04 17:4.8200002 18:4.4200001 19:0.40000001 20:2.8099999 #
-3.6265366570042682591449576238314e-12 1:7.5300002 2:1.15 3:5.8899999 4:7.1999998 5:2.78 6:5.5599999 7:2.95 8:2.95 9:5.4000001 10:9.9799995 11:2.78 12:3.1099999 13:10.31 14:2.29 15:8.3500004 16:7.6900001 17:4.75 18:6.5500002 19:0.81999999 20:1.96 #
-3.6265366570042682591449576238314e-12 1:8.5500002 2:4.0599999 3:4.0599999 4:6.1999998 5:3.8499999 6:5.5599999 7:2.99 8:2.5599999 9:3.8499999 10:11.32 11:1.71 12:2.3499999 13:10.26 14:4.27 15:10.26 16:5.1300001 17:4.4899998 18:4.27 19:1.92 20:2.3499999 #
7.2530733140085365182899152476628e-12 1:4.23 2:1.41 3:8.4499998 4:15.49 5:2.1099999 6:4.23 7:2.1099999 8:6.3400002 9:7.75 10:7.04 11:3.52 12:2.8199999 13:4.23 14:6.3400002 15:2.1099999 16:4.9299998 17:9.1499996 18:5.6300001 19:0 20:2.1099999 #
7.2530733140085365182899152476628e-12 1:6.0700002 2:0.16 3:10.66 4:15.25 5:3.1099999 6:5.7399998 7:1.3099999 8:3.9300001 9:10.66 10:7.0500002 11:1.8 12:5.7399998 13:1.8 14:3.9300001 15:5.25 16:6.7199998 17:3.9300001 18:3.28 19:0.49000001 20:3.1099999 #
-3.6265366570042682591449576238314e-12 1:4.6199999 2:0.83999997 3:7.1399999 4:13.45 5:1.26 6:3.3599999 7:0 8:6.7199998 9:8.8199997 10:13.87 11:2.52 12:5.04 13:2.0999999 14:4.1999998 15:3.78 16:10.5 17:3.78 18:5.04 19:0 20:2.9400001 #
-3.6265366570042682591449576238314e-12 1:5.8200002 2:0.1 3:4.8000002 4:10.42 5:3.98 6:4.6999998 7:1.02 8:9.8100004 9:10.83 10:11.44 11:0.92000002 12:7.0500002 13:1.12 14:5.7199998 15:3.1700001 16:7.3499999 17:5.1100001 18:5.0100002 19:0.1 20:1.53 #
-3.6265366570042682591449576238314e-12 1:4.7399998 2:1.29 3:4.96 4:10.78 5:3.45 6:2.3699999 7:2.1600001 8:6.6799998 9:12.5 10:10.56 11:3.02 12:4.96 13:2.5899999 14:6.4699998 15:4.0900002 16:6.25 17:4.0900002 18:5.3899999 19:0.22 20:3.45 #
-3.6265366570042682591449576238314e-12 1:6.1900001 2:1.58 3:4.8899999 4:11.51 5:2.5899999 6:5.04 7:3.02 8:3.1700001 9:9.21 10:8.7799997 11:1.73 12:2.3 13:4.75 14:5.4699998 15:12.52 16:8.3500004 17:3.1700001 18:4.0300002 19:0.57999998 20:1.15 #
-3.6265366570042682591449576238314e-12 1:4.1100001 2:1.37 3:10.45 4:7.8800001 5:4.6199999 6:4.1100001 7:1.54 8:4.4499998 9:10.27 10:7.8800001 11:1.2 12:3.0799999 13:5.48 14:3.77 15:6.5100002 16:9.5900002 17:4.4499998 18:5.6500001 19:1.71 20:1.88 #
-3.6265366570042682591449576238314e-12 1:8.8900003 2:0.75 3:5.4200001 4:10.69 5:1.2 6:6.3299999 7:1.96 8:2.4100001 9:6.02 10:10.99 11:1.51 12:3.1600001 13:2.26 14:6.02 15:9.6400003 16:10.39 17:5.4200001 18:4.6700001 19:0.60000002 20:1.66 #
7.2530733140085365182899152476628e-12 1:5.98 2:0.54000002 3:5.25 4:7.0700002 5:6.6999998 6:2.3599999 7:2.72 8:6.1599998 9:7.4299998 10:13.59 11:2.1700001 12:6.52 13:4.8899999 14:3.4400001 15:2.72 16:8.3299999 17:4.3499999 18:4.8899999 19:1.27 20:3.6199999 #
7.2530733140085365182899152476628e-12 1:3.8499999 2:0.85000002 3:4.9899998 4:6.6300001 5:5.3299999 6:2.95 7:1.42 8:8.6199999 9:7.8800001 10:11.96 11:2.0999999 12:7.1399999 13:2.8900001 14:3.23 15:3.6300001 16:9.8100004 17:5.9499998 18:5.5 19:1.42 20:3.8499999 #
-3.6265366570042682591449576238314e-12 1:7.5100002 2:0.79000002 3:3.1600001 4:1.98 5:4.3499999 6:4.7399998 7:2.3699999 8:6.3200002 9:6.3200002 10:15.81 11:2.77 12:1.98 13:3.1600001 14:3.95 15:2.77 16:9.4899998 17:5.5300002 18:8.6999998 19:2.77 20:5.5300002 #
-3.6265366570042682591449576238314e-12 1:4.6900001 2:2.3499999 3:6.8099999 4:8.9200001 5:3.29 6:4.23 7:2.8199999 8:7.98 9:4.46 10:9.8599997 11:1.17 12:4.6900001 13:4.23 14:3.52 15:3.99 16:8.9200001 17:5.6300001 18:6.3400002 19:2.5799999 20:3.52 #
-3.6265366570042682591449576238314e-12 1:6.3499999 2:2.28 3:5.3299999 4:7.1100001 5:3.8099999 6:5.3299999 7:3.05 8:5.0799999 9:7.3600001 10:9.8999996 11:3.05 12:4.0599999 13:3.55 14:4.3099999 15:3.3 16:8.1199999 17:4.3099999 18:6.3499999 19:1.52 20:5.8400002 #
7.2530733140085365182899152476628e-12 1:5.6900001 2:0 3:5.3899999 4:12.57 5:3.29 6:4.1900001 7:1.5 8:4.79 9:10.18 10:6.5900002 11:2.0999999 12:5.0900002 13:2.6900001 14:4.4899998 15:8.6800003 16:9.2799997 17:4.1900001 18:5.3899999 19:1.2 20:2.6900001 #
7.2530733140085365182899152476628e-12 1:6.7199998 2:0.28 3:7.5599999 4:10.64 5:1.96 6:5.04 7:1.96 8:4.7600002 9:8.96 10:7.8400002 11:2.24 12:6.1599998 13:2.8 14:3.0799999 15:8.6800003 16:9.8000002 17:4.7600002 18:3.3599999 19:0.56 20:2.8 #
7.2530733140085365182899152476628e-12 1:7.48 2:2.23 3:3.6700001 4:5.5799999 5:3.9400001 6:4.7199998 7:2.5599999 8:4.79 9:4.5900002 10:16.67 11:2.3 12:2.4300001 13:4.4000001 14:6.5 15:4.46 16:8.5299997 17:4.1999998 18:7.0900002 19:1.38 20:2.49 #
-3.6265366570042682591449576238314e-12 1:4.1700001 2:2.5 3:3.5699999 4:9.0500002 5:2.3800001 6:3.21 7:2.02 8:5.48 9:11.9 10:6.5500002 11:1.9 12:6.1900001 13:4.8800001 14:6.4299998 15:4.52 16:11.31 17:6.3099999 18:5.71 19:0.60000002 20:1.3099999 #
-3.6265366570042682591449576238314e-12 1:5.3099999 2:3.72 3:6.9099998 4:10.41 5:2.76 6:5.3099999 7:3.6099999 8:4.6799998 9:11.05 10:6.3800001 11:1.38 12:3.9300001 13:3.8299999 14:2.55 15:4.8899999 16:7.6500001 17:7.0100002 18:6.3800001 19:0.11 20:2.1300001 #
-3.6265366570042682591449576238314e-12 1:12.22 2:0.89999998 3:6.79 4:5.8800001 5:2.71 6:3.6199999 7:4.98 8:2.26 9:1.36 10:12.22 11:2.26 12:2.26 13:1.36 14:12.67 15:9.9499998 16:6.3299999 17:3.6199999 18:6.3299999 19:1.36 20:0.89999998 #
-3.6265366570042682591449576238314e-12 1:8.2799997 2:1.99 3:5.6300001 4:5.96 5:4.6399999 6:2.98 7:3.3099999 8:2.6500001 9:2.98 10:15.23 11:1.3200001 12:2.6500001 13:4.9699998 14:4.3000002 15:5.3000002 16:8.6099997 17:6.29 18:8.6099997 19:0.66000003 20:3.6400001 #
-3.6265366570042682591449576238314e-12 1:6.9200001 2:3.46 3:2.77 4:4.6700001 5:4.3299999 6:4.5 7:2.5999999 8:5.02 9:3.46 10:16.26 11:2.0799999 12:2.9400001 13:4.3299999 14:4.6700001 15:5.71 16:8.3000002 17:4.3299999 18:7.79 19:1.21 20:4.6700001 #
-3.6265366570042682591449576238314e-12 1:3.1800001 2:1.17 3:5.73 4:7.7399998 5:2.55 6:4.0300002 7:2.76 8:4.8800001 9:10.82 10:6.4699998 11:1.38 12:6.04 13:5.4099998 14:4.2399998 15:6.3600001 16:12.51 17:6.3600001 18:5.8299999 19:0.41999999 20:2.1199999 #
3.7113899867494652584894546684755e-18 1:7.4000001 2:1.29 3:5.0500002 4:9.2799997 5:3.0599999 6:9.0500002 7:1.53 8:5.0500002 9:11.87 10:6.23 11:1.76 12:2.5899999 13:5.1700001 14:5.52 15:5.1700001 16:7.7600002 17:5.0500002 18:5.1700001 19:0.58999997 20:1.41 #
-3.6265366570042682591449576238314e-12 1:9.0699997 2:0.25 3:6.5500002 4:6.8000002 5:3.78 6:8.8199997 7:3.27 8:8.0600004 9:3.27 10:9.0699997 11:2.77 12:5.29 13:5.04 14:2.02 15:4.79 16:5.79 17:4.2800002 18:8.3100004 19:0.25 20:2.52 #
-3.6265366570042682591449576238314e-12 1:5.02 2:0.36000001 3:9.6800003 4:12.54 5:4.1199999 6:4.3000002 7:1.61 8:2.3299999 9:10.57 10:6.8099999 11:2.3299999 12:5.3800001 13:1.97 14:4.8400002 15:8.0600004 16:6.6300001 17:4.48 18:4.3000002 19:0.18000001 20:4.48 #
-3.6265366570042682591449576238314e-12 1:5.1599998 2:0.67000002 3:7.8499999 4:4.48 5:5.8299999 6:3.8099999 7:3.3599999 8:5.1599998 9:14.13 10:6.2800002 11:1.12 12:7.1700001 13:2.6900001 14:3.3599999 15:2.6900001 16:8.3000002 17:5.3800001 18:6.73 19:1.35 20:4.48 #
-3.6265366570042682591449576238314e-12 1:5.29 2:0.72000003 3:13.46 4:12.26 5:4.3299999 6:6.4899998 7:1.6799999 8:4.5700002 9:10.1 10:6.25 11:1.2 12:3.8499999 13:6.0100002 14:3.8499999 15:2.4000001 16:3.8499999 17:3.6099999 18:4.0900002 19:2.6400001 20:3.3699999 #
7.2530733140085365182899152476628e-12 1:11.06 2:3.8299999 3:4.2600002 4:6.8099999 5:2.98 6:6.8099999 7:1.7 8:2.55 9:4.6799998 10:11.91 11:1.7 12:2.1300001 13:3.8299999 14:3.8299999 15:6.8099999 16:9.3599997 17:5.96 18:8.0900002 19:0 20:1.7 #
-3.6265366570042682591449576238314e-12 1:10.12 2:1.7 3:4.3200002 4:7.5700002 5:3.8599999 6:5.8699999 7:2.8599999 8:3.3199999 9:7.8000002 10:11.66 11:1.9299999 12:1.7 13:4.4000001 14:3.6300001 15:6.0999999 16:7.4099998 17:6.02 18:7.1799998 19:0.76999998 20:1.78 #
-3.6265366570042682591449576238314e-12 1:5.4299998 2:2.54 3:5.0700002 4:11.96 5:2.1700001 6:8.3299999 7:2.1700001 8:2.54 9:10.51 10:12.68 11:1.45 12:2.1700001 13:4.71 14:1.45 15:3.6199999 16:8.3299999 17:4.71 18:6.52 19:1.45 20:2.1700001 #
-3.6265366570042682591449576238314e-12 1:8.6999998 2:0 3:5.1399999 4:6.7199998 5:1.98 6:9.0900002 7:0.40000001 8:7.1100001 9:9.4899998 10:9.8800001 11:1.1900001 12:1.98 13:4.7399998 14:2.3699999 15:3.5599999 16:8.6999998 17:7.9099998 18:8.6999998 19:0 20:2.3699999 #
4.2904284380436081467723615191527e-12 1:4.9099998 2:3.0699999 3:4.29 4:8.5900002 5:5.52 6:3.6800001 7:1.84 8:5.52 9:17.18 10:4.9099998 11:4.29 12:5.52 13:3.6800001 14:6.1300001 15:8.5900002 16:1.84 17:1.84 18:5.52 19:1.23 20:1.84 #
3.4124046857865225835087337089752e-12 1:3.72 2:0.82999998 3:8.4700003 4:10.54 5:5.5799999 6:4.1300001 7:2.27 8:3.72 9:11.36 10:7.4400001 11:2.0699999 12:8.8800001 13:2.8900001 14:3.9300001 15:5.3699999 16:5.5799999 17:4.1300001 18:5.3699999 19:1.86 20:1.86 #
7.2530733140085365182899152476628e-12 1:6.5100002 2:2.96 3:5.1500001 4:10.06 5:3.3099999 6:4.4400001 7:1.83 8:2.8399999 9:8.2799997 10:10.18 11:3.02 12:2.5999999 13:5.8600001 14:4.3200002 15:5.9200001 16:7.8699999 17:3.96 18:7.1599998 19:1.54 20:2.1900001 #
-3.6265366570042682591449576238314e-12 1:2.8199999 2:2.51 3:5.02 4:10.03 5:5.02 6:2.51 7:1.5700001 8:7.8400002 9:12.54 10:8.46 11:0.63 12:7.52 13:4.3899999 14:6.27 15:5.02 16:8.1499996 17:4.3899999 18:3.45 19:0 20:1.88 #
-3.6265366570042682591449576238314e-12 1:3.8 2:1.41 3:5.1199999 4:8.04 5:3.53 6:4.3299999 7:1.9400001 8:5.7399998 9:11.75 10:7.5999999 11:2.1199999 12:7.1599998 13:4.8600001 14:5.5700002 15:4.77 16:8.3900003 17:7.1599998 18:4.3299999 19:0.52999997 20:1.86 #
7.2530733140085365182899152476628e-12 1:5.1500001 2:3.78 3:6.1900001 4:9.2799997 5:2.75 6:8.25 7:2.0599999 8:4.4699998 9:6.1900001 10:9.9700003 11:1.72 12:2.75 13:3.0899999 14:1.37 15:5.1500001 16:7.9000001 17:5.1500001 18:12.03 19:0.34 20:2.4100001 #
7.2530733140085365182899152476628e-12 1:5.6399999 2:3.0799999 3:2.5599999 4:7.6900001 5:3.0799999 6:7.1799998 7:2.05 8:5.6399999 9:6.1500001 10:7.6900001 11:2.5599999 12:3.0799999 13:5.6399999 14:3.0799999 15:5.6399999 16:9.7399998 17:5.6399999 18:10.26 19:0.50999999 20:3.0799999 #
7.2530733140085365182899152476628e-12 1:12.26 2:1.67 3:4.7399998 4:7.8000002 5:2.23 6:6.6900001 7:3.0599999 8:3.0599999 9:4.1799998 10:5.5700002 11:2.79 12:4.1799998 13:3.3399999 14:3.6199999 15:7.2399998 16:7.52 17:6.1300001 18:5.8499999 19:0.28 20:7.8000002 #
-3.6265366570042682591449576238314e-12 1:9.3800001 2:3.1199999 3:4.3800001 4:3.1199999 5:2.5 6:6.8800001 7:1.25 8:5.6199999 9:3.1199999 10:10 11:1.88 12:2.5 13:2.5 14:5.6199999 15:9.3800001 16:9.3800001 17:6.25 18:9.3800001 19:1.88 20:1.88 #
-3.6265366570042682591449576238314e-12 1:6.3899999 2:1.6 3:3.04 4:6.23 5:4.9499998 6:6.5500002 7:2.5599999 8:4.1500001 9:5.5900002 10:13.58 11:1.92 12:2.5599999 13:6.23 14:3.04 15:7.1900001 16:7.6700001 17:3.3499999 18:6.8699999 19:1.92 20:4.6300001 #
7.2530733140085365182899152476628e-12 1:8.7200003 2:0.20999999 3:6.5999999 4:8.0900002 5:2.55 6:4.2600002 7:0.43000001 8:5.5300002 9:8.9399996 10:8.3000002 11:1.7 12:5.7399998 13:4.6799998 14:2.55 15:6.8099999 16:10.43 17:3.4000001 18:7.6599998 19:1.28 20:2.1300001 #
-3.6265366570042682591449576238314e-12 1:3.9400001 2:1.62 3:6.71 4:14.12 5:1.39 6:4.4000001 7:2.3099999 8:2.3099999 9:9.9499998 10:6.25 11:1.85 12:2.3099999 13:1.16 14:4.4000001 15:17.129999 16:11.34 17:3.47 18:3.47 19:0.23 20:1.62 #
-3.6265366570042682591449576238314e-12 1:8.1199999 2:1.29 3:7.3200002 4:8.8400002 5:2.97 6:4.98 7:2.25 8:6.27 9:11.98 10:8.8400002 11:2.49 12:5.3099999 13:1.9299999 14:4.6599998 15:4.7399998 16:5.79 17:5.23 18:5.0599999 19:0.16 20:1.77 #
-3.6265366570042682591449576238314e-12 1:5.0100002 2:2.28 3:5.9200001 4:11.15 5:3.75 6:5.0100002 7:2.3900001 8:3.6400001 9:11.26 10:6.0300002 11:1.8200001 12:5.1199999 13:6.0300002 14:4.0999999 15:6.8299999 16:8.9899998 17:4.3200002 18:4.21 19:0.80000001 20:1.37 #
7.2530733140085365182899152476628e-12 1:4.5900002 2:2.3599999 3:4.5900002 4:7.3699999 5:4.1700001 6:4.4499998 7:2.3599999 8:5.5599999 9:7.0900002 10:12.93 11:1.8099999 12:4.3099999 13:4.4499998 14:5.6999998 15:2.9200001 16:7.9299998 17:5.4200001 18:8.21 19:0.97000003 20:2.78 #
-3.6265366570042682591449576238314e-12 1:6.0300002 2:0.15000001 3:5.7199998 4:10.66 5:2.01 6:2.47 7:1.55 8:5.0999999 9:6.6500001 10:7.73 11:0.62 12:10.51 13:5.0999999 14:4.48 15:6.1799998 16:11.28 17:7.2600002 18:5.0999999 19:0.15000001 20:1.24 #
-3.6265366570042682591449576238314e-12 1:5.5900002 2:1.86 3:4.9699998 4:6.8299999 5:3.1099999 6:6.21 7:1.86 8:1.86 9:2.48 10:14.91 11:3.73 12:1.86 13:9.3199997 14:7.4499998 15:6.21 16:5.5900002 17:5.5900002 18:6.8299999 19:0.62 20:3.1099999 #
-3.6265366570042682591449576238314e-12 1:5.04 2:0 3:6.7199998 4:2.9400001 5:3.78 6:5.04 7:0.83999997 8:4.1999998 9:4.6199999 10:13.03 11:1.6799999 12:6.3000002 13:5.8800001 14:2.0999999 15:5.46 16:12.61 17:7.98 18:9.2399998 19:0.83999997 20:1.6799999 #
-3.6265366570042682591449576238314e-12 1:3.96 2:1.98 3:5.6799998 4:6.6100001 5:4.23 6:7.6599998 7:3.7 8:4.6199999 9:5.02 10:10.7 11:1.3200001 12:4.6199999 13:6.21 14:5.4200001 15:6.4699998 16:5.8099999 17:5.4200001 18:5.9400001 19:1.3200001 20:3.3 #
-3.6265366570042682591449576238314e-12 1:4.8299999 2:1.61 3:3.4200001 4:9.2600002 5:5.8400002 6:4.02 7:2.6199999 8:4.23 9:5.6300001 10:13.08 11:1.61 12:2.8199999 13:6.8400002 14:6.2399998 15:6.04 16:6.8400002 17:3.8199999 18:7.2399998 19:1.01 20:3.02 #
-3.6265366570042682591449576238314e-12 1:7.6100001 2:0.44 3:4.8299999 4:9.96 5:3.0699999 6:4.6900001 7:2.2 8:4.6900001 9:11.57 10:8.0500002 11:2.3399999 12:3.22 13:6.1500001 14:5.27 15:6.73 16:5.71 17:5.5599999 18:6.1500001 19:0.88 20:0.88 #
-3.6265366570042682591449576238314e-12 1:8.3000002 2:0.44999999 3:7.8400002 4:9.3500004 5:3.6199999 6:8.75 7:0.75 8:6.6399999 9:9.3500004 10:7.6900001 11:1.66 12:4.52 13:3.02 14:3.47 15:4.8299999 16:3.9200001 17:5.5799999 18:7.6900001 19:0.30000001 20:2.26 #
-3.6265366570042682591449576238314e-12 1:5.3499999 2:0.62 3:7.96 4:13.56 5:3.98 6:4.23 7:1.24 8:4.98 9:9.1999998 10:8.5799999 11:2.24 12:3.48 13:2.8599999 14:3.23 15:4.98 16:6.4699998 17:6.4699998 18:6.4699998 19:1.12 20:2.99 #
7.2530733140085365182899152476628e-12 1:3.23 2:2.4200001 3:6.4499998 4:7.2600002 5:5.6500001 6:2.4200001 7:1.61 8:5.6500001 9:8.8699999 10:8.8699999 11:2.4200001 12:7.2600002 13:7.2600002 14:1.61 15:10.48 16:8.8699999 17:2.4200001 18:2.4200001 19:0 20:4.8400002 #
7.2530733140085365182899152476628e-12 1:8.6499996 2:3.46 3:1.38 4:7.27 5:2.77 6:6.23 7:2.4200001 8:1.04 9:5.8800001 10:7.6100001 11:3.8099999 12:6.23 13:9.3400002 14:7.27 15:6.23 16:8.6499996 17:2.77 18:5.1900001 19:0 20:3.8099999 #
7.2530733140085365182899152476628e-12 1:4.5100002 2:2.04 3:5.02 4:7.9299998 5:4.5100002 6:4.8000002 7:4.5100002 8:3.8599999 9:5.0900002 10:8.8800001 11:3.0599999 12:4.1500001 13:9.9700003 14:4.3699999 15:8.1499996 16:6.6199999 17:4.29 18:3.78 19:1.02 20:3.4200001 #
-3.6265366570042682591449576238314e-12 1:1.9 2:8.8599997 3:5.0599999 4:5.6999998 5:3.1600001 6:2.53 7:3.1600001 8:5.0599999 9:6.96 10:10.13 11:1.9 12:2.53 13:4.4299998 14:8.2299995 15:11.39 16:3.8 17:5.6999998 18:2.53 19:0.63 20:6.3299999 #
7.2530733140085365182899152476628e-12 1:4.6599998 2:0.85000002 3:5.5100002 4:9.3199997 5:2.97 6:5.0799999 7:0.85000002 8:5.9299998 9:9.75 10:8.4700003 11:2.1199999 12:3.3900001 13:4.2399998 14:2.97 15:6.3600001 16:7.1999998 17:7.1999998 18:7.6300001 19:0.85000002 20:4.6599998 #
-3.6265366570042682591449576238314e-12 1:4.9899998 2:2.0699999 3:5.25 4:6.4499998 5:4.3000002 6:3.96 7:1.89 8:7.1399999 9:5.5100002 10:12.05 11:1.98 12:4.9099998 13:3.53 14:3.79 15:4.9899998 16:10.67 17:4.3000002 18:6.9699998 19:1.03 20:4.2199998 #
7.2530733140085365182899152476628e-12 1:5.6199999 2:1.38 3:7.21 4:7.21 5:4.3499999 6:6.1500001 7:2.55 8:6.8899999 9:9.0100002 10:11.13 11:1.59 12:3.71 13:2.23 14:3.5 15:3.1800001 16:8.3800001 17:6.2600002 18:5.3000002 19:2.01 20:2.3299999 #
7.2530733140085365182899152476628e-12 1:8.5900002 2:1.76 3:4.98 4:6.3800001 5:3.6099999 6:4.27 7:2.55 8:3.9200001 9:5.02 10:15.81 11:2.25 12:2.55 13:4.8000002 14:5.5500002 15:4.9299998 16:6.96 17:5.0599999 18:7.3099999 19:1.37 20:2.3299999 #
-3.6265366570042682591449576238314e-12 1:7.5900002 2:0.44999999 3:5.3600001 4:11.16 5:5.8000002 6:2.23 7:0.88999999 8:4.9099998 9:12.05 10:10.71 11:2.23 12:7.1399999 13:1.79 14:4.46 15:4.9099998 16:6.25 17:4.46 18:4.02 19:0.44999999 20:3.1199999 #
-3.6265366570042682591449576238314e-12 1:4.9899998 2:1.02 3:7.29 4:9.4200001 5:4.71 6:5.3600001 7:2.49 8:5.1700001 9:10.16 10:7.48 11:2.4000001 12:4.9899998 13:3.5999999 14:2.8599999 15:4.8000002 16:8.6800003 17:4.6199999 18:6.1900001 19:0.74000001 20:3.05 #
-3.6265366570042682591449576238314e-12 1:8.9399996 2:2.1300001 3:4.6799998 4:9.3599997 5:2.55 6:4.2600002 7:1.7 8:8.9399996 9:9.3599997 10:9.3599997 11:2.1300001 12:4.6799998 13:2.1300001 14:5.1100001 15:8.0900002 16:3.8299999 17:3.8299999 18:7.23 19:0.85000002 20:0.85000002 #
7.2530733140085365182899152476628e-12 1:8.5200005 2:1.5700001 3:6.2800002 4:9.6400003 5:3.3599999 6:8.3000002 7:3.5899999 8:2.6900001 9:2.47 10:9.1899996 11:2.24 12:1.5700001 13:6.5 14:4.9299998 15:6.2800002 16:6.73 17:5.6100001 18:6.73 19:2.6900001 20:1.12 #
7.2530733140085365182899152476628e-12 1:7.8899999 2:2.8099999 3:5.4400001 4:7.8899999 5:2.6300001 6:4.5599999 7:1.23 8:3.3299999 9:6.6700001 10:9.6499996 11:1.58 12:1.9299999 13:6.6700001 14:8.0699997 15:6.4899998 16:8.9499998 17:5.6100001 18:6.8400002 19:1.05 20:0.69999999 #
-3.6265366570042682591449576238314e-12 1:11.43 2:8.5699997 3:4.5700002 4:5.71 5:2.8599999 6:9.1400003 7:2.29 8:1.71 9:4 10:9.1400003 11:2.29 12:0.56999999 13:4.5700002 14:5.71 15:6.8600001 16:8 17:3.4300001 18:6.29 19:0.56999999 20:2.29 #
-3.5091640262271340151145906401705e-12 1:9.6700001 2:0.82999998 3:4.9699998 4:17.129999 5:2.21 6:6.6300001 7:0.55000001 8:3.5899999 9:4.6999998 10:8.0100002 11:3.3099999 12:4.1399999 13:2.49 14:3.04 15:3.3099999 16:9.6700001 17:3.8699999 18:10.22 19:0.82999998 20:0.82999998 #
-3.6265366570042682591449576238314e-12 1:8.1099997 2:0.28 3:3.5 4:8.9499998 5:2.52 6:5.73 7:2.9400001 8:4.7600002 9:7.5500002 10:10.21 11:1.4 12:2.9400001 13:6.29 14:3.5 15:9.5100002 16:6.0100002 17:5.5900002 18:6.29 19:1.8200001 20:2.0999999 #
7.2530733140085365182899152476628e-12 1:4.3200002 2:0.36000001 3:8.2700005 4:11.15 5:5.04 6:3.24 7:1.08 8:5.4000001 9:10.43 10:11.15 11:1.4400001 12:5.7600002 13:2.52 14:3.24 15:5.7600002 16:6.1199999 17:3.5999999 18:4.3200002 19:3.24 20:3.5999999 #
-3.6265366570042682591449576238314e-12 1:3.77 2:0 3:8.3699999 4:6.2800002 5:3.77 6:2.9300001 7:1.67 8:7.1100001 9:7.9499998 10:14.64 11:3.3499999 12:7.5300002 13:2.51 14:4.1799998 15:5.02 16:8.3699999 17:5.8600001 18:3.77 19:0.83999997 20:2.0899999 #
-3.6265366570042682591449576238314e-12 1:2.71 2:1.9 3:6.7800002 4:5.6900001 5:3.79 6:4.0700002 7:1.9 8:7.5900002 9:7.8600001 10:13.01 11:2.4400001 12:8.1300001 13:2.1700001 14:4.8800001 15:6.23 16:6.5 17:6.5 18:4.3400002 19:0.54000002 20:2.98 #
-3.6265366570042682591449576238314e-12 1:3.1400001 2:1.26 3:6.0700002 4:6.4899998 5:5.4400001 6:2.9300001 7:1.67 8:8.1599998 9:9 10:10.67 11:1.46 12:6.6900001 13:2.9300001 14:2.72 15:6.2800002 16:8.1599998 17:4.1799998 18:6.4899998 19:1.88 20:4.3899999 #
7.2530733140085365182899152476628e-12 1:8.9200001 2:0.92000002 3:3.6600001 4:12.81 5:3.4300001 6:7.7800002 7:2.29 8:5.0300002 9:3.8900001 10:7.0900002 11:2.29 12:2.0599999 13:6.8600001 14:5.7199998 15:9.1499996 16:5.4899998 17:3.4300001 18:6.1799998 19:1.14 20:1.83 #
7.2530733140085365182899152476628e-12 1:10.19 2:1.38 3:4.1300001 4:11.57 5:1.9299999 6:4.1300001 7:3.5799999 8:3.3099999 9:4.4099998 10:9.3699999 11:1.65 12:2.75 13:3.3099999 14:3.5799999 15:10.19 16:9.0900002 17:4.4099998 18:5.5100002 19:2.48 20:3.03 #
-3.6265366570042682591449576238314e-12 1:11.19 2:1.17 3:6.3400002 4:14.69 5:2.8399999 6:9.8500004 7:2 8:2.5 9:3.8399999 10:8.5100002 11:1.17 12:1.67 13:4.8400002 14:4.1700001 15:6.5100002 16:6.6799998 17:4.1700001 18:5.1799998 19:1 20:1.67 #
-3.6265366570042682591449576238314e-12 1:8.8299999 2:0.63 3:2.8399999 4:11.04 5:3.1500001 6:7.8899999 7:2.8399999 8:3.1500001 9:8.8299999 10:8.8299999 11:2.52 12:2.21 13:5.9899998 14:7.2600002 15:7.8899999 16:4.4200001 17:5.0500002 18:4.0999999 19:0.63 20:1.89 #
-3.6265366570042682591449576238314e-12 1:8.54 2:0.82999998 3:6.8899999 4:12.67 5:1.38 6:5.5100002 7:1.65 8:2.75 9:8.54 10:7.9899998 11:1.1 12:3.8599999 13:5.79 14:5.5100002 15:7.71 16:6.8899999 17:4.96 18:5.79 19:0.82999998 20:0.82999998 #
7.2530733140085365182899152476628e-12 1:2.3699999 2:2.6700001 3:4.4499998 4:4.75 5:3.5599999 6:6.5300002 7:2.6700001 8:7.4200001 9:8.8999996 10:11.57 11:2.3699999 12:7.1199999 13:2.6700001 14:5.04 15:7.1199999 16:9.5 17:2.97 18:5.04 19:0.30000001 20:2.97 #
-3.6265366570042682591449576238314e-12 1:2.8299999 2:1.52 3:4.25 4:4.7600002 5:7.8899999 6:2.8299999 7:2.4300001 8:7.79 9:9.1099997 10:11.13 11:2.9400001 12:5.2600002 13:3.1400001 14:3.54 15:5.9699998 16:9.6199999 17:4.4499998 18:5.6700001 19:1.11 20:3.74 #
-3.6265366570042682591449576238314e-12 1:4.27 2:1.14 3:5.4099998 4:5.1300001 5:5.98 6:3.1300001 7:3.1300001 8:6.5500002 9:8.2600002 10:10.26 11:1.71 12:5.4099998 13:3.1300001 14:4.8400002 15:6.27 16:12.54 17:3.99 18:4.8400002 19:0.28 20:3.7 #
-3.6265366570042682591449576238314e-12 1:3.51 2:2.04 3:4.4099998 4:4.52 5:6.6700001 6:2.5999999 7:2.49 8:9.3900003 9:8.4799995 10:11.31 11:1.58 12:7.6900001 13:3.6199999 14:4.1900001 15:4.0700002 16:7.8099999 17:5.54 18:5.54 19:0.89999998 20:3.6199999 #
7.2530733140085365182899152476628e-12 1:5.5799999 2:1.05 3:7.3299999 4:9.4200001 5:4.1900001 6:6.6300001 7:1.4 8:6.1100001 9:8.8999996 10:8.1999998 11:0.87 12:4.71 13:3.3199999 14:3.1400001 15:5.9299998 16:8.1999998 17:5.0599999 18:5.4099998 19:1.4 20:3.1400001 #
-3.6265366570042682591449576238314e-12 1:5.8800001 2:4.71 3:4.1199999 4:2.9400001 5:1.1799999 6:5.29 7:3.53 8:2.3499999 9:11.18 10:9.4099998 11:3.53 12:4.1199999 13:2.9400001 14:7.6500001 15:7.0599999 16:9.4099998 17:5.8800001 18:5.8800001 19:1.1799999 20:1.76 #
-3.6265366570042682591449576238314e-12 1:11.03 2:1.4 3:4.6100001 4:12.43 5:2.3699999 6:10.47 7:1.96 8:2.51 9:8.1000004 10:5.0300002 11:2.6500001 12:7.54 13:6.2800002 14:4.3299999 15:6.1500001 16:4.1900001 17:4.0500002 18:2.9300001 19:0.41999999 20:1.54 #
-3.6265366570042682591449576238314e-12 1:8.0100002 2:1.46 3:7.4200001 4:10.19 5:3.9300001 6:9.6099997 7:2.1800001 8:3.2 9:5.5300002 10:5.6799998 11:2.47 12:3.6400001 13:6.2600002 14:3.9300001 15:7.2800002 16:7.2800002 17:4.9499998 18:3.2 19:0.73000002 20:3.0599999 #
-3.6265366570042682591449576238314e-12 1:9.4300003 2:0.55000001 3:4.0700002 4:9.9799995 5:2.5899999 6:6.8400002 7:2.03 8:3.3299999 9:7.9499998 10:8.1300001 11:3.1400001 12:3.3299999 13:6.2800002 14:3.3299999 15:8.6899996 16:9.8000002 17:4.0700002 18:3.8800001 19:1.29 20:1.29 #
7.2530733140085365182899152476628e-12 1:4.6399999 2:2.48 3:5.2600002 4:6.8099999 5:5.8800001 6:1.86 7:1.86 8:7.7399998 9:6.8099999 10:11.76 11:0.93000001 12:6.8099999 13:3.0999999 14:3.72 15:6.1900001 16:7.1199999 17:5.2600002 18:5.8800001 19:0.62 20:5.2600002 #
7.2530733140085365182899152476628e-12 1:3.7 2:1.95 3:4.4699998 4:7.1999998 5:5.4499998 6:3.7 7:2.72 8:7.7800002 9:6.6100001 10:11.28 11:2.53 12:4.6700001 13:3.7 14:6.23 15:5.8400002 16:7.1999998 17:7 18:2.72 19:1.95 20:3.3099999 #
7.2530733140085365182899152476628e-12 1:4.9099998 2:1.73 3:3.76 4:7.23 5:4.6199999 6:2.3099999 7:2.8900001 8:5.7800002 9:10.98 10:10.98 11:0.87 12:6.0700002 13:3.47 14:3.1800001 15:7.8000002 16:11.56 17:5.1999998 18:3.76 19:0.28999999 20:2.5999999 #
-3.6265366570042682591449576238314e-12 1:3.46 2:0.38 3:4.23 4:7.3099999 5:3.8499999 6:8.8500004 7:1.54 8:8.8500004 9:6.9200001 10:10.77 11:1.92 12:3.8499999 13:3.8499999 14:2.3099999 15:8.46 16:7.6900001 17:4.23 18:6.1500001 19:0.76999998 20:4.6199999 #
-3.6265366570042682591449576238314e-12 1:3.4300001 2:1.47 3:3.9200001 4:6.6199999 5:6.1300001 6:2.7 7:2.9400001 8:10.05 9:11.27 10:13.73 11:0.49000001 12:5.6399999 13:2.45 14:3.9200001 15:4.9000001 16:7.3499999 17:3.1900001 18:4.6599998 19:1.72 20:3.4300001 #
-3.6265366570042682591449576238314e-12 1:4.7600002 2:0.81999999 3:6.4000001 4:9.3599997 5:4.9299998 6:5.25 7:1.8099999 8:4.5999999 9:9.6899996 10:11.66 11:2.6300001 12:3.1199999 13:4.9299998 14:3.9400001 15:5.25 16:7.2199998 17:4.4299998 18:5.4200001 19:0.33000001 20:3.45 #
7.2530733140085365182899152476628e-12 1:2.55 2:1.46 3:5.8400002 4:5.4699998 5:2.9200001 6:4.0100002 7:2.1900001 8:10.95 9:11.31 10:10.58 11:1.8200001 12:6.1999998 13:4.3800001 14:4.0100002 15:5.8400002 16:7.6599998 17:4.3800001 18:4.7399998 19:0 20:3.6500001 #
-6.5990139106746018222200318908446e-13 1:9 2:1.0599999 3:5.3000002 4:6.3600001 5:2.8599999 6:7.3099999 7:2.54 8:3.3900001 9:1.91 10:6.6700001 11:2.6500001 12:1.48 13:13.14 14:7.52 15:6.7800002 16:6.1399999 17:5.3000002 18:6.8899999 19:1.6900001 20:2.01 #
7.2530733140085365182899152476628e-12 1:5.1199999 2:0.99000001 3:5.9400001 4:7.4299998 5:5.1199999 6:4.29 7:0.99000001 8:5.9400001 9:9.7399998 10:10.56 11:2.48 12:5.1199999 13:3.96 14:2.8099999 15:5.7800002 16:6.77 17:6.1100001 18:7.2600002 19:0.99000001 20:2.6400001 #
-3.6265366570042682591449576238314e-12 1:7.3699999 2:1.08 3:6.0500002 4:7.6199999 5:3.73 6:4.3899999 7:2.98 8:4.23 9:4.9699998 10:8.04 11:2.0699999 12:4.9699998 13:6.46 14:4.1399999 15:7.29 16:7.8699999 17:6.5500002 18:5.6300001 19:0.82999998 20:3.73 #
-3.6265366570042682591449576238314e-12 1:3.96 2:2.97 3:4.9499998 4:6.4400001 5:5.9400001 6:7.4299998 7:1.98 8:7.9200001 9:4.9499998 10:9.8999996 11:1.98 12:2.97 13:3.96 14:6.4400001 15:4.46 16:8.4200001 17:4.46 18:7.4299998 19:0.5 20:2.97 #
7.2530733140085365182899152476628e-12 1:5.5599999 2:0.56 3:8.5699997 4:8.3400002 5:4.1199999 6:4.6700001 7:1.33 8:7.3400002 9:10.01 10:10.01 11:2.1099999 12:6.4499998 13:2.1099999 14:2.6700001 15:5.4499998 16:10.57 17:3 18:3.1099999 19:1 20:3 #
-3.6265366570042682591449576238314e-12 1:4.98 2:0.49000001 3:5.71 4:11.02 5:3.1800001 6:4 7:1.47 8:7.6700001 9:10.94 10:10.69 11:1.39 12:7.02 13:1.8 14:5.0599999 15:4.9000001 16:7.6700001 17:4.3299999 18:4.1599998 19:0.23999999 20:3.27 #
-3.6265366570042682591449576238314e-12 1:2.1700001 2:0.28999999 3:4.7800002 4:9.6999998 5:2.8900001 6:3.47 7:2.3199999 8:8.9700003 9:10.56 10:11.14 11:1.88 12:8.25 13:1.88 14:6.2199998 15:4.7800002 16:9.1199999 17:5.79 18:2.5999999 19:0.72000003 20:2.46 #
-3.6265366570042682591449576238314e-12 1:3.7 2:1.23 3:3.7 4:5.5599999 5:1.23 6:6.1700001 7:0.62 8:3.0899999 9:12.96 10:9.2600002 11:1.23 12:8.0200005 13:6.79 14:6.1700001 15:6.79 16:9.2600002 17:4.3200002 18:6.1700001 19:0 20:3.7 #
7.2530733140085365182899152476628e-12 1:5.5100002 2:3.0599999 3:4.4400001 4:9.8000002 5:2.9100001 6:5.21 7:3.3699999 8:2.76 9:6.4299998 10:8.5799999 11:1.23 12:3.0599999 13:6.1300001 14:8.5799999 15:6.5799999 16:7.1999998 17:5.8200002 18:6.5799999 19:1.23 20:1.53 #
-3.6265366570042682591449576238314e-12 1:6.0999999 2:1.8099999 3:5.1100001 4:9.5600004 5:5.1100001 6:4.7800002 7:2.6400001 8:4.4499998 9:4.2800002 10:12.52 11:1.98 12:4.1199999 13:3.29 14:3.95 15:8.2399998 16:5.4400001 17:4.6100001 18:7.5799999 19:1.48 20:2.97 #
-3.6265366570042682591449576238314e-12 1:5.0999999 2:5.0999999 3:6.3099999 4:7.2800002 5:3.4000001 6:6.5500002 7:1.9400001 8:4.3699999 9:5.3400002 10:8.9799995 11:1.21 12:4.8499999 13:3.8800001 14:4.1300001 15:9.71 16:4.8499999 17:3.6400001 18:6.3099999 19:1.46 20:5.5799999 #
-3.6265366570042682591449576238314e-12 1:7.9899998 2:0.69 3:7.29 4:6.9400001 5:2.0799999 6:5.21 7:3.47 8:5.21 9:4.8600001 10:6.9400001 11:3.47 12:4.8600001 13:3.1199999 14:4.5100002 15:11.46 16:7.29 17:6.5999999 18:4.5100002 19:0 20:3.47 #
-3.6265366570042682591449576238314e-12 1:5.0799999 2:3.0799999 3:4.9299998 4:6.3200002 5:3.7 6:2.47 7:2.3099999 8:8.1700001 9:10.32 10:8.4700003 11:1.54 12:7.2399998 13:4.9299998 14:4.3099999 15:3.54 16:9.8599997 17:6.7800002 18:4.1599998 19:0.31 20:2.47 #
-3.6265366570042682591449576238314e-12 1:5.3000002 2:1.66 3:5.3000002 4:7.6199999 5:5.3000002 6:6.9499998 7:2.3199999 8:4.6399999 9:8.6099997 10:7.6199999 11:2.98 12:4.3000002 13:4.9699998 14:1.3200001 15:5.6300001 16:7.9499998 17:4.3000002 18:10.6 19:0 20:2.6500001 #
-3.6265366570042682591449576238314e-12 1:8.75 2:1.6799999 3:4.6599998 4:7.0799999 5:3.54 6:8.9399996 7:2.05 8:6.6999998 9:5.77 10:7.4499998 11:3.3499999 12:3.9100001 13:5.21 14:2.79 15:5.77 16:6.3299999 17:5.0300002 18:8.3800001 19:0.19 20:2.4200001 #
-3.6265366570042682591449576238314e-12 1:13.49 2:2.29 3:4.3299999 4:7.1199999 5:1.78 6:8.6499996 7:2.29 8:4.5799999 9:9.4099998 10:5.3400002 11:2.04 12:2.8 13:5.5999999 14:4.0700002 15:8.3999996 16:6.1100001 17:3.8199999 18:4.3299999 19:0.25 20:3.3099999 #
7.2530733140085365182899152476628e-12 1:2.96 2:0.99000001 3:6.5100002 4:9.0699997 5:4.1399999 6:3.55 7:2.3699999 8:7.5 9:7.3000002 10:8.0900002 11:1.58 12:6.1100001 13:3.3499999 14:4.54 15:6.1100001 16:9.8599997 17:6.1100001 18:4.3400002 19:1.78 20:3.75 #
-3.6265366570042682591449576238314e-12 1:3.53 2:0.27000001 3:10.05 4:9.2399998 5:6.79 6:2.1700001 7:2.1700001 8:8.6999998 9:9.2399998 10:11.14 11:1.63 12:3.8 13:4.0799999 14:4.6199999 15:4.3499999 16:7.6100001 17:2.99 18:5.4299998 19:0.81999999 20:1.36 #
-3.6265366570042682591449576238314e-12 1:4.5100002 2:1.71 3:5.7600002 4:11.98 5:2.5699999 6:2.96 7:1.63 8:7.2399998 9:9.8100004 10:11.98 11:1.79 12:4.9000001 13:1.09 14:5.0599999 15:6.3800001 16:8.3299999 17:5.29 18:4.1999998 19:0.31 20:2.49 #
-3.6265366570042682591449576238314e-12 1:3.2 2:0.25 3:5.6700001 4:12.07 5:2.46 6:3.6900001 7:3.2 8:5.6700001 9:10.1 10:10.1 11:2.96 12:6.9000001 13:2.96 14:4.1900001 15:5.9099998 16:9.1099997 17:4.6799998 18:3.45 19:0.49000001 20:2.96 #
7.2530733140085365182899152476628e-12 1:7.4899998 2:2.05 3:4.46 4:4.9099998 5:2.3199999 6:7.0500002 7:3.1199999 8:2.5 9:8.1199999 10:7.6700001 11:1.52 12:3.48 13:8.3000002 14:5 15:6.5999999 16:11.51 17:5.5300002 18:5.2600002 19:0.88999999 20:2.23 #
7.2530733140085365182899152476628e-12 1:7.6500001 2:1.29 3:4.2399998 4:5.8099999 5:2.95 6:7.4699998 7:3.04 8:4.0599999 9:7 10:6.1799998 11:1.5700001 12:7.1900001 13:6.1799998 14:6.6399999 15:4.6999998 16:10.32 17:5.25 18:5.4400001 19:0.64999998 20:2.4000001 #
-3.6265366570042682591449576238314e-12 1:4.3699999 2:2.51 3:3.1700001 4:5.29 5:5.5599999 6:4.23 7:2.3800001 8:4.6300001 9:7.6700001 10:13.62 11:1.98 12:6.0799999 13:4.3699999 14:4.7600002 15:3.1700001 16:9.9200001 17:3.97 18:6.0799999 19:2.1199999 20:4.0999999 #
-3.6265366570042682591449576238314e-12 1:8.2299995 2:3.46 3:2.1600001 4:2.1600001 5:1.73 6:8.2299995 7:4.7600002 8:2.5999999 9:9.96 10:6.9299998 11:0.87 12:0.87 13:5.6300001 14:5.6300001 15:9.5200005 16:8.2299995 17:7.79 18:7.3600001 19:2.1600001 20:1.73 #
-3.6265366570042682591449576238314e-12 1:5.6500001 2:1.61 3:3.6300001 4:4.8400002 5:6.0500002 6:11.29 7:2.8199999 8:6.0500002 9:6.8499999 10:6.4499998 11:1.21 12:3.6300001 13:4.8400002 14:5.2399998 15:2.8199999 16:11.29 17:5.6500001 18:7.6599998 19:0.40000001 20:2.02 #
7.2530733140085365182899152476628e-12 1:8.04 2:0.5 3:10.72 4:12.23 5:1.84 6:4.8600001 7:1.01 8:5.3600001 9:10.05 10:9.7200003 11:1.51 12:4.6900001 13:2.8499999 14:4.02 15:6.0300002 16:7.3699999 17:2.8499999 18:2.6800001 19:0.5 20:3.1800001 #
-3.6265366570042682591449576238314e-12 1:8.1800003 2:1.21 3:6.9699998 4:13.94 5:3.03 6:5.1500001 7:1.21 8:5.7600002 9:10.61 10:9.0900002 11:2.4200001 12:3.9400001 13:2.1199999 14:5.4499998 15:4.8499999 16:7.8800001 17:3.03 18:3.9400001 19:0.30000001 20:0.91000003 #
-3.6265366570042682591449576238314e-12 1:6.1300001 2:1.11 3:10.86 4:9.75 5:4.1799998 6:5.5700002 7:1.11 8:5.5700002 9:8.9099998 10:6.6900001 11:1.95 12:2.23 13:6.1300001 14:4.1799998 15:3.6199999 16:7.8000002 17:2.79 18:4.1799998 19:1.67 20:5.5700002 #
-3.6265366570042682591449576238314e-12 1:9.3100004 2:1.21 3:6.8800001 4:11.34 5:1.21 6:3.24 7:1.62 8:4.4499998 9:6.8800001 10:9.7200003 11:2.8299999 12:5.6700001 13:1.62 14:4.8600001 15:5.2600002 16:7.29 17:4.4499998 18:6.0700002 19:0.81 20:5.2600002 #
-3.6265366570042682591449576238314e-12 1:6.6599998 2:3.53 3:3.04 4:5.4200001 5:3.29 6:5.9200001 7:2.71 8:2.6300001 9:3.04 10:15.61 11:0.89999998 12:1.97 13:8.5500002 14:5.8299999 15:6.0799999 16:9.7799997 17:4.27 18:6.7399998 19:1.97 20:2.05 #
-3.6265366570042682591449576238314e-12 1:8.5900002 2:0.47999999 3:8.9499998 4:7.2600002 5:3.99 6:3.51 7:2.3 8:4.5900002 9:5.1999998 10:6.1700001 11:1.8099999 12:7.8600001 13:5.6799998 14:3.6300001 15:5.4400001 16:8.71 17:7.3800001 18:5.1999998 19:0.23999999 20:3.02 #
-3.6265366570042682591449576238314e-12 1:8.6000004 2:0.72000003 3:5.02 4:5.73 5:3.5799999 6:7.8899999 7:1.08 8:5.73 9:5.3800001 10:10.04 11:2.51 12:4.6599998 13:5.3800001 14:4.3000002 15:7.5300002 16:8.2399998 17:3.9400001 18:3.9400001 19:1.08 20:4.6599998 #
-3.6265366570042682591449576238314e-12 1:10.2 2:2.04 3:3.6700001 4:6.1199999 5:5.3099999 6:10.2 7:1.63 8:3.6700001 9:4.4899998 10:9.8000002 11:2.04 12:3.6700001 13:9.8000002 14:2.8599999 15:4.0799999 16:6.9400001 17:3.6700001 18:4.9000001 19:2.45 20:2.45 #
-3.6265366570042682591449576238314e-12 1:5.2600002 2:0 3:9.1300001 4:6.3499999 5:5.1100001 6:8.5100002 7:2.48 8:4.3299999 9:8.9799995 10:7.1199999 11:2.1700001 12:4.6399999 13:4.6399999 14:4.02 15:3.8699999 16:8.9799995 17:4.3299999 18:6.9699998 19:0.76999998 20:2.3199999 #
-3.6265366570042682591449576238314e-12 1:8.25 2:0.51999998 3:4.9099998 4:11.6 5:2.6099999 6:4.1799998 7:2.8199999 8:2.8199999 9:10.55 10:5.4299998 11:4.4899998 12:3.24 13:4.8099999 14:4.0799999 15:5.8499999 16:10.55 17:6.0599999 18:3.6600001 19:1.36 20:2.1900001 #
-3.6265366570042682591449576238314e-12 1:6.6700001 2:0.94999999 3:7.4899998 4:9.9399996 5:3.1300001 6:4.0799999 7:2.3099999 8:6.3299999 9:8.4399996 10:9.0500002 11:3.54 12:5.04 13:3.2 14:4.1500001 15:7.2800002 16:5.4499998 17:4.6999998 18:5.1100001 19:0.34 20:2.79 #
-3.6265366570042682591449576238314e-12 1:6.9000001 2:0.69 3:8.0500002 4:6.4400001 5:2.99 6:5.29 7:2.0699999 8:4.3699999 9:8.7399998 10:12.87 11:1.15 12:3.6800001 13:5.52 14:2.76 15:6.21 16:7.3600001 17:5.0599999 18:6.21 19:0.92000002 20:2.76 #
-3.6265366570042682591449576238314e-12 1:5.3899999 2:0.82999998 3:6.6399999 4:9.54 5:3.73 6:6.6399999 7:2.9000001 8:4.5599999 9:7.8800001 10:9.96 11:2.49 12:4.5599999 13:4.98 14:4.98 15:4.98 16:2.49 17:6.2199998 18:6.6399999 19:0.82999998 20:3.73 #
-3.6265366570042682591449576238314e-12 1:5.6700001 2:5.6700001 3:5.6700001 4:7.46 5:3.8800001 6:5.3699999 7:3.28 8:5.3699999 9:10.15 10:10.15 11:1.79 12:3.28 13:3.5799999 14:3.5799999 15:5.3699999 16:5.6700001 17:4.48 18:5.0700002 19:1.49 20:2.99 #
-3.6265366570042682591449576238314e-12 1:8.8699999 2:1.39 3:4.52 4:7.6500001 5:3.6500001 6:9.5699997 7:2.96 8:3.8299999 9:5.2199998 10:8.1700001 11:3.6500001 12:4.3499999 13:5.5700002 14:3.8299999 15:4.52 16:5.5700002 17:4.8699999 18:5.9099998 19:2.0899999 20:3.8299999 #
-3.6265366570042682591449576238314e-12 1:9.1999998 2:0.18000001 3:5.3099999 4:8.3199997 5:6.1900001 6:5.3099999 7:0.88 8:2.6500001 9:10.62 10:4.5999999 11:0.88 12:5.8400002 13:6.9000001 14:2.6500001 15:2.8299999 16:13.81 17:7.6100001 18:5.1300001 19:0.18000001 20:0.88 #
-2.8196516591990292951321281960681e-12 1:3.46 2:2.3099999 3:8.46 4:8.0799999 5:2.3099999 6:5 7:2.3099999 8:4.6199999 9:6.54 10:6.54 11:2.6900001 12:4.23 13:4.6199999 14:4.23 15:5.3800001 16:17.309999 17:5.77 18:3.8499999 19:0.38 20:1.92 #
7.2530733140085365182899152476628e-12 1:5.8200002 2:1.65 3:4.3800001 4:8.3699999 5:4.4899998 6:3.6300001 7:2.76 8:6.3899999 9:8.5500002 10:14.18 11:2.48 12:3.3800001 13:4.0900002 14:4.4899998 15:4.02 16:6.3899999 17:5.3499999 18:6.21 19:0.79000002 20:2.5899999 #
7.2530733140085365182899152476628e-12 1:8.54 2:1.84 3:4.1900001 4:11.22 5:5.0300002 6:3.1800001 7:2.1800001 8:5.3600001 9:8.8800001 10:10.39 11:3.02 12:2.1800001 13:2.3499999 14:4.52 15:6.3699999 16:6.5300002 17:3.3499999 18:4.6900001 19:2.51 20:3.6900001 #
7.2530733140085365182899152476628e-12 1:5.5900002 2:2.3199999 3:6.4000001 4:11.44 5:2.8599999 6:7.0799999 7:1.36 8:2.8599999 9:5.3099999 10:11.31 11:1.5 12:3.27 13:4.5 14:5.4499998 15:5.4499998 16:7.9000001 17:4.3600001 18:5.9899998 19:2.8599999 20:2.1800001 #
-3.6265366570042682591449576238314e-12 1:7.6599998 2:0.89999998 3:5.8600001 4:9.46 5:2.7 6:1.8 7:2.7 8:5.8600001 9:10.36 10:10.81 11:4.9499998 12:3.1500001 13:2.7 14:5.4099998 15:6.3099999 16:6.3099999 17:5.4099998 18:5.4099998 19:0.89999998 20:1.35 #
-3.6265366570042682591449576238314e-12 1:6.7800002 2:1.86 3:5.1999998 4:9.5600004 5:3.1600001 6:3.9000001 7:2.1400001 8:4.46 9:5.5700002 10:9.75 11:2.5999999 12:4.46 13:4.8299999 14:5.6599998 15:5.1100001 16:9.4700003 17:4.46 18:6.04 19:1.3 20:3.71 #
-3.6265366570042682591449576238314e-12 1:3.9100001 2:1.4 3:7.2600002 4:8.1000004 5:5.0300002 6:9.5 7:2.51 8:5.5900002 9:7.2600002 10:8.3800001 11:1.6799999 12:3.9100001 13:5.3099999 14:5.3099999 15:6.4200001 16:3.3499999 17:4.1900001 18:7.54 19:0.28 20:3.0699999 #
-3.6265366570042682591449576238314e-12 1:5.79 2:1.2 3:5.5900002 4:13.17 5:3.3900001 6:5.1900001 7:2.79 8:4.1900001 9:8.1800003 10:11.18 11:1.8 12:5.1900001 13:3.1900001 14:4.3899999 15:6.1900001 16:5.3899999 17:4.3899999 18:2.4000001 19:1.6 20:4.79 #
7.2530733140085365182899152476628e-12 1:6.4000001 2:6.4000001 3:4.8000002 4:5.5999999 5:4 6:5.5999999 7:0.80000001 8:2.4000001 9:9.6000004 10:8.8000002 11:1.6 12:7.1999998 13:3.2 14:3.2 15:2.4000001 16:9.6000004 17:8 18:7.1999998 19:0 20:3.2 #
7.2530733140085365182899152476628e-12 1:7.9400001 2:1.55 3:5.6599998 4:6.75 5:2.9200001 6:5.75 7:2.1900001 8:2.74 9:11.22 10:7.7600002 11:1.55 12:3.01 13:7.8499999 14:3.3800001 15:4.3800001 16:10.13 17:6.1999998 18:5.3800001 19:1 20:2.6500001 #
-3.6265366570042682591449576238314e-12 1:5.5599999 2:4.04 3:4.5500002 4:6.0599999 5:3.03 6:3.54 7:1.01 8:5.0500002 9:11.11 10:8.5900002 11:2.02 12:6.0599999 13:6.0599999 14:4.5500002 15:3.54 16:8.0799999 17:8.0799999 18:6.5700002 19:1.01 20:1.52 #
-3.6265366570042682591449576238314e-12 1:8.8900003 2:0.2 3:6.6700001 4:4.4400001 5:4.4400001 6:3.23 7:2.6300001 8:4.6500001 9:10.51 10:8.8900003 11:0.40000001 12:5.0500002 13:1.8200001 14:5.4499998 15:4.2399998 16:9.29 17:6.6700001 18:7.0700002 19:0.61000001 20:4.8499999 #
-3.6265366570042682591449576238314e-12 1:6.9000001 2:4.5700002 3:4.9000001 4:7.3499999 5:3.1199999 6:5.1199999 7:2.23 8:5.1199999 9:9.9099998 10:5.5700002 11:1.67 12:5.3499999 13:5.3499999 14:3.5599999 15:4.5700002 16:9.5799999 17:6.0100002 18:5.23 19:0.67000002 20:3.23 #
7.2530733140085365182899152476628e-12 1:6 2:2 3:9 4:12.67 5:3.3299999 6:3 7:1 8:5.3299999 9:10.67 10:8 11:1.33 12:2.6700001 13:2.6700001 14:5.3299999 15:8 16:6.6700001 17:4.3299999 18:3.3299999 19:1 20:3.6700001 #
1.473429926358310406479444207448e-12 1:1.4299999 2:5.71 3:7.1399999 4:8.5699997 5:2.8599999 6:5.71 7:1.4299999 8:4.29 9:7.1399999 10:15.71 11:2.8599999 12:2.8599999 13:2.8599999 14:1.4299999 15:10 16:4.29 17:2.8599999 18:7.1399999 19:1.4299999 20:4.29 #
7.2530733140085365182899152476628e-12 1:7 2:1.47 3:6.1900001 4:5.6999998 5:3.75 6:8.79 7:1.79 8:5.3699999 9:5.54 10:6.8400002 11:2.4400001 12:5.3699999 13:5.0500002 14:4.8899999 15:8.3100004 16:5.3699999 17:5.6999998 18:5.3699999 19:0.98000002 20:4.0700002 #
-3.6265366570042682591449576238314e-12 1:9.0900002 2:5.3000002 3:5.3000002 4:8.3299999 5:4.5500002 6:7.5799999 7:4.5500002 8:3.03 9:6.8200002 10:5.3000002 11:0.75999999 12:3.79 13:3.03 14:2.27 15:6.8200002 16:7.5799999 17:1.52 18:4.5500002 19:6.0599999 20:3.79 #
-3.6265366570042682591449576238314e-12 1:10.32 2:1.59 3:7.54 4:10.12 5:4.3699999 6:4.96 7:2.1800001 8:3.97 9:10.12 10:9.9200001 11:1.59 12:3.1700001 13:2.98 14:5.1599998 15:5.1599998 16:5.5599999 17:2.1800001 18:4.7600002 19:0.79000002 20:3.5699999 #
-3.6265366570042682591449576238314e-12 1:6.3800001 2:1.45 3:4.3499999 4:11.3 5:2.3199999 6:2.6099999 7:2.03 8:2.6099999 9:10.14 10:8.6999998 11:1.16 12:4.3499999 13:4.6399999 14:5.5100002 15:8.6999998 16:10.43 17:3.48 18:7.25 19:0.28999999 20:2.3199999 #
7.2530733140085365182899152476628e-12 1:5.2600002 2:1.25 3:7.27 4:5.0100002 5:4.2600002 6:5.5100002 7:1 8:8.5200005 9:9.7700005 10:9.0200005 11:3.26 12:4.2600002 13:2.01 14:6.02 15:4.7600002 16:6.77 17:5.5100002 18:7.52 19:0.75 20:2.26 #
7.2530733140085365182899152476628e-12 1:4.9099998 2:1.24 3:7.3899999 4:6.98 5:3.46 6:4.2800002 7:2.28 8:6.29 9:7.1900001 10:7.1199999 11:2.6300001 12:7.1900001 13:4.2199998 14:4.6300001 15:5.6700001 16:10.16 17:6.4299998 18:4.77 19:0.41 20:2.76 #
-3.6265366570042682591449576238314e-12 1:4.6399999 2:1.55 3:7.5 4:5.48 5:3.3299999 6:5.71 7:2.3800001 8:7.7399998 9:7.8600001 10:9.3999996 11:1.3099999 12:5.48 13:4.8800001 14:2.5 15:4.7600002 16:9.8800001 17:5.8299999 18:6.1900001 19:1.9 20:1.67 #
-3.3806429557556056105159043326009e-12 1:4.23 2:1.91 3:4.77 4:3.55 5:4.6399999 6:2.5899999 7:2.73 8:8.8699999 9:6.1399999 10:13.1 11:2.3199999 12:5.46 13:4.6399999 14:4.5 15:3.96 16:9.5500002 17:6.5500002 18:4.9099998 19:1.91 20:3.6800001 #
-3.6265366570042682591449576238314e-12 1:2.8399999 2:0.87 3:5.6799998 4:6.1100001 5:5.6799998 6:6.3299999 7:2.4000001 8:7.8600001 9:8.7299995 10:10.92 11:2.1800001 12:6.77 13:5.02 14:2.6199999 15:4.5900002 16:6.77 17:3.49 18:6.1100001 19:1.09 20:3.9300001 #
7.2530733140085365182899152476628e-12 1:5.02 2:0.83999997 3:6.6900001 4:8.79 5:4.5999999 6:5.4400001 7:1.26 8:1.67 9:10.46 10:10.04 11:4.1799998 12:3.77 13:3.77 14:3.77 15:5.8600001 16:7.5300002 17:5.4400001 18:6.2800002 19:1.26 20:3.3499999 #
7.2530733140085365182899152476628e-12 1:7.3899999 2:0.38999999 3:3.76 4:13.75 5:1.6900001 6:3.6300001 7:1.95 8:3.3699999 9:10.77 10:10.38 11:1.5599999 12:3.6300001 13:5.8400002 14:5.8400002 15:6.8699999 16:7.3899999 17:4.02 18:5.8400002 19:1.04 20:0.91000003 #
7.2530733140085365182899152476628e-12 1:4.5500002 2:1.01 3:8.25 4:6.5700002 5:3.54 6:6.4000001 7:2.8599999 8:5.5599999 9:5.7199998 10:8.9200001 11:1.52 12:7.2399998 13:3.54 14:4.5500002 15:3.3699999 16:9.4300003 17:7.0700002 18:5.7199998 19:1.6799999 20:2.53 #
-3.6265366570042682591449576238314e-12 1:10.14 2:2.1700001 3:3.6199999 4:14.49 5:3.6199999 6:2.1700001 7:1.45 8:4.3499999 9:10.14 10:7.25 11:2.1700001 12:4.3499999 13:0.72000003 14:7.25 15:6.52 16:7.25 17:5.8000002 18:4.3499999 19:0 20:2.1700001 #
-3.6265366570042682591449576238314e-12 1:4.3099999 2:2.3900001 3:7.1799998 4:15.79 5:2.3900001 6:3.8299999 7:0.47999999 8:3.3499999 9:5.7399998 10:5.7399998 11:2.3900001 12:4.7800002 13:2.3900001 14:1.91 15:10.05 16:10.05 17:4.7800002 18:10.05 19:0.95999998 20:1.4400001 #
-3.6265366570042682591449576238314e-12 1:5.5999999 2:0.86000001 3:4.4499998 4:15.49 5:1.58 6:2.4400001 7:1.15 8:3.3 9:9.7600002 10:13.63 11:2.01 12:5.3099999 13:1.29 14:6.1700001 15:5.7399998 16:10.04 17:4.8800001 18:5.7399998 19:0 20:0.56999999 #
7.2530733140085365182899152476628e-12 1:3.22 2:1.6799999 3:7.3499999 4:5.8000002 5:4.1199999 6:4.9000001 7:1.55 8:7.2199998 9:7.5999999 10:8.8900003 11:1.55 12:7.9899998 13:2.5799999 14:3.22 15:4.77 16:10.05 17:6.3099999 18:7.73 19:2.1900001 20:1.29 #
7.2530733140085365182899152476628e-12 1:4.77 2:0.88999999 3:5.3400002 4:5.7399998 5:6.3899999 6:4.2800002 7:2.3399999 8:6.4699998 9:8.7299995 10:11.4 11:1.21 12:6.4699998 13:4.6100001 14:3.4000001 15:3.1500001 16:9.2200003 17:6.3099999 18:5.0100002 19:0.64999998 20:3.6400001 #
7.2530733140085365182899152476628e-12 1:6 2:1.59 3:7.3400002 4:6 5:2.5699999 6:6 7:2.3299999 8:8.8100004 9:7.0999999 10:11.02 11:2.0799999 12:5.3899999 13:2.9400001 14:3.79 15:2.9400001 16:8.0799999 17:6.2399998 18:5.5100002 19:1.71 20:2.5699999 #
-3.6265366570042682591449576238314e-12 1:8.75 2:1.0599999 3:4.5100002 4:5.5700002 5:2.9200001 6:9.5500002 7:2.6500001 8:6.0999999 9:3.98 10:8.4899998 11:2.9200001 12:4.77 13:6.0999999 14:1.59 15:5.8400002 16:6.6300001 17:6.6300001 18:7.6900001 19:1.33 20:2.9200001 #
-3.6265366570042682591449576238314e-12 1:4.6900001 2:1.62 3:7.4400001 4:5.3400002 5:5.02 6:6.96 7:2.9100001 8:4.6900001 9:5.9899998 10:8.0900002 11:2.5899999 12:4.5300002 13:6.96 14:1.62 15:5.1799998 16:9.3900003 17:5.1799998 18:6.6300001 19:2.0999999 20:3.0699999 #
-3.6265366570042682591449576238314e-12 1:6.3400002 2:2.01 3:5.8800001 4:6.2600002 5:4.3299999 6:9.2799997 7:1.62 8:6.2600002 9:5.2600002 10:8.8900003 11:2.0899999 12:6.1100001 13:4.6399999 14:4.02 15:6.73 16:6.2600002 17:4.1799998 18:6.1100001 19:0.85000002 20:2.8599999 #
7.2530733140085365182899152476628e-12 1:4.8099999 2:0.41999999 3:7.7399998 4:10.46 5:4.1799998 6:5.4400001 7:1.26 8:3.77 9:9.4099998 10:7.5300002 11:1.88 12:6.4899998 13:2.9300001 14:3.3499999 15:6.0700002 16:8.5799999 17:5.8600001 18:5.6500001 19:1.26 20:2.9300001 #
-3.6265366570042682591449576238314e-12 1:4.25 2:1.05 3:7.5599999 4:9.25 5:2.6199999 6:5.6999998 7:3.49 8:4.71 9:9.71 10:7.9699998 11:1.51 12:3.78 13:3.8399999 14:4.71 15:6.75 16:11.4 17:3.96 18:3.2 19:1.51 20:3.03 #
-3.6265366570042682591449576238314e-12 1:5.5599999 2:1.26 3:5.2600002 4:10.41 5:2.98 6:4.5 7:1.87 8:4.5500002 9:9.3000002 10:6.6700001 11:2.28 12:5.0599999 13:6.1700001 14:4.1999998 15:5.1599998 16:11.02 17:5.6599998 18:6.4200001 19:0.2 20:1.47 #
-3.6265366570042682591449576238314e-12 1:6.1300001 2:0.28 3:5.5700002 4:8.0799999 5:4.46 6:3.6199999 7:1.39 8:4.46 9:9.1899996 10:11.42 11:1.95 12:5.8499999 13:5.29 14:3.0599999 15:5.5700002 16:12.81 17:3.6199999 18:2.79 19:1.39 20:3.0599999 #
7.2530733140085365182899152476628e-12 1:6.6700001 2:1.67 3:5 4:6.1100001 5:4.4400001 6:7.2199998 7:3.3299999 8:5 9:7.7800002 10:8.8900003 11:2.78 12:2.78 13:3.3299999 14:3.3299999 15:5 16:4.4400001 17:6.6700001 18:8.8900003 19:0.56 20:6.1100001 #
-3.6265366570042682591449576238314e-12 1:6.4000001 2:1.6799999 3:6.23 4:6.9000001 5:3.54 6:3.54 7:3.7 8:6.0599999 9:5.3899999 10:14.31 11:3.54 12:3.8699999 13:5.3899999 14:3.7 15:6.23 16:5.0500002 17:5.5599999 18:5.8899999 19:0.67000002 20:2.3599999 #
-3.6265366570042682591449576238314e-12 1:7.1199999 2:2.49 3:6.4099998 4:8.8999996 5:2.8499999 6:2.8499999 7:2.1400001 8:6.4099998 9:8.54 10:7.8299999 11:2.49 12:2.1400001 13:7.1199999 14:6.7600002 15:6.0500002 16:5.3400002 17:5.6900001 18:6.0500002 19:1.42 20:1.42 #
-3.6265366570042682591449576238314e-12 1:6.7199998 2:1.59 3:4.5700002 4:7.6199999 5:4.0900002 6:7.48 7:2.7 8:4.29 9:4.3600001 10:10.46 11:2.4200001 12:3.05 13:6.02 14:3.74 15:6.3000002 16:6.5799999 17:5.6799998 18:7.96 19:0.97000003 20:3.3900001 #
7.2530733140085365182899152476628e-12 1:8.3800001 2:0 3:6.2800002 4:8.3800001 5:2.0899999 6:4.71 7:3.1400001 8:3.1400001 9:9.4200001 10:6.8099999 11:1.5700001 12:6.8099999 13:4.71 14:5.7600002 15:7.8499999 16:10.47 17:4.1900001 18:3.1400001 19:0.51999998 20:2.6199999 #
7.2530733140085365182899152476628e-12 1:5.2199998 2:0.54000002 3:6.6500001 4:9.8900003 5:4.1399999 6:3.78 7:2.3399999 8:5.4000001 9:7.5500002 10:8.9899998 11:2.3399999 12:5.9400001 13:3.4200001 14:3.4200001 15:5.04 16:10.61 17:3.96 18:5.5799999 19:1.4400001 20:3.78 #
-3.6265366570042682591449576238314e-12 1:11.7 2:0.15000001 3:5.4099998 4:7.02 5:3.6500001 6:6.29 7:2.1900001 8:3.8 9:10.09 10:7.1599998 11:0.57999998 12:3.3599999 13:2.49 14:3.6500001 15:4.8200002 16:11.99 17:4.5300002 18:5.1199999 19:2.05 20:3.95 #
-3.6265366570042682591449576238314e-12 1:7.6500001 2:1.27 3:8.3900003 4:8.1300001 5:2.8099999 6:6.7399998 7:1.96 8:3.4000001 9:8.3900003 10:7.6999998 11:1.59 12:3.72 13:5.2600002 14:5.0999999 15:6.8499999 16:9.0299997 17:4.8899999 18:2.8099999 19:1.33 20:2.97 #
7.2530733140085365182899152476628e-12 1:5.27 2:3.1300001 3:3.8499999 4:5.5599999 5:3.28 6:5.5599999 7:2.5599999 8:5.27 9:5.1300001 10:11.54 11:1.42 12:3.1300001 13:8.1199999 14:3.99 15:7.98 16:7.98 17:5.27 18:6.27 19:1 20:3.7 #
7.2530733140085365182899152476628e-12 1:7.0100002 2:2.5999999 3:5.4499998 4:5.9699998 5:1.5599999 6:10.39 7:2.8599999 8:2.8599999 9:4.9400001 10:10.91 11:1.3 12:3.1199999 13:6.23 14:6.23 15:7.79 16:4.6799998 17:5.9699998 18:6.4899998 19:2.3399999 20:1.3 #
-3.6265366570042682591449576238314e-12 1:4.1300001 2:3.7 3:6.1100001 4:7.75 5:2.3199999 6:5.8499999 7:2.5 8:4.3899999 9:6.1100001 10:10.33 11:2.6700001 12:3.53 13:5.6799998 14:3.8699999 15:8 16:7.4000001 17:5.5900002 18:5.6799998 19:1.8099999 20:2.5799999 #
-3.6265366570042682591449576238314e-12 1:4.4299998 2:1.83 3:6.1199999 4:7.1900001 5:4.4299998 6:2.29 7:1.38 8:6.73 9:10.24 10:11.77 11:2.29 12:5.3499999 13:3.8199999 14:4.1300001 15:5.96 16:5.8099999 17:4.5900002 18:6.1199999 19:1.22 20:4.2800002 #
-3.6265366570042682591449576238314e-12 1:4.1599998 2:1.47 3:6.5999999 4:6.1100001 5:3.4200001 6:3.4200001 7:3.4200001 8:6.3600001 9:6.1100001 10:14.18 11:2.2 12:4.8899999 13:4.4000001 14:4.6500001 15:5.8699999 16:7.0900002 17:5.1300001 18:5.6199999 19:1.47 20:3.4200001 #
7.2530733140085365182899152476628e-12 1:6.8099999 2:0.92000002 3:5.54 4:9.9300003 5:3.8099999 6:6.2399998 7:2.1900001 8:3.46 9:7.3899999 10:7.3899999 11:1.85 12:2.54 13:5.77 14:5.0799999 15:4.3899999 16:10.85 17:7.1599998 18:5.54 19:1.04 20:2.0799999 #
-3.6265366570042682591449576238314e-12 1:6.4200001 2:0.44 3:5.3099999 4:8.4099998 5:2.8800001 6:6.1900001 7:0.88 8:3.0999999 9:7.96 10:9.0699997 11:1.33 12:3.98 13:6.4200001 14:3.0999999 15:8.4099998 16:9.7299995 17:8.4099998 18:5.3099999 19:0.44 20:2.21 #
-3.6265366570042682591449576238314e-12 1:5.0999999 2:2.8299999 3:6.46 4:7.8099999 5:2.8299999 6:6.3400002 7:3.0599999 8:3.0599999 9:8.6099997 10:8.1499996 11:1.25 12:4.98 13:5.7800002 14:3.0599999 15:7.4699998 16:11.55 17:4.6399999 18:4.6399999 19:0.44999999 20:1.9299999 #
-3.6265366570042682591449576238314e-12 1:8 2:0.93000001 3:5.3000002 4:8.1000004 5:2.1800001 6:6.75 7:1.87 8:3.3199999 9:6.1300001 10:7.5799999 11:1.25 12:4.2600002 13:6.6500001 14:6.23 15:8.1999998 16:11.11 17:5.1900001 18:4.4699998 19:0.1 20:2.3900001 #
7.2530733140085365182899152476628e-12 1:7.1599998 2:1.49 3:7.46 4:7.1599998 5:5.6700001 6:4.48 7:1.49 8:7.1599998 9:6.8699999 10:6.8699999 11:1.1900001 12:6.5700002 13:5.9699998 14:2.3900001 15:5.3699999 16:6.5700002 17:5.0700002 18:7.7600002 19:0.60000002 20:2.6900001 #
7.2530733140085365182899152476628e-12 1:5.4899998 2:2.29 3:7.1599998 4:5.79 5:6.0999999 6:3.8099999 7:1.98 8:5.4899998 9:5.79 10:12.8 11:1.6799999 12:3.8099999 13:5.4899998 14:4.5700002 15:4.4200001 16:7.0100002 17:6.0999999 18:6.5500002 19:0.91000003 20:2.74 #
7.2530733140085365182899152476628e-12 1:4.9499998 2:1.29 3:6.2399998 4:7.5300002 5:4.52 6:6.4499998 7:3.23 8:3.8699999 9:7.3099999 10:12.26 11:1.9400001 12:2.1500001 13:5.8099999 14:4.52 15:5.1599998 16:7.0999999 17:6.02 18:5.3800001 19:1.29 20:3.01 #
-3.6265366570042682591449576238314e-12 1:4.5 2:2.4400001 3:5.6599998 4:6.1700001 5:4.3699999 6:5.6599998 7:2.3099999 8:5.1399999 9:7.5799999 10:10.41 11:2.1900001 12:3.8599999 13:5.0100002 14:4.7600002 15:3.0799999 16:7.71 17:6.8099999 18:7.71 19:1.03 20:3.5999999 #
-3.6265366570042682591449576238314e-12 1:3.6400001 2:1.8200001 3:6.1199999 4:6.2800002 5:5.4499998 6:3.3099999 7:0.99000001 8:5.6199999 9:9.2600002 10:10.58 11:1.65 12:6.9400001 13:4.1300001 14:5.1199999 15:3.97 16:8.7600002 17:7.1100001 18:6.6100001 19:0.82999998 20:1.8200001 #
-3.6265366570042682591449576238314e-12 1:5.27 2:0.99000001 3:5.48 4:6 5:4.3699999 6:4.4099998 7:3.1300001 8:6.04 9:6.5100002 10:10.36 11:2.5699999 12:5.0500002 13:5.7399998 14:4.8400002 15:6.3800001 16:4.6700001 17:5.6100001 18:5.52 19:2.6099999 20:4.4499998 #
7.2530733140085365182899152476628e-12 1:5.79 2:1.24 3:5.3699999 4:4.96 5:3.3099999 6:7.4400001 7:3.3099999 8:5.79 9:5.79 10:11.98 11:2.0699999 12:2.0699999 13:4.96 14:5.79 15:6.6100001 16:9.5 17:3.3099999 18:6.6100001 19:0.41 20:3.72 #
-3.6265366570042682591449576238314e-12 1:7.3200002 2:0.49000001 3:4.6300001 4:7.8000002 5:6.3400002 6:2.4400001 7:2.2 8:5.3699999 9:9.2700005 10:8.7799997 11:3.6600001 12:4.8800001 13:3.9000001 14:2.4400001 15:6.0999999 16:7.5599999 17:7.5599999 18:5.6100001 19:0.98000002 20:2.6800001 #
-3.6265366570042682591449576238314e-12 1:5.8299999 2:0.93000001 3:5.1300001 4:9.25 5:4.5799999 6:5.6700001 7:2.02 8:7.77 9:8.3900003 10:9.0900002 11:2.5599999 12:5.6700001 13:4.3499999 14:3.1099999 15:5.21 16:5.98 17:5.52 18:5.9099998 19:0.77999997 20:2.25 #
-3.6265366570042682591449576238314e-12 1:5.6399999 2:4.3200002 3:3.01 4:7.3299999 5:4.1399999 6:6.3899999 7:5.8299999 8:4.8899999 9:9.0200005 10:7.3299999 11:1.13 12:4.8899999 13:3.5699999 14:5.8299999 15:4.3200002 16:7.52 17:5.4499998 18:6.3899999 19:0.94 20:2.0699999 #
7.2530733140085365182899152476628e-12 1:5.8400002 2:1.09 3:7.0700002 4:7.6100001 5:2.99 6:5.0300002 7:2.72 8:4.3499999 9:6.25 10:8.8299999 11:0.68000001 12:3.4000001 13:6.79 14:2.72 15:5.71 16:12.23 17:4.7600002 18:6.52 19:1.77 20:3.6700001 #
7.2530733140085365182899152476628e-12 1:7.77 2:1.3099999 3:4.71 4:6.02 5:3.9300001 6:6.3699999 7:2.8800001 8:2.27 9:3.3199999 10:14.57 11:1.66 12:1.75 13:7.8499999 14:5.5799999 15:7.4200001 16:6.3699999 17:5.1500001 18:7.9400001 19:1.3099999 20:1.83 #
7.2530733140085365182899152476628e-12 1:4.1599998 2:1.5 3:5.9000001 4:5.5700002 5:4.3200002 6:8.3100004 7:2.49 8:6.48 9:5.5700002 10:8.5600004 11:2.8299999 12:4.8200002 13:5.0700002 14:4.9000001 15:5.9899998 16:7.1500001 17:4.8200002 18:6.6500001 19:0.82999998 20:4.0700002 #
-3.6265366570042682591449576238314e-12 1:8.1999998 2:2.6600001 3:3.55 4:7.3200002 5:2.4400001 6:5.9899998 7:2.6600001 8:2.22 9:5.0999999 10:12.42 11:2 12:2.22 13:9.5299997 14:6.4299998 15:6.4299998 16:7.0999999 17:4.4299998 18:5.9899998 19:1.33 20:2 #
-3.6265366570042682591449576238314e-12 1:5.9000001 2:1.0599999 3:7.6700001 4:8.1499996 5:2.5999999 6:7.6700001 7:2.8299999 8:3.4200001 9:7.79 10:9.21 11:2.1300001 12:4.5999999 13:6.02 14:4.5999999 15:6.02 16:9.6800003 17:3.6600001 18:3.3099999 19:0.47 20:3.1900001 #
-3.6265366570042682591449576238314e-12 1:5.75 2:2.5999999 3:5.21 4:6.5799999 5:3.97 6:7.9499998 7:2.1900001 8:2.8800001 9:3.5599999 10:10.14 11:2.74 12:2.5999999 13:6.8499999 14:4.9299998 15:4.9299998 16:8.3599997 17:4.3800001 18:9.04 19:2.1900001 20:3.1500001 #
7.2530733140085365182899152476628e-12 1:6.4000001 2:1.16 3:5.3899999 4:8.5900002 5:4.3699999 6:2.04 7:2.3299999 8:4.8000002 9:11.79 10:10.77 11:3.9300001 12:6.1100001 13:3.78 14:4.8000002 15:5.3899999 16:6.2600002 17:4.8000002 18:4.6599998 19:0.44 20:2.1800001 #
7.2530733140085365182899152476628e-12 1:5.3899999 2:1.01 3:6.0599999 4:7.0700002 5:6.0599999 6:2.3599999 7:3.7 8:5.0500002 9:11.78 10:9.4300003 11:2.3599999 12:7.4099998 13:3.7 14:3.7 15:3.3699999 16:7.7399998 17:4.71 18:5.3899999 19:0.67000002 20:3.03 #
7.2530733140085365182899152476628e-12 1:5.4899998 2:0.69999999 3:4.6500001 4:9.8599997 5:4.5100002 6:3.3800001 7:1.27 8:6.0599999 9:10.85 10:10.14 11:2.25 12:5.3499999 13:3.24 14:4.5100002 15:4.5100002 16:8.4499998 17:5.9200001 18:5.21 19:0.69999999 20:2.96 #
-3.6265366570042682591449576238314e-12 1:6.7800002 2:0.64999998 3:6.04 4:9.8400002 5:3.71 6:3.25 7:2.1400001 8:5.3899999 9:10.4 10:12.44 11:1.86 12:6.8699999 13:2.1400001 14:4.7399998 15:4.0900002 16:7.2399998 17:4.46 18:3.1600001 19:0.93000001 20:3.9000001 #
-3.6265366570042682591449576238314e-12 1:6.3299999 2:0.64999998 3:5.8400002 4:11.03 5:3.73 6:3.8099999 7:1.87 8:6.6500001 9:9.4099998 10:10.87 11:1.54 12:3.97 13:2.03 14:4.9499998 15:5.6799998 16:9 17:4.8699999 18:4.54 19:0.23999999 20:3 #
-3.6265366570042682591449576238314e-12 1:2.98 2:1.85 3:5.54 4:8.3800001 5:5.2600002 6:2.98 7:1.85 8:7.6700001 9:10.8 10:9.8000002 11:2.1300001 12:6.8200002 13:2.27 14:4.5500002 15:4.1199999 16:8.1000004 17:4.4000001 18:5.1100001 19:1.7 20:3.6900001 #
-3.6265366570042682591449576238314e-12 1:5.0700002 2:2.3 3:5.9899998 4:6.4499998 5:4.3000002 6:9.0600004 7:2.46 8:4.6100001 9:4.6100001 10:8.1400003 11:3.3800001 12:3.8399999 13:4.9200001 14:3.3800001 15:6.7600002 16:6.7600002 17:4.4499998 18:8.9099998 19:1.08 20:3.53 #
-3.6265366570042682591449576238314e-12 1:7.98 2:1.17 3:5.25 4:4.4699998 5:2.3299999 6:6.23 7:4.8600001 8:4.4699998 9:6.6100001 10:6.8099999 11:1.95 12:3.8900001 13:6.0300002 14:3.7 15:5.4499998 16:7.7800002 17:7.98 18:7.98 19:2.3299999 20:2.72 #
-3.6265366570042682591449576238314e-12 1:8.8500004 2:1.23 3:5.1599998 4:7.6199999 5:5.6500001 6:7.1300001 7:3.6900001 8:2.7 9:4.1799998 10:8.8500004 11:2.21 12:1.72 13:5.9000001 14:4.1799998 15:5.4099998 16:6.3899999 17:5.9000001 18:9.0900002 19:1.97 20:2.21 #
-3.6265366570042682591449576238314e-12 1:7.7800002 2:1.23 3:4.0900002 4:8.5900002 5:1.77 6:3.27 7:3.4100001 8:4.3699999 9:5.46 10:9.4099998 11:2.1800001 12:4.6399999 13:7.6399999 14:7.23 15:6.2800002 16:9.1400003 17:3.55 18:6.8200002 19:0.81999999 20:2.3199999 #
7.2530733140085365182899152476628e-12 1:6.0300002 2:1.21 3:5.8800001 4:10.41 5:3.6199999 6:3.1700001 7:1.36 8:6.3299999 9:9.3500004 10:10.71 11:2.26 12:6.3299999 13:3.77 14:2.8699999 15:5.4299998 16:8.6000004 17:4.98 18:4.98 19:0.30000001 20:2.4100001 #
-3.6265366570042682591449576238314e-12 1:6.3699999 2:0.83999997 3:6.1999998 4:10.89 5:2.9300001 6:3.02 7:1.51 8:7.04 9:8.79 10:10.3 11:1.6799999 12:5.7800002 13:1.9299999 14:4.6100001 15:6.2800002 16:9.3800001 17:4.6900001 18:4.6900001 19:0.17 20:2.9300001 #
-3.6265366570042682591449576238314e-12 1:6.5100002 2:1.37 3:4.4499998 4:9.25 5:3.4200001 6:3.0799999 7:0 8:5.8200002 9:9.9300003 10:15.07 11:3.0799999 12:6.8499999 13:1.03 14:3.77 15:3.0799999 16:5.8200002 17:5.48 18:5.1399999 19:1.03 20:5.8200002 #
-3.6265366570042682591449576238314e-12 1:4.3899999 2:0.23999999 3:6.3400002 4:10.65 5:3.3299999 6:3.9000001 7:1.3 8:7.3200002 9:10.08 10:10.98 11:1.79 12:6.9099998 13:1.3 14:5.77 15:5.1999998 16:7.4000001 17:5.3699999 18:5.6100001 19:0.16 20:1.95 #
7.2530733140085365182899152476628e-12 1:7.9200001 2:3.21 3:4.5300002 4:5.8499999 5:2.45 6:5.0900002 7:5.4699998 8:2.6400001 9:5.8499999 10:10.38 11:2.26 12:3.4000001 13:5.0900002 14:6.98 15:5.4699998 16:7.9200001 17:5.6599998 18:5.4699998 19:1.13 20:3.21 #
7.2530733140085365182899152476628e-12 1:7.0700002 2:1.85 3:6.0900002 4:6.6399999 5:5.6599998 6:7.73 7:2.8299999 8:3.5899999 9:5.2199998 10:10.45 11:1.96 12:3.1600001 13:3.1600001 14:3.05 15:5.3299999 16:8.71 17:6.1999998 18:6.96 19:1.85 20:2.5 #
-3.6265366570042682591449576238314e-12 1:4.9899998 2:1.11 3:4.4299998 4:6.9299998 5:4.4299998 6:4.71 7:3.8800001 8:3.8800001 9:7.48 10:10.25 11:3.3199999 12:3.05 13:7.1999998 14:3.5999999 15:7.7600002 16:7.7600002 17:5.2600002 18:5.2600002 19:0.82999998 20:3.8800001 #
-3.6265366570042682591449576238314e-12 1:9.0600004 2:0.94 3:4.9099998 4:6.79 5:3.96 6:6.4200001 7:1.7 8:5.0900002 9:6.79 10:6.98 11:2.8299999 12:3.21 13:4.3400002 14:3.96 15:10.94 16:10.57 17:4.1500001 18:5.0900002 19:0.38 20:1.89 #
-3.6265366570042682591449576238314e-12 1:4.8899999 2:0.94 3:5.7199998 4:4.9899998 5:3.6400001 6:4.1599998 7:1.66 8:3.3299999 9:8 10:9.04 11:1.04 12:3.95 13:7.3800001 14:5.9299998 15:7.3800001 16:11.54 17:7.6900001 18:6.5500002 19:0.41999999 20:1.77 #
5.2830715640066785050095854683689e-12 1:6.52 2:0.62 3:4.04 4:10.56 5:3.4200001 6:4.3499999 7:1.24 8:9.0100002 9:10.25 10:9.3199997 11:0.62 12:6.52 13:3.1099999 14:3.1099999 15:7.7600002 16:6.8299999 17:4.9699998 18:6.52 19:0 20:1.24 #
-3.6265366570042682591449576238314e-12 1:4.8299999 2:0.87 3:7.73 4:9.2799997 5:5.3099999 6:4.8299999 7:0.87 8:6.6700001 9:8.4099998 10:8.6999998 11:1.16 12:6.7600002 13:4.25 14:3.77 15:4.9299998 16:7.73 17:4.54 18:5.1199999 19:1.0599999 20:3.1900001 #
-3.6265366570042682591449576238314e-12 1:2.8499999 2:1.0700001 3:7.1199999 4:9.96 5:4.6300001 6:4.98 7:3.5599999 8:9.6099997 9:7.8299999 10:10.32 11:1.78 12:7.4699998 13:4.6300001 14:3.9100001 15:4.98 16:5.6900001 17:2.1400001 18:3.9100001 19:1.0700001 20:2.49 #
-3.6265366570042682591449576238314e-12 1:7.3600001 2:0.74000001 3:7.2600002 4:8.75 5:3.9100001 6:5.4000001 7:2.3299999 8:4.75 9:8.1899996 10:8.3800001 11:1.86 12:4.75 13:4.1900001 14:2.79 15:5.6799998 16:8.8500004 17:4.9299998 18:6.52 19:0.93000001 20:2.4200001 #
-3.6265366570042682591449576238314e-12 1:7.2399998 2:2.24 3:7.4099998 4:6.5500002 5:2.5899999 6:6.21 7:3.28 8:4.6599998 9:6.21 10:10 11:1.9 12:2.76 13:5.6900001 14:5 15:5.8600001 16:7.9299998 17:6.0300002 18:5.52 19:1.38 20:1.55 #
-3.6265366570042682591449576238314e-12 1:5.29 2:4.0100002 3:5.9299998 4:6.0900002 5:3.04 6:7.6900001 7:1.92 8:4.4899998 9:7.5300002 10:8.0100002 11:1.6 12:5.1300001 13:4.3299999 14:4.0100002 15:7.0500002 16:6.8899999 17:4.4899998 18:7.8499999 19:0.63999999 20:4.0100002 #
-3.6265366570042682591449576238314e-12 1:5.9000001 2:1.1799999 3:4.8499999 4:4.3299999 5:3.1500001 6:6.9499998 7:6.1599998 8:3.8 9:5.2399998 10:7.0799999 11:3.28 12:4.7199998 13:5.2399998 14:6.8200002 15:5.2399998 16:9.8299999 17:6.6799998 18:5.1100001 19:0.66000003 20:3.8 #
4.1529658756457762949547237430977e-12 1:6.4099998 2:0.17 3:10.12 4:13.49 5:2.53 6:3.3699999 7:1.01 8:5.0599999 9:9.6099997 10:7.9299998 11:1.52 12:4.5500002 13:3.54 14:3.3699999 15:4.5500002 16:10.79 17:4.0500002 18:5.5599999 19:0.50999999 20:1.85 #
-3.6265366570042682591449576238314e-12 1:6.5300002 2:1.51 3:9.0500002 4:10.05 5:1.51 6:2.01 7:1.51 8:8.04 9:8.54 10:10.55 11:3.52 12:2.51 13:1.51 14:6.0300002 15:3.02 16:10.05 17:4.02 18:6.0300002 19:1.51 20:2.51 #
-3.6265366570042682591449576238314e-12 1:6.3299999 2:1.4299999 3:4.4899998 4:13.67 5:3.47 6:1.63 7:2.8599999 8:7.3499999 9:10 10:10.41 11:2.8599999 12:5.0999999 13:2.45 14:5.5100002 15:4.6900001 16:6.73 17:5.3099999 18:4.4899998 19:0.2 20:1.02 #
-3.6265366570042682591449576238314e-12 1:5.4200001 2:0.68000001 3:5.9299998 4:11.86 5:3.05 6:3.73 7:2.2 8:6.6100001 9:9.4899998 10:9.1499996 11:2.71 12:5.25 13:2.54 14:5.4200001 15:6.27 16:7.46 17:4.2399998 18:3.73 19:1.1900001 20:3.05 #
7.2530733140085365182899152476628e-12 1:5.9899998 2:1.09 3:4.0900002 4:6.54 5:3.54 6:8.9899998 7:1.36 8:10.9 9:7.9000001 10:7.9000001 11:2.1800001 12:3.54 13:4.9000001 14:2.45 15:4.3600001 16:8.4499998 17:5.1799998 18:7.0799999 19:1.09 20:2.45 #
7.2530733140085365182899152476628e-12 1:6.21 2:1.6799999 3:6.4200001 4:6.9499998 5:4.9499998 6:6.7399998 7:2 8:4.3200002 9:5.79 10:7.8899999 11:2.8399999 12:4.8400002 13:9.0500002 14:4.1100001 15:7.5799999 16:5.5799999 17:2.74 18:5.1599998 19:1.58 20:3.5799999 #
-3.6265366570042682591449576238314e-12 1:7.2399998 2:3.1500001 3:4.7199998 4:7.8699999 5:3.3099999 6:4.8800001 7:2.2 8:5.8299999 9:5.98 10:8.0299997 11:1.5700001 12:5.5100002 13:4.0900002 14:4.0900002 15:8.1899996 16:8.0299997 17:5.3499999 18:6.1399999 19:0.63 20:3.1500001 #
-3.6265366570042682591449576238314e-12 1:4.2600002 2:2.4300001 3:6.3800001 4:4.2600002 5:7.5999999 6:5.7800002 7:2.1300001 8:6.6900001 9:6.3800001 10:9.1199999 11:1.8200001 12:7.29 13:4.8600001 14:3.6500001 15:2.1300001 16:9.4200001 17:5.7800002 18:4.8600001 19:0.91000003 20:4.2600002 #
7.2530733140085365182899152476628e-12 1:5.8000002 2:0.37 3:7.6500001 4:10.74 5:4.3200002 6:3.8299999 7:1.6 8:6.4200001 9:12.1 10:8.8900003 11:2.47 12:5.5599999 13:3.21 14:4.9400001 15:6.1700001 16:5.6799998 17:3.95 18:3.5799999 19:0.25 20:2.47 #
-3.6265366570042682591449576238314e-12 1:8.2799997 2:2.02 3:8.6899996 4:7.0700002 5:3.03 6:5.4499998 7:1.21 8:4.04 9:7.4699998 10:8.6899996 11:2.6300001 12:3.03 13:7.4699998 14:3.4300001 15:7.27 16:6.8699999 17:6.0599999 18:4.6500001 19:0.2 20:2.4200001 #
-3.6265366570042682591449576238314e-12 1:5.9699998 2:0.63 3:3.77 4:5.6599998 5:4.0900002 6:8.1800003 7:0.63 8:9.4300003 9:6.9200001 10:7.8600001 11:1.26 12:5.3499999 13:7.5500002 14:5.0300002 15:4.4000001 16:6.5999999 17:4.4000001 18:8.4899998 19:0.31 20:3.46 #
